digraph Tree {
node [shape=box, style="filled, rounded", color="black", fontname="helvetica"] ;
edge [fontname="helvetica"] ;
0 [label="health_not_recom <= 0.5\nentropy = 1.708\nsamples = 5184\nvalue = [1697.0, 1713.0, 1652.0, 122.0]\nclass = priority", fillcolor="#fefffe"] ;
1 [label="has_nurs_very_crit <= 0.5\nentropy = 1.184\nsamples = 3487\nvalue = [0, 1713, 1652, 122]\nclass = priority", fillcolor="#f9fef8"] ;
0 -> 1 [labeldistance=2.5, labelangle=45, headlabel="True"] ;
2 [label="has_nurs_critical <= 0.5\nentropy = 1.18\nsamples = 2771\nvalue = [0, 1629, 1020, 122]\nclass = priority", fillcolor="#bff6ba"] ;
1 -> 2 ;
3 [label="entropy = 1.104\nsamples = 2066\nvalue = [0, 1435, 509, 122]\nclass = priority", fillcolor="#92f089"] ;
2 -> 3 ;
4 [label="entropy = 0.849\nsamples = 705\nvalue = [0.0, 194.0, 511.0, 0.0]\nclass = spec_prior", fillcolor="#84c2ef"] ;
2 -> 4 ;
5 [label="health_priority <= 0.5\nentropy = 0.522\nsamples = 716\nvalue = [0, 84, 632, 0]\nclass = spec_prior", fillcolor="#53aae8"] ;
1 -> 5 ;
6 [label="entropy = 0.77\nsamples = 355\nvalue = [0, 80, 275, 0]\nclass = spec_prior", fillcolor="#73baed"] ;
5 -> 6 ;
7 [label="entropy = 0.088\nsamples = 361\nvalue = [0, 4, 357, 0]\nclass = spec_prior", fillcolor="#3b9ee5"] ;
5 -> 7 ;
8 [label="entropy = 0.0\nsamples = 1697\nvalue = [1697, 0, 0, 0]\nclass = not_recom", fillcolor="#e58139"] ;
0 -> 8 [labeldistance=2.5, labelangle=-45, headlabel="False"] ;
}
