digraph Tree {
node [shape=box, style="filled, rounded", color="black", fontname="helvetica"] ;
edge [fontname="helvetica"] ;
0 [label="health_not_recom <= 0.5\nentropy = 1.708\nsamples = 5184\nvalue = [1697.0, 1713.0, 1652.0, 122.0]\nclass = priority", fillcolor="#fefffe"] ;
1 [label="has_nurs_very_crit <= 0.5\nentropy = 1.184\nsamples = 3487\nvalue = [0, 1713, 1652, 122]\nclass = priority", fillcolor="#f9fef8"] ;
0 -> 1 [labeldistance=2.5, labelangle=45, headlabel="True"] ;
2 [label="has_nurs_critical <= 0.5\nentropy = 1.18\nsamples = 2771\nvalue = [0, 1629, 1020, 122]\nclass = priority", fillcolor="#bff6ba"] ;
1 -> 2 ;
3 [label="parents_great_pret <= 0.5\nentropy = 1.104\nsamples = 2066\nvalue = [0, 1435, 509, 122]\nclass = priority", fillcolor="#92f089"] ;
2 -> 3 ;
4 [label="has_nurs_improper <= 0.5\nentropy = 0.825\nsamples = 1365\nvalue = [0.0, 1134.0, 109.0, 122.0]\nclass = priority", fillcolor="#69ea5e"] ;
3 -> 4 ;
5 [label="health_priority <= 0.5\nentropy = 0.481\nsamples = 895\nvalue = [0, 802, 0, 93]\nclass = priority", fillcolor="#5ce850"] ;
4 -> 5 ;
6 [label="entropy = 0.752\nsamples = 431\nvalue = [0, 338, 0, 93]\nclass = priority", fillcolor="#7aec6f"] ;
5 -> 6 ;
7 [label="entropy = 0.0\nsamples = 464\nvalue = [0, 464, 0, 0]\nclass = priority", fillcolor="#47e539"] ;
5 -> 7 ;
8 [label="parents_pretentious <= 0.5\nentropy = 1.091\nsamples = 470\nvalue = [0, 332, 109, 29]\nclass = priority", fillcolor="#8def85"] ;
4 -> 8 ;
9 [label="entropy = 0.529\nsamples = 242\nvalue = [0, 213, 0, 29]\nclass = priority", fillcolor="#60e954"] ;
8 -> 9 ;
10 [label="entropy = 0.999\nsamples = 228\nvalue = [0.0, 119.0, 109.0, 0.0]\nclass = priority", fillcolor="#f0fdee"] ;
8 -> 10 ;
11 [label="has_nurs_improper <= 0.5\nentropy = 0.986\nsamples = 701\nvalue = [0, 301, 400, 0]\nclass = spec_prior", fillcolor="#cee7f9"] ;
3 -> 11 ;
12 [label="health_recommended <= 0.5\nentropy = 0.986\nsamples = 471\nvalue = [0, 268, 203, 0]\nclass = priority", fillcolor="#d2f9cf"] ;
11 -> 12 ;
13 [label="entropy = 0.924\nsamples = 224\nvalue = [0, 76, 148, 0]\nclass = spec_prior", fillcolor="#9fcff2"] ;
12 -> 13 ;
14 [label="entropy = 0.765\nsamples = 247\nvalue = [0, 192, 55, 0]\nclass = priority", fillcolor="#7cec72"] ;
12 -> 14 ;
15 [label="health_priority <= 0.5\nentropy = 0.593\nsamples = 230\nvalue = [0, 33, 197, 0]\nclass = spec_prior", fillcolor="#5aade9"] ;
11 -> 15 ;
16 [label="entropy = 0.848\nsamples = 113\nvalue = [0.0, 31.0, 82.0, 0.0]\nclass = spec_prior", fillcolor="#84c2ef"] ;
15 -> 16 ;
17 [label="entropy = 0.125\nsamples = 117\nvalue = [0, 2, 115, 0]\nclass = spec_prior", fillcolor="#3c9fe5"] ;
15 -> 17 ;
18 [label="parents_usual <= 0.5\nentropy = 0.849\nsamples = 705\nvalue = [0.0, 194.0, 511.0, 0.0]\nclass = spec_prior", fillcolor="#84c2ef"] ;
2 -> 18 ;
19 [label="health_recommended <= 0.5\nentropy = 0.518\nsamples = 465\nvalue = [0, 54, 411, 0]\nclass = spec_prior", fillcolor="#53aae8"] ;
18 -> 19 ;
20 [label="form_complete <= 0.5\nentropy = 0.148\nsamples = 236\nvalue = [0, 5, 231, 0]\nclass = spec_prior", fillcolor="#3d9fe6"] ;
19 -> 20 ;
21 [label="entropy = 0.0\nsamples = 174\nvalue = [0, 0, 174, 0]\nclass = spec_prior", fillcolor="#399de5"] ;
20 -> 21 ;
22 [label="entropy = 0.404\nsamples = 62\nvalue = [0, 5, 57, 0]\nclass = spec_prior", fillcolor="#4aa6e7"] ;
20 -> 22 ;
23 [label="social_problematic <= 0.5\nentropy = 0.749\nsamples = 229\nvalue = [0, 49, 180, 0]\nclass = spec_prior", fillcolor="#6fb8ec"] ;
19 -> 23 ;
24 [label="entropy = 0.904\nsamples = 150\nvalue = [0.0, 48.0, 102.0, 0.0]\nclass = spec_prior", fillcolor="#96cbf1"] ;
23 -> 24 ;
25 [label="entropy = 0.098\nsamples = 79\nvalue = [0, 1, 78, 0]\nclass = spec_prior", fillcolor="#3c9ee5"] ;
23 -> 25 ;
26 [label="health_recommended <= 0.5\nentropy = 0.98\nsamples = 240\nvalue = [0, 140, 100, 0]\nclass = priority", fillcolor="#caf8c6"] ;
18 -> 26 ;
27 [label="housing_convenient <= 0.5\nentropy = 0.947\nsamples = 115\nvalue = [0, 42, 73, 0]\nclass = spec_prior", fillcolor="#abd5f4"] ;
26 -> 27 ;
28 [label="entropy = 0.689\nsamples = 76\nvalue = [0, 14, 62, 0]\nclass = spec_prior", fillcolor="#66b3eb"] ;
27 -> 28 ;
29 [label="entropy = 0.858\nsamples = 39\nvalue = [0, 28, 11, 0]\nclass = priority", fillcolor="#8fef87"] ;
27 -> 29 ;
30 [label="social_problematic <= 0.5\nentropy = 0.753\nsamples = 125\nvalue = [0, 98, 27, 0]\nclass = priority", fillcolor="#7aec70"] ;
26 -> 30 ;
31 [label="entropy = 0.0\nsamples = 80\nvalue = [0, 80, 0, 0]\nclass = priority", fillcolor="#47e539"] ;
30 -> 31 ;
32 [label="entropy = 0.971\nsamples = 45\nvalue = [0, 18, 27, 0]\nclass = spec_prior", fillcolor="#bddef6"] ;
30 -> 32 ;
33 [label="health_recommended <= 0.5\nentropy = 0.522\nsamples = 716\nvalue = [0, 84, 632, 0]\nclass = spec_prior", fillcolor="#53aae8"] ;
1 -> 33 ;
34 [label="children_1 <= 0.5\nentropy = 0.088\nsamples = 361\nvalue = [0, 4, 357, 0]\nclass = spec_prior", fillcolor="#3b9ee5"] ;
33 -> 34 ;
35 [label="entropy = 0.0\nsamples = 272\nvalue = [0, 0, 272, 0]\nclass = spec_prior", fillcolor="#399de5"] ;
34 -> 35 ;
36 [label="form_complete <= 0.5\nentropy = 0.265\nsamples = 89\nvalue = [0, 4, 85, 0]\nclass = spec_prior", fillcolor="#42a2e6"] ;
34 -> 36 ;
37 [label="entropy = 0.0\nsamples = 60\nvalue = [0, 0, 60, 0]\nclass = spec_prior", fillcolor="#399de5"] ;
36 -> 37 ;
38 [label="housing_convenient <= 0.5\nentropy = 0.579\nsamples = 29\nvalue = [0, 4, 25, 0]\nclass = spec_prior", fillcolor="#59ade9"] ;
36 -> 38 ;
39 [label="entropy = 0.0\nsamples = 20\nvalue = [0, 0, 20, 0]\nclass = spec_prior", fillcolor="#399de5"] ;
38 -> 39 ;
40 [label="entropy = 0.991\nsamples = 9\nvalue = [0, 4, 5, 0]\nclass = spec_prior", fillcolor="#d7ebfa"] ;
38 -> 40 ;
41 [label="social_problematic <= 0.5\nentropy = 0.77\nsamples = 355\nvalue = [0, 80, 275, 0]\nclass = spec_prior", fillcolor="#73baed"] ;
33 -> 41 ;
42 [label="housing_critical <= 0.5\nentropy = 0.91\nsamples = 243\nvalue = [0, 79, 164, 0]\nclass = spec_prior", fillcolor="#98ccf2"] ;
41 -> 42 ;
43 [label="children_1 <= 0.5\nentropy = 1.0\nsamples = 153\nvalue = [0, 76, 77, 0]\nclass = spec_prior", fillcolor="#fcfeff"] ;
42 -> 43 ;
44 [label="entropy = 0.956\nsamples = 106\nvalue = [0, 40, 66, 0]\nclass = spec_prior", fillcolor="#b1d8f5"] ;
43 -> 44 ;
45 [label="entropy = 0.785\nsamples = 47\nvalue = [0, 36, 11, 0]\nclass = priority", fillcolor="#7fed76"] ;
43 -> 45 ;
46 [label="children_1 <= 0.5\nentropy = 0.211\nsamples = 90\nvalue = [0, 3, 87, 0]\nclass = spec_prior", fillcolor="#40a0e6"] ;
42 -> 46 ;
47 [label="entropy = 0.0\nsamples = 74\nvalue = [0, 0, 74, 0]\nclass = spec_prior", fillcolor="#399de5"] ;
46 -> 47 ;
48 [label="entropy = 0.696\nsamples = 16\nvalue = [0, 3, 13, 0]\nclass = spec_prior", fillcolor="#67b4eb"] ;
46 -> 48 ;
49 [label="form_complete <= 0.5\nentropy = 0.074\nsamples = 112\nvalue = [0, 1, 111, 0]\nclass = spec_prior", fillcolor="#3b9ee5"] ;
41 -> 49 ;
50 [label="entropy = 0.0\nsamples = 87\nvalue = [0, 0, 87, 0]\nclass = spec_prior", fillcolor="#399de5"] ;
49 -> 50 ;
51 [label="children_1 <= 0.5\nentropy = 0.242\nsamples = 25\nvalue = [0, 1, 24, 0]\nclass = spec_prior", fillcolor="#41a1e6"] ;
49 -> 51 ;
52 [label="entropy = 0.0\nsamples = 19\nvalue = [0, 0, 19, 0]\nclass = spec_prior", fillcolor="#399de5"] ;
51 -> 52 ;
53 [label="entropy = 0.65\nsamples = 6\nvalue = [0, 1, 5, 0]\nclass = spec_prior", fillcolor="#61b1ea"] ;
51 -> 53 ;
54 [label="entropy = 0.0\nsamples = 1697\nvalue = [1697, 0, 0, 0]\nclass = not_recom", fillcolor="#e58139"] ;
0 -> 54 [labeldistance=2.5, labelangle=-45, headlabel="False"] ;
}
