digraph Tree {
node [shape=box, style="filled, rounded", color="black", fontname="helvetica"] ;
edge [fontname="helvetica"] ;
0 [label="health_not_recom <= 0.5\nentropy = 1.708\nsamples = 5184\nvalue = [1697.0, 1713.0, 1652.0, 122.0]\nclass = priority", fillcolor="#fefffe"] ;
1 [label="has_nurs_very_crit <= 0.5\nentropy = 1.184\nsamples = 3487\nvalue = [0, 1713, 1652, 122]\nclass = priority", fillcolor="#f9fef8"] ;
0 -> 1 [labeldistance=2.5, labelangle=45, headlabel="True"] ;
2 [label="has_nurs_critical <= 0.5\nentropy = 1.18\nsamples = 2771\nvalue = [0, 1629, 1020, 122]\nclass = priority", fillcolor="#bff6ba"] ;
1 -> 2 ;
3 [label="parents_great_pret <= 0.5\nentropy = 1.104\nsamples = 2066\nvalue = [0, 1435, 509, 122]\nclass = priority", fillcolor="#92f089"] ;
2 -> 3 ;
4 [label="has_nurs_improper <= 0.5\nentropy = 0.825\nsamples = 1365\nvalue = [0.0, 1134.0, 109.0, 122.0]\nclass = priority", fillcolor="#69ea5e"] ;
3 -> 4 ;
5 [label="health_recommended <= 0.5\nentropy = 0.481\nsamples = 895\nvalue = [0, 802, 0, 93]\nclass = priority", fillcolor="#5ce850"] ;
4 -> 5 ;
6 [label="entropy = 0.0\nsamples = 464\nvalue = [0, 464, 0, 0]\nclass = priority", fillcolor="#47e539"] ;
5 -> 6 ;
7 [label="social_problematic <= 0.5\nentropy = 0.752\nsamples = 431\nvalue = [0, 338, 0, 93]\nclass = priority", fillcolor="#7aec6f"] ;
5 -> 7 ;
8 [label="housing_convenient <= 0.5\nentropy = 0.908\nsamples = 288\nvalue = [0, 195, 0, 93]\nclass = priority", fillcolor="#9ff197"] ;
7 -> 8 ;
9 [label="children_1 <= 0.5\nentropy = 0.705\nsamples = 198\nvalue = [0, 160, 0, 38]\nclass = priority", fillcolor="#73eb68"] ;
8 -> 9 ;
10 [label="children_2 <= 0.5\nentropy = 0.452\nsamples = 148\nvalue = [0, 134, 0, 14]\nclass = priority", fillcolor="#5ae84e"] ;
9 -> 10 ;
11 [label="entropy = 0.0\nsamples = 95\nvalue = [0, 95, 0, 0]\nclass = priority", fillcolor="#47e539"] ;
10 -> 11 ;
12 [label="housing_less_conv <= 0.5\nentropy = 0.833\nsamples = 53\nvalue = [0, 39, 0, 14]\nclass = priority", fillcolor="#89ee80"] ;
10 -> 12 ;
13 [label="entropy = 0.0\nsamples = 21\nvalue = [0, 21, 0, 0]\nclass = priority", fillcolor="#47e539"] ;
12 -> 13 ;
14 [label="form_completed <= 0.5\nentropy = 0.989\nsamples = 32\nvalue = [0, 18, 0, 14]\nclass = priority", fillcolor="#d6f9d3"] ;
12 -> 14 ;
15 [label="entropy = 0.811\nsamples = 24\nvalue = [0, 18, 0, 6]\nclass = priority", fillcolor="#84ee7b"] ;
14 -> 15 ;
16 [label="entropy = 0.0\nsamples = 8\nvalue = [0, 0, 0, 8]\nclass = very_recom", fillcolor="#d739e5"] ;
14 -> 16 ;
17 [label="form_complete <= 0.5\nentropy = 0.999\nsamples = 50\nvalue = [0, 26, 0, 24]\nclass = priority", fillcolor="#f1fdf0"] ;
9 -> 17 ;
18 [label="housing_less_conv <= 0.5\nentropy = 0.852\nsamples = 36\nvalue = [0, 26, 0, 10]\nclass = priority", fillcolor="#8eef85"] ;
17 -> 18 ;
19 [label="entropy = 0.0\nsamples = 21\nvalue = [0, 21, 0, 0]\nclass = priority", fillcolor="#47e539"] ;
18 -> 19 ;
20 [label="form_foster <= 0.5\nentropy = 0.918\nsamples = 15\nvalue = [0, 5, 0, 10]\nclass = very_recom", fillcolor="#eb9cf2"] ;
18 -> 20 ;
21 [label="entropy = 0.0\nsamples = 10\nvalue = [0, 0, 0, 10]\nclass = very_recom", fillcolor="#d739e5"] ;
20 -> 21 ;
22 [label="entropy = 0.0\nsamples = 5\nvalue = [0, 5, 0, 0]\nclass = priority", fillcolor="#47e539"] ;
20 -> 22 ;
23 [label="entropy = 0.0\nsamples = 14\nvalue = [0, 0, 0, 14]\nclass = very_recom", fillcolor="#d739e5"] ;
17 -> 23 ;
24 [label="finance_convenient <= 0.5\nentropy = 0.964\nsamples = 90\nvalue = [0.0, 35.0, 0.0, 55.0]\nclass = very_recom", fillcolor="#f0b7f6"] ;
8 -> 24 ;
25 [label="children_1 <= 0.5\nentropy = 0.65\nsamples = 42\nvalue = [0, 35, 0, 7]\nclass = priority", fillcolor="#6cea61"] ;
24 -> 25 ;
26 [label="children_2 <= 0.5\nentropy = 0.316\nsamples = 35\nvalue = [0, 33, 0, 2]\nclass = priority", fillcolor="#52e745"] ;
25 -> 26 ;
27 [label="entropy = 0.0\nsamples = 28\nvalue = [0, 28, 0, 0]\nclass = priority", fillcolor="#47e539"] ;
26 -> 27 ;
28 [label="form_complete <= 0.5\nentropy = 0.863\nsamples = 7\nvalue = [0, 5, 0, 2]\nclass = priority", fillcolor="#91ef88"] ;
26 -> 28 ;
29 [label="entropy = 0.65\nsamples = 6\nvalue = [0, 5, 0, 1]\nclass = priority", fillcolor="#6cea61"] ;
28 -> 29 ;
30 [label="entropy = 0.0\nsamples = 1\nvalue = [0, 0, 0, 1]\nclass = very_recom", fillcolor="#d739e5"] ;
28 -> 30 ;
31 [label="form_foster <= 0.5\nentropy = 0.863\nsamples = 7\nvalue = [0, 2, 0, 5]\nclass = very_recom", fillcolor="#e788ef"] ;
25 -> 31 ;
32 [label="entropy = 0.0\nsamples = 5\nvalue = [0, 0, 0, 5]\nclass = very_recom", fillcolor="#d739e5"] ;
31 -> 32 ;
33 [label="entropy = 0.0\nsamples = 2\nvalue = [0, 2, 0, 0]\nclass = priority", fillcolor="#47e539"] ;
31 -> 33 ;
34 [label="entropy = 0.0\nsamples = 48\nvalue = [0, 0, 0, 48]\nclass = very_recom", fillcolor="#d739e5"] ;
24 -> 34 ;
35 [label="entropy = 0.0\nsamples = 143\nvalue = [0, 143, 0, 0]\nclass = priority", fillcolor="#47e539"] ;
7 -> 35 ;
36 [label="parents_usual <= 0.5\nentropy = 1.091\nsamples = 470\nvalue = [0, 332, 109, 29]\nclass = priority", fillcolor="#8def85"] ;
4 -> 36 ;
37 [label="health_recommended <= 0.5\nentropy = 0.999\nsamples = 228\nvalue = [0.0, 119.0, 109.0, 0.0]\nclass = priority", fillcolor="#f0fdee"] ;
36 -> 37 ;
38 [label="housing_critical <= 0.5\nentropy = 0.883\nsamples = 116\nvalue = [0, 35, 81, 0]\nclass = spec_prior", fillcolor="#8fc7f0"] ;
37 -> 38 ;
39 [label="form_foster <= 0.5\nentropy = 0.993\nsamples = 71\nvalue = [0, 32, 39, 0]\nclass = spec_prior", fillcolor="#dbedfa"] ;
38 -> 39 ;
40 [label="children_1 <= 0.5\nentropy = 0.994\nsamples = 55\nvalue = [0.0, 30.0, 25.0, 0.0]\nclass = priority", fillcolor="#e0fbde"] ;
39 -> 40 ;
41 [label="children_2 <= 0.5\nentropy = 0.981\nsamples = 43\nvalue = [0, 18, 25, 0]\nclass = spec_prior", fillcolor="#c8e4f8"] ;
40 -> 41 ;
42 [label="housing_convenient <= 0.5\nentropy = 0.779\nsamples = 26\nvalue = [0, 6, 20, 0]\nclass = spec_prior", fillcolor="#74baed"] ;
41 -> 42 ;
43 [label="entropy = 0.0\nsamples = 13\nvalue = [0, 0, 13, 0]\nclass = spec_prior", fillcolor="#399de5"] ;
42 -> 43 ;
44 [label="entropy = 0.996\nsamples = 13\nvalue = [0, 6, 7, 0]\nclass = spec_prior", fillcolor="#e3f1fb"] ;
42 -> 44 ;
45 [label="form_incomplete <= 0.5\nentropy = 0.874\nsamples = 17\nvalue = [0, 12, 5, 0]\nclass = priority", fillcolor="#94f08b"] ;
41 -> 45 ;
46 [label="entropy = 0.0\nsamples = 12\nvalue = [0, 12, 0, 0]\nclass = priority", fillcolor="#47e539"] ;
45 -> 46 ;
47 [label="entropy = 0.0\nsamples = 5\nvalue = [0, 0, 5, 0]\nclass = spec_prior", fillcolor="#399de5"] ;
45 -> 47 ;
48 [label="entropy = 0.0\nsamples = 12\nvalue = [0, 12, 0, 0]\nclass = priority", fillcolor="#47e539"] ;
40 -> 48 ;
49 [label="finance_convenient <= 0.5\nentropy = 0.544\nsamples = 16\nvalue = [0, 2, 14, 0]\nclass = spec_prior", fillcolor="#55abe9"] ;
39 -> 49 ;
50 [label="entropy = 0.0\nsamples = 10\nvalue = [0, 0, 10, 0]\nclass = spec_prior", fillcolor="#399de5"] ;
49 -> 50 ;
51 [label="housing_less_conv <= 0.5\nentropy = 0.918\nsamples = 6\nvalue = [0, 2, 4, 0]\nclass = spec_prior", fillcolor="#9ccef2"] ;
49 -> 51 ;
52 [label="entropy = 0.0\nsamples = 2\nvalue = [0, 2, 0, 0]\nclass = priority", fillcolor="#47e539"] ;
51 -> 52 ;
53 [label="entropy = 0.0\nsamples = 4\nvalue = [0, 0, 4, 0]\nclass = spec_prior", fillcolor="#399de5"] ;
51 -> 53 ;
54 [label="form_complete <= 0.5\nentropy = 0.353\nsamples = 45\nvalue = [0, 3, 42, 0]\nclass = spec_prior", fillcolor="#47a4e7"] ;
38 -> 54 ;
55 [label="entropy = 0.0\nsamples = 39\nvalue = [0, 0, 39, 0]\nclass = spec_prior", fillcolor="#399de5"] ;
54 -> 55 ;
56 [label="children_1 <= 0.5\nentropy = 1.0\nsamples = 6\nvalue = [0, 3, 3, 0]\nclass = priority", fillcolor="#ffffff"] ;
54 -> 56 ;
57 [label="entropy = 0.0\nsamples = 3\nvalue = [0, 0, 3, 0]\nclass = spec_prior", fillcolor="#399de5"] ;
56 -> 57 ;
58 [label="entropy = 0.0\nsamples = 3\nvalue = [0, 3, 0, 0]\nclass = priority", fillcolor="#47e539"] ;
56 -> 58 ;
59 [label="social_problematic <= 0.5\nentropy = 0.811\nsamples = 112\nvalue = [0, 84, 28, 0]\nclass = priority", fillcolor="#84ee7b"] ;
37 -> 59 ;
60 [label="entropy = 0.0\nsamples = 72\nvalue = [0, 72, 0, 0]\nclass = priority", fillcolor="#47e539"] ;
59 -> 60 ;
61 [label="housing_critical <= 0.5\nentropy = 0.881\nsamples = 40\nvalue = [0, 12, 28, 0]\nclass = spec_prior", fillcolor="#8ec7f0"] ;
59 -> 61 ;
62 [label="finance_inconv <= 0.5\nentropy = 0.999\nsamples = 25\nvalue = [0, 12, 13, 0]\nclass = spec_prior", fillcolor="#f0f7fd"] ;
61 -> 62 ;
63 [label="housing_less_conv <= 0.5\nentropy = 0.811\nsamples = 12\nvalue = [0, 9, 3, 0]\nclass = priority", fillcolor="#84ee7b"] ;
62 -> 63 ;
64 [label="entropy = 0.0\nsamples = 8\nvalue = [0, 8, 0, 0]\nclass = priority", fillcolor="#47e539"] ;
63 -> 64 ;
65 [label="children_2 <= 0.5\nentropy = 0.811\nsamples = 4\nvalue = [0, 1, 3, 0]\nclass = spec_prior", fillcolor="#7bbeee"] ;
63 -> 65 ;
66 [label="entropy = 0.0\nsamples = 3\nvalue = [0, 0, 3, 0]\nclass = spec_prior", fillcolor="#399de5"] ;
65 -> 66 ;
67 [label="entropy = 0.0\nsamples = 1\nvalue = [0, 1, 0, 0]\nclass = priority", fillcolor="#47e539"] ;
65 -> 67 ;
68 [label="children_1 <= 0.5\nentropy = 0.779\nsamples = 13\nvalue = [0, 3, 10, 0]\nclass = spec_prior", fillcolor="#74baed"] ;
62 -> 68 ;
69 [label="entropy = 0.0\nsamples = 9\nvalue = [0, 0, 9, 0]\nclass = spec_prior", fillcolor="#399de5"] ;
68 -> 69 ;
70 [label="form_foster <= 0.5\nentropy = 0.811\nsamples = 4\nvalue = [0, 3, 1, 0]\nclass = priority", fillcolor="#84ee7b"] ;
68 -> 70 ;
71 [label="entropy = 0.0\nsamples = 3\nvalue = [0, 3, 0, 0]\nclass = priority", fillcolor="#47e539"] ;
70 -> 71 ;
72 [label="entropy = 0.0\nsamples = 1\nvalue = [0, 0, 1, 0]\nclass = spec_prior", fillcolor="#399de5"] ;
70 -> 72 ;
73 [label="entropy = 0.0\nsamples = 15\nvalue = [0, 0, 15, 0]\nclass = spec_prior", fillcolor="#399de5"] ;
61 -> 73 ;
74 [label="health_priority <= 0.5\nentropy = 0.529\nsamples = 242\nvalue = [0, 213, 0, 29]\nclass = priority", fillcolor="#60e954"] ;
36 -> 74 ;
75 [label="social_problematic <= 0.5\nentropy = 0.794\nsamples = 121\nvalue = [0, 92, 0, 29]\nclass = priority", fillcolor="#81ed77"] ;
74 -> 75 ;
76 [label="housing_convenient <= 0.5\nentropy = 0.93\nsamples = 84\nvalue = [0, 55, 0, 29]\nclass = priority", fillcolor="#a8f3a1"] ;
75 -> 76 ;
77 [label="form_foster <= 0.5\nentropy = 0.691\nsamples = 54\nvalue = [0, 44, 0, 10]\nclass = priority", fillcolor="#71eb66"] ;
76 -> 77 ;
78 [label="children_more <= 0.5\nentropy = 0.852\nsamples = 36\nvalue = [0, 26, 0, 10]\nclass = priority", fillcolor="#8eef85"] ;
77 -> 78 ;
79 [label="children_3 <= 0.5\nentropy = 0.971\nsamples = 25\nvalue = [0, 15, 0, 10]\nclass = priority", fillcolor="#c2f6bd"] ;
78 -> 79 ;
80 [label="entropy = 0.998\nsamples = 19\nvalue = [0, 9, 0, 10]\nclass = very_recom", fillcolor="#fbebfc"] ;
79 -> 80 ;
81 [label="entropy = 0.0\nsamples = 6\nvalue = [0, 6, 0, 0]\nclass = priority", fillcolor="#47e539"] ;
79 -> 81 ;
82 [label="entropy = 0.0\nsamples = 11\nvalue = [0, 11, 0, 0]\nclass = priority", fillcolor="#47e539"] ;
78 -> 82 ;
83 [label="entropy = 0.0\nsamples = 18\nvalue = [0, 18, 0, 0]\nclass = priority", fillcolor="#47e539"] ;
77 -> 83 ;
84 [label="finance_inconv <= 0.5\nentropy = 0.948\nsamples = 30\nvalue = [0, 11, 0, 19]\nclass = very_recom", fillcolor="#eeacf4"] ;
76 -> 84 ;
85 [label="entropy = 0.0\nsamples = 13\nvalue = [0, 0, 0, 13]\nclass = very_recom", fillcolor="#d739e5"] ;
84 -> 85 ;
86 [label="children_1 <= 0.5\nentropy = 0.937\nsamples = 17\nvalue = [0, 11, 0, 6]\nclass = priority", fillcolor="#abf3a5"] ;
84 -> 86 ;
87 [label="form_complete <= 0.5\nentropy = 0.65\nsamples = 12\nvalue = [0, 10, 0, 2]\nclass = priority", fillcolor="#6cea61"] ;
86 -> 87 ;
88 [label="entropy = 0.0\nsamples = 8\nvalue = [0, 8, 0, 0]\nclass = priority", fillcolor="#47e539"] ;
87 -> 88 ;
89 [label="entropy = 1.0\nsamples = 4\nvalue = [0, 2, 0, 2]\nclass = priority", fillcolor="#ffffff"] ;
87 -> 89 ;
90 [label="form_foster <= 0.5\nentropy = 0.722\nsamples = 5\nvalue = [0, 1, 0, 4]\nclass = very_recom", fillcolor="#e16aec"] ;
86 -> 90 ;
91 [label="entropy = 0.0\nsamples = 4\nvalue = [0, 0, 0, 4]\nclass = very_recom", fillcolor="#d739e5"] ;
90 -> 91 ;
92 [label="entropy = 0.0\nsamples = 1\nvalue = [0, 1, 0, 0]\nclass = priority", fillcolor="#47e539"] ;
90 -> 92 ;
93 [label="entropy = 0.0\nsamples = 37\nvalue = [0, 37, 0, 0]\nclass = priority", fillcolor="#47e539"] ;
75 -> 93 ;
94 [label="entropy = 0.0\nsamples = 121\nvalue = [0, 121, 0, 0]\nclass = priority", fillcolor="#47e539"] ;
74 -> 94 ;
95 [label="has_nurs_improper <= 0.5\nentropy = 0.986\nsamples = 701\nvalue = [0, 301, 400, 0]\nclass = spec_prior", fillcolor="#cee7f9"] ;
3 -> 95 ;
96 [label="health_priority <= 0.5\nentropy = 0.986\nsamples = 471\nvalue = [0, 268, 203, 0]\nclass = priority", fillcolor="#d2f9cf"] ;
95 -> 96 ;
97 [label="social_problematic <= 0.5\nentropy = 0.765\nsamples = 247\nvalue = [0, 192, 55, 0]\nclass = priority", fillcolor="#7cec72"] ;
96 -> 97 ;
98 [label="entropy = 0.0\nsamples = 164\nvalue = [0, 164, 0, 0]\nclass = priority", fillcolor="#47e539"] ;
97 -> 98 ;
99 [label="housing_critical <= 0.5\nentropy = 0.922\nsamples = 83\nvalue = [0.0, 28.0, 55.0, 0.0]\nclass = spec_prior", fillcolor="#9ecff2"] ;
97 -> 99 ;
100 [label="children_1 <= 0.5\nentropy = 0.994\nsamples = 57\nvalue = [0, 26, 31, 0]\nclass = spec_prior", fillcolor="#dfeffb"] ;
99 -> 100 ;
101 [label="children_2 <= 0.5\nentropy = 0.95\nsamples = 46\nvalue = [0, 17, 29, 0]\nclass = spec_prior", fillcolor="#add6f4"] ;
100 -> 101 ;
102 [label="finance_convenient <= 0.5\nentropy = 0.771\nsamples = 31\nvalue = [0, 7, 24, 0]\nclass = spec_prior", fillcolor="#73baed"] ;
101 -> 102 ;
103 [label="entropy = 0.0\nsamples = 16\nvalue = [0, 0, 16, 0]\nclass = spec_prior", fillcolor="#399de5"] ;
102 -> 103 ;
104 [label="housing_less_conv <= 0.5\nentropy = 0.997\nsamples = 15\nvalue = [0, 7, 8, 0]\nclass = spec_prior", fillcolor="#e6f3fc"] ;
102 -> 104 ;
105 [label="entropy = 0.0\nsamples = 7\nvalue = [0, 7, 0, 0]\nclass = priority", fillcolor="#47e539"] ;
104 -> 105 ;
106 [label="entropy = 0.0\nsamples = 8\nvalue = [0, 0, 8, 0]\nclass = spec_prior", fillcolor="#399de5"] ;
104 -> 106 ;
107 [label="form_completed <= 0.5\nentropy = 0.918\nsamples = 15\nvalue = [0, 10, 5, 0]\nclass = priority", fillcolor="#a3f29c"] ;
101 -> 107 ;
108 [label="form_complete <= 0.5\nentropy = 0.991\nsamples = 9\nvalue = [0, 4, 5, 0]\nclass = spec_prior", fillcolor="#d7ebfa"] ;
107 -> 108 ;
109 [label="entropy = 0.65\nsamples = 6\nvalue = [0, 1, 5, 0]\nclass = spec_prior", fillcolor="#61b1ea"] ;
108 -> 109 ;
110 [label="entropy = 0.0\nsamples = 3\nvalue = [0, 3, 0, 0]\nclass = priority", fillcolor="#47e539"] ;
108 -> 110 ;
111 [label="entropy = 0.0\nsamples = 6\nvalue = [0, 6, 0, 0]\nclass = priority", fillcolor="#47e539"] ;
107 -> 111 ;
112 [label="form_foster <= 0.5\nentropy = 0.684\nsamples = 11\nvalue = [0, 9, 2, 0]\nclass = priority", fillcolor="#70eb65"] ;
100 -> 112 ;
113 [label="entropy = 0.0\nsamples = 9\nvalue = [0, 9, 0, 0]\nclass = priority", fillcolor="#47e539"] ;
112 -> 113 ;
114 [label="entropy = 0.0\nsamples = 2\nvalue = [0, 0, 2, 0]\nclass = spec_prior", fillcolor="#399de5"] ;
112 -> 114 ;
115 [label="form_complete <= 0.5\nentropy = 0.391\nsamples = 26\nvalue = [0, 2, 24, 0]\nclass = spec_prior", fillcolor="#49a5e7"] ;
99 -> 115 ;
116 [label="entropy = 0.0\nsamples = 21\nvalue = [0, 0, 21, 0]\nclass = spec_prior", fillcolor="#399de5"] ;
115 -> 116 ;
117 [label="children_1 <= 0.5\nentropy = 0.971\nsamples = 5\nvalue = [0, 2, 3, 0]\nclass = spec_prior", fillcolor="#bddef6"] ;
115 -> 117 ;
118 [label="entropy = 0.0\nsamples = 3\nvalue = [0, 0, 3, 0]\nclass = spec_prior", fillcolor="#399de5"] ;
117 -> 118 ;
119 [label="entropy = 0.0\nsamples = 2\nvalue = [0, 2, 0, 0]\nclass = priority", fillcolor="#47e539"] ;
117 -> 119 ;
120 [label="housing_convenient <= 0.5\nentropy = 0.924\nsamples = 224\nvalue = [0, 76, 148, 0]\nclass = spec_prior", fillcolor="#9fcff2"] ;
96 -> 120 ;
121 [label="children_1 <= 0.5\nentropy = 0.697\nsamples = 149\nvalue = [0.0, 28.0, 121.0, 0.0]\nclass = spec_prior", fillcolor="#67b4eb"] ;
120 -> 121 ;
122 [label="children_2 <= 0.5\nentropy = 0.342\nsamples = 110\nvalue = [0.0, 7.0, 103.0, 0.0]\nclass = spec_prior", fillcolor="#46a4e7"] ;
121 -> 122 ;
123 [label="entropy = 0.0\nsamples = 73\nvalue = [0, 0, 73, 0]\nclass = spec_prior", fillcolor="#399de5"] ;
122 -> 123 ;
124 [label="housing_less_conv <= 0.5\nentropy = 0.7\nsamples = 37\nvalue = [0, 7, 30, 0]\nclass = spec_prior", fillcolor="#67b4eb"] ;
122 -> 124 ;
125 [label="entropy = 0.0\nsamples = 17\nvalue = [0, 0, 17, 0]\nclass = spec_prior", fillcolor="#399de5"] ;
124 -> 125 ;
126 [label="form_foster <= 0.5\nentropy = 0.934\nsamples = 20\nvalue = [0, 7, 13, 0]\nclass = spec_prior", fillcolor="#a4d2f3"] ;
124 -> 126 ;
127 [label="form_incomplete <= 0.5\nentropy = 0.946\nsamples = 11\nvalue = [0, 7, 4, 0]\nclass = priority", fillcolor="#b0f4aa"] ;
126 -> 127 ;
128 [label="entropy = 0.0\nsamples = 7\nvalue = [0, 7, 0, 0]\nclass = priority", fillcolor="#47e539"] ;
127 -> 128 ;
129 [label="entropy = 0.0\nsamples = 4\nvalue = [0, 0, 4, 0]\nclass = spec_prior", fillcolor="#399de5"] ;
127 -> 129 ;
130 [label="entropy = 0.0\nsamples = 9\nvalue = [0, 0, 9, 0]\nclass = spec_prior", fillcolor="#399de5"] ;
126 -> 130 ;
131 [label="housing_less_conv <= 0.5\nentropy = 0.996\nsamples = 39\nvalue = [0, 21, 18, 0]\nclass = priority", fillcolor="#e5fbe3"] ;
121 -> 131 ;
132 [label="form_complete <= 0.5\nentropy = 0.887\nsamples = 23\nvalue = [0, 7, 16, 0]\nclass = spec_prior", fillcolor="#90c8f0"] ;
131 -> 132 ;
133 [label="entropy = 0.0\nsamples = 16\nvalue = [0, 0, 16, 0]\nclass = spec_prior", fillcolor="#399de5"] ;
132 -> 133 ;
134 [label="entropy = 0.0\nsamples = 7\nvalue = [0, 7, 0, 0]\nclass = priority", fillcolor="#47e539"] ;
132 -> 134 ;
135 [label="form_foster <= 0.5\nentropy = 0.544\nsamples = 16\nvalue = [0, 14, 2, 0]\nclass = priority", fillcolor="#61e955"] ;
131 -> 135 ;
136 [label="entropy = 0.0\nsamples = 14\nvalue = [0, 14, 0, 0]\nclass = priority", fillcolor="#47e539"] ;
135 -> 136 ;
137 [label="entropy = 0.0\nsamples = 2\nvalue = [0, 0, 2, 0]\nclass = spec_prior", fillcolor="#399de5"] ;
135 -> 137 ;
138 [label="finance_inconv <= 0.5\nentropy = 0.943\nsamples = 75\nvalue = [0, 48, 27, 0]\nclass = priority", fillcolor="#aef4a8"] ;
120 -> 138 ;
139 [label="entropy = 0.0\nsamples = 35\nvalue = [0, 35, 0, 0]\nclass = priority", fillcolor="#47e539"] ;
138 -> 139 ;
140 [label="children_3 <= 0.5\nentropy = 0.91\nsamples = 40\nvalue = [0, 13, 27, 0]\nclass = spec_prior", fillcolor="#98ccf2"] ;
138 -> 140 ;
141 [label="children_more <= 0.5\nentropy = 0.999\nsamples = 27\nvalue = [0, 13, 14, 0]\nclass = spec_prior", fillcolor="#f1f8fd"] ;
140 -> 141 ;
142 [label="form_foster <= 0.5\nentropy = 0.9\nsamples = 19\nvalue = [0, 13, 6, 0]\nclass = priority", fillcolor="#9cf194"] ;
141 -> 142 ;
143 [label="form_incomplete <= 0.5\nentropy = 0.567\nsamples = 15\nvalue = [0, 13, 2, 0]\nclass = priority", fillcolor="#63e957"] ;
142 -> 143 ;
144 [label="entropy = 0.0\nsamples = 11\nvalue = [0, 11, 0, 0]\nclass = priority", fillcolor="#47e539"] ;
143 -> 144 ;
145 [label="entropy = 1.0\nsamples = 4\nvalue = [0, 2, 2, 0]\nclass = priority", fillcolor="#ffffff"] ;
143 -> 145 ;
146 [label="entropy = 0.0\nsamples = 4\nvalue = [0, 0, 4, 0]\nclass = spec_prior", fillcolor="#399de5"] ;
142 -> 146 ;
147 [label="entropy = 0.0\nsamples = 8\nvalue = [0, 0, 8, 0]\nclass = spec_prior", fillcolor="#399de5"] ;
141 -> 147 ;
148 [label="entropy = 0.0\nsamples = 13\nvalue = [0, 0, 13, 0]\nclass = spec_prior", fillcolor="#399de5"] ;
140 -> 148 ;
149 [label="health_recommended <= 0.5\nentropy = 0.593\nsamples = 230\nvalue = [0, 33, 197, 0]\nclass = spec_prior", fillcolor="#5aade9"] ;
95 -> 149 ;
150 [label="form_complete <= 0.5\nentropy = 0.125\nsamples = 117\nvalue = [0, 2, 115, 0]\nclass = spec_prior", fillcolor="#3c9fe5"] ;
149 -> 150 ;
151 [label="entropy = 0.0\nsamples = 86\nvalue = [0, 0, 86, 0]\nclass = spec_prior", fillcolor="#399de5"] ;
150 -> 151 ;
152 [label="housing_convenient <= 0.5\nentropy = 0.345\nsamples = 31\nvalue = [0, 2, 29, 0]\nclass = spec_prior", fillcolor="#47a4e7"] ;
150 -> 152 ;
153 [label="entropy = 0.0\nsamples = 22\nvalue = [0, 0, 22, 0]\nclass = spec_prior", fillcolor="#399de5"] ;
152 -> 153 ;
154 [label="children_1 <= 0.5\nentropy = 0.764\nsamples = 9\nvalue = [0, 2, 7, 0]\nclass = spec_prior", fillcolor="#72b9ec"] ;
152 -> 154 ;
155 [label="entropy = 0.0\nsamples = 5\nvalue = [0, 0, 5, 0]\nclass = spec_prior", fillcolor="#399de5"] ;
154 -> 155 ;
156 [label="finance_convenient <= 0.5\nentropy = 1.0\nsamples = 4\nvalue = [0, 2, 2, 0]\nclass = priority", fillcolor="#ffffff"] ;
154 -> 156 ;
157 [label="entropy = 0.0\nsamples = 2\nvalue = [0, 0, 2, 0]\nclass = spec_prior", fillcolor="#399de5"] ;
156 -> 157 ;
158 [label="entropy = 0.0\nsamples = 2\nvalue = [0, 2, 0, 0]\nclass = priority", fillcolor="#47e539"] ;
156 -> 158 ;
159 [label="social_problematic <= 0.5\nentropy = 0.848\nsamples = 113\nvalue = [0.0, 31.0, 82.0, 0.0]\nclass = spec_prior", fillcolor="#84c2ef"] ;
149 -> 159 ;
160 [label="housing_convenient <= 0.5\nentropy = 0.975\nsamples = 76\nvalue = [0, 31, 45, 0]\nclass = spec_prior", fillcolor="#c1e1f7"] ;
159 -> 160 ;
161 [label="children_1 <= 0.5\nentropy = 0.714\nsamples = 51\nvalue = [0, 10, 41, 0]\nclass = spec_prior", fillcolor="#69b5eb"] ;
160 -> 161 ;
162 [label="children_2 <= 0.5\nentropy = 0.461\nsamples = 41\nvalue = [0, 4, 37, 0]\nclass = spec_prior", fillcolor="#4ea8e8"] ;
161 -> 162 ;
163 [label="entropy = 0.0\nsamples = 23\nvalue = [0, 0, 23, 0]\nclass = spec_prior", fillcolor="#399de5"] ;
162 -> 163 ;
164 [label="housing_critical <= 0.5\nentropy = 0.764\nsamples = 18\nvalue = [0, 4, 14, 0]\nclass = spec_prior", fillcolor="#72b9ec"] ;
162 -> 164 ;
165 [label="form_complete <= 0.5\nentropy = 0.971\nsamples = 10\nvalue = [0, 4, 6, 0]\nclass = spec_prior", fillcolor="#bddef6"] ;
164 -> 165 ;
166 [label="entropy = 0.811\nsamples = 8\nvalue = [0, 2, 6, 0]\nclass = spec_prior", fillcolor="#7bbeee"] ;
165 -> 166 ;
167 [label="entropy = 0.0\nsamples = 2\nvalue = [0, 2, 0, 0]\nclass = priority", fillcolor="#47e539"] ;
165 -> 167 ;
168 [label="entropy = 0.0\nsamples = 8\nvalue = [0, 0, 8, 0]\nclass = spec_prior", fillcolor="#399de5"] ;
164 -> 168 ;
169 [label="form_foster <= 0.5\nentropy = 0.971\nsamples = 10\nvalue = [0, 6, 4, 0]\nclass = priority", fillcolor="#c2f6bd"] ;
161 -> 169 ;
170 [label="finance_convenient <= 0.5\nentropy = 0.592\nsamples = 7\nvalue = [0, 6, 1, 0]\nclass = priority", fillcolor="#66e95a"] ;
169 -> 170 ;
171 [label="housing_critical <= 0.5\nentropy = 0.918\nsamples = 3\nvalue = [0, 2, 1, 0]\nclass = priority", fillcolor="#a3f29c"] ;
170 -> 171 ;
172 [label="entropy = 0.0\nsamples = 2\nvalue = [0, 2, 0, 0]\nclass = priority", fillcolor="#47e539"] ;
171 -> 172 ;
173 [label="entropy = 0.0\nsamples = 1\nvalue = [0, 0, 1, 0]\nclass = spec_prior", fillcolor="#399de5"] ;
171 -> 173 ;
174 [label="entropy = 0.0\nsamples = 4\nvalue = [0, 4, 0, 0]\nclass = priority", fillcolor="#47e539"] ;
170 -> 174 ;
175 [label="entropy = 0.0\nsamples = 3\nvalue = [0, 0, 3, 0]\nclass = spec_prior", fillcolor="#399de5"] ;
169 -> 175 ;
176 [label="finance_inconv <= 0.5\nentropy = 0.634\nsamples = 25\nvalue = [0, 21, 4, 0]\nclass = priority", fillcolor="#6aea5f"] ;
160 -> 176 ;
177 [label="entropy = 0.0\nsamples = 16\nvalue = [0, 16, 0, 0]\nclass = priority", fillcolor="#47e539"] ;
176 -> 177 ;
178 [label="children_1 <= 0.5\nentropy = 0.991\nsamples = 9\nvalue = [0, 5, 4, 0]\nclass = priority", fillcolor="#dafad7"] ;
176 -> 178 ;
179 [label="form_complete <= 0.5\nentropy = 0.918\nsamples = 6\nvalue = [0, 2, 4, 0]\nclass = spec_prior", fillcolor="#9ccef2"] ;
178 -> 179 ;
180 [label="entropy = 0.0\nsamples = 3\nvalue = [0, 0, 3, 0]\nclass = spec_prior", fillcolor="#399de5"] ;
179 -> 180 ;
181 [label="children_3 <= 0.5\nentropy = 0.918\nsamples = 3\nvalue = [0, 2, 1, 0]\nclass = priority", fillcolor="#a3f29c"] ;
179 -> 181 ;
182 [label="entropy = 0.0\nsamples = 2\nvalue = [0, 2, 0, 0]\nclass = priority", fillcolor="#47e539"] ;
181 -> 182 ;
183 [label="entropy = 0.0\nsamples = 1\nvalue = [0, 0, 1, 0]\nclass = spec_prior", fillcolor="#399de5"] ;
181 -> 183 ;
184 [label="entropy = 0.0\nsamples = 3\nvalue = [0, 3, 0, 0]\nclass = priority", fillcolor="#47e539"] ;
178 -> 184 ;
185 [label="entropy = 0.0\nsamples = 37\nvalue = [0, 0, 37, 0]\nclass = spec_prior", fillcolor="#399de5"] ;
159 -> 185 ;
186 [label="parents_usual <= 0.5\nentropy = 0.849\nsamples = 705\nvalue = [0.0, 194.0, 511.0, 0.0]\nclass = spec_prior", fillcolor="#84c2ef"] ;
2 -> 186 ;
187 [label="health_recommended <= 0.5\nentropy = 0.518\nsamples = 465\nvalue = [0, 54, 411, 0]\nclass = spec_prior", fillcolor="#53aae8"] ;
186 -> 187 ;
188 [label="form_complete <= 0.5\nentropy = 0.148\nsamples = 236\nvalue = [0, 5, 231, 0]\nclass = spec_prior", fillcolor="#3d9fe6"] ;
187 -> 188 ;
189 [label="entropy = 0.0\nsamples = 174\nvalue = [0, 0, 174, 0]\nclass = spec_prior", fillcolor="#399de5"] ;
188 -> 189 ;
190 [label="children_1 <= 0.5\nentropy = 0.404\nsamples = 62\nvalue = [0, 5, 57, 0]\nclass = spec_prior", fillcolor="#4aa6e7"] ;
188 -> 190 ;
191 [label="entropy = 0.0\nsamples = 44\nvalue = [0, 0, 44, 0]\nclass = spec_prior", fillcolor="#399de5"] ;
190 -> 191 ;
192 [label="housing_convenient <= 0.5\nentropy = 0.852\nsamples = 18\nvalue = [0, 5, 13, 0]\nclass = spec_prior", fillcolor="#85c3ef"] ;
190 -> 192 ;
193 [label="entropy = 0.0\nsamples = 11\nvalue = [0, 0, 11, 0]\nclass = spec_prior", fillcolor="#399de5"] ;
192 -> 193 ;
194 [label="finance_convenient <= 0.5\nentropy = 0.863\nsamples = 7\nvalue = [0, 5, 2, 0]\nclass = priority", fillcolor="#91ef88"] ;
192 -> 194 ;
195 [label="entropy = 0.0\nsamples = 2\nvalue = [0, 0, 2, 0]\nclass = spec_prior", fillcolor="#399de5"] ;
194 -> 195 ;
196 [label="entropy = 0.0\nsamples = 5\nvalue = [0, 5, 0, 0]\nclass = priority", fillcolor="#47e539"] ;
194 -> 196 ;
197 [label="social_problematic <= 0.5\nentropy = 0.749\nsamples = 229\nvalue = [0, 49, 180, 0]\nclass = spec_prior", fillcolor="#6fb8ec"] ;
187 -> 197 ;
198 [label="housing_critical <= 0.5\nentropy = 0.904\nsamples = 150\nvalue = [0.0, 48.0, 102.0, 0.0]\nclass = spec_prior", fillcolor="#96cbf1"] ;
197 -> 198 ;
199 [label="finance_inconv <= 0.5\nentropy = 0.999\nsamples = 95\nvalue = [0.0, 46.0, 49.0, 0.0]\nclass = spec_prior", fillcolor="#f3f9fd"] ;
198 -> 199 ;
200 [label="housing_convenient <= 0.5\nentropy = 0.918\nsamples = 48\nvalue = [0, 32, 16, 0]\nclass = priority", fillcolor="#a3f29c"] ;
199 -> 200 ;
201 [label="form_foster <= 0.5\nentropy = 0.887\nsamples = 23\nvalue = [0, 7, 16, 0]\nclass = spec_prior", fillcolor="#90c8f0"] ;
200 -> 201 ;
202 [label="children_1 <= 0.5\nentropy = 0.989\nsamples = 16\nvalue = [0, 7, 9, 0]\nclass = spec_prior", fillcolor="#d3e9f9"] ;
201 -> 202 ;
203 [label="children_2 <= 0.5\nentropy = 0.89\nsamples = 13\nvalue = [0, 4, 9, 0]\nclass = spec_prior", fillcolor="#91c9f1"] ;
202 -> 203 ;
204 [label="entropy = 0.0\nsamples = 8\nvalue = [0, 0, 8, 0]\nclass = spec_prior", fillcolor="#399de5"] ;
203 -> 204 ;
205 [label="entropy = 0.722\nsamples = 5\nvalue = [0, 4, 1, 0]\nclass = priority", fillcolor="#75ec6a"] ;
203 -> 205 ;
206 [label="entropy = 0.0\nsamples = 3\nvalue = [0, 3, 0, 0]\nclass = priority", fillcolor="#47e539"] ;
202 -> 206 ;
207 [label="entropy = 0.0\nsamples = 7\nvalue = [0, 0, 7, 0]\nclass = spec_prior", fillcolor="#399de5"] ;
201 -> 207 ;
208 [label="entropy = 0.0\nsamples = 25\nvalue = [0, 25, 0, 0]\nclass = priority", fillcolor="#47e539"] ;
200 -> 208 ;
209 [label="children_1 <= 0.5\nentropy = 0.879\nsamples = 47\nvalue = [0, 14, 33, 0]\nclass = spec_prior", fillcolor="#8dc7f0"] ;
199 -> 209 ;
210 [label="children_2 <= 0.5\nentropy = 0.544\nsamples = 32\nvalue = [0, 4, 28, 0]\nclass = spec_prior", fillcolor="#55abe9"] ;
209 -> 210 ;
211 [label="entropy = 0.0\nsamples = 24\nvalue = [0, 0, 24, 0]\nclass = spec_prior", fillcolor="#399de5"] ;
210 -> 211 ;
212 [label="form_foster <= 0.5\nentropy = 1.0\nsamples = 8\nvalue = [0, 4, 4, 0]\nclass = priority", fillcolor="#ffffff"] ;
210 -> 212 ;
213 [label="form_incomplete <= 0.5\nentropy = 0.722\nsamples = 5\nvalue = [0, 4, 1, 0]\nclass = priority", fillcolor="#75ec6a"] ;
212 -> 213 ;
214 [label="entropy = 0.0\nsamples = 4\nvalue = [0, 4, 0, 0]\nclass = priority", fillcolor="#47e539"] ;
213 -> 214 ;
215 [label="entropy = 0.0\nsamples = 1\nvalue = [0, 0, 1, 0]\nclass = spec_prior", fillcolor="#399de5"] ;
213 -> 215 ;
216 [label="entropy = 0.0\nsamples = 3\nvalue = [0, 0, 3, 0]\nclass = spec_prior", fillcolor="#399de5"] ;
212 -> 216 ;
217 [label="form_foster <= 0.5\nentropy = 0.918\nsamples = 15\nvalue = [0, 10, 5, 0]\nclass = priority", fillcolor="#a3f29c"] ;
209 -> 217 ;
218 [label="entropy = 0.0\nsamples = 10\nvalue = [0, 10, 0, 0]\nclass = priority", fillcolor="#47e539"] ;
217 -> 218 ;
219 [label="entropy = 0.0\nsamples = 5\nvalue = [0, 0, 5, 0]\nclass = spec_prior", fillcolor="#399de5"] ;
217 -> 219 ;
220 [label="children_1 <= 0.5\nentropy = 0.225\nsamples = 55\nvalue = [0, 2, 53, 0]\nclass = spec_prior", fillcolor="#40a1e6"] ;
198 -> 220 ;
221 [label="entropy = 0.0\nsamples = 44\nvalue = [0, 0, 44, 0]\nclass = spec_prior", fillcolor="#399de5"] ;
220 -> 221 ;
222 [label="form_complete <= 0.5\nentropy = 0.684\nsamples = 11\nvalue = [0, 2, 9, 0]\nclass = spec_prior", fillcolor="#65b3eb"] ;
220 -> 222 ;
223 [label="entropy = 0.0\nsamples = 9\nvalue = [0, 0, 9, 0]\nclass = spec_prior", fillcolor="#399de5"] ;
222 -> 223 ;
224 [label="entropy = 0.0\nsamples = 2\nvalue = [0, 2, 0, 0]\nclass = priority", fillcolor="#47e539"] ;
222 -> 224 ;
225 [label="form_complete <= 0.5\nentropy = 0.098\nsamples = 79\nvalue = [0, 1, 78, 0]\nclass = spec_prior", fillcolor="#3c9ee5"] ;
197 -> 225 ;
226 [label="entropy = 0.0\nsamples = 61\nvalue = [0, 0, 61, 0]\nclass = spec_prior", fillcolor="#399de5"] ;
225 -> 226 ;
227 [label="children_1 <= 0.5\nentropy = 0.31\nsamples = 18\nvalue = [0, 1, 17, 0]\nclass = spec_prior", fillcolor="#45a3e7"] ;
225 -> 227 ;
228 [label="entropy = 0.0\nsamples = 13\nvalue = [0, 0, 13, 0]\nclass = spec_prior", fillcolor="#399de5"] ;
227 -> 228 ;
229 [label="housing_convenient <= 0.5\nentropy = 0.722\nsamples = 5\nvalue = [0, 1, 4, 0]\nclass = spec_prior", fillcolor="#6ab6ec"] ;
227 -> 229 ;
230 [label="entropy = 0.0\nsamples = 3\nvalue = [0, 0, 3, 0]\nclass = spec_prior", fillcolor="#399de5"] ;
229 -> 230 ;
231 [label="finance_inconv <= 0.5\nentropy = 1.0\nsamples = 2\nvalue = [0, 1, 1, 0]\nclass = priority", fillcolor="#ffffff"] ;
229 -> 231 ;
232 [label="entropy = 0.0\nsamples = 1\nvalue = [0, 1, 0, 0]\nclass = priority", fillcolor="#47e539"] ;
231 -> 232 ;
233 [label="entropy = 0.0\nsamples = 1\nvalue = [0, 0, 1, 0]\nclass = spec_prior", fillcolor="#399de5"] ;
231 -> 233 ;
234 [label="health_recommended <= 0.5\nentropy = 0.98\nsamples = 240\nvalue = [0, 140, 100, 0]\nclass = priority", fillcolor="#caf8c6"] ;
186 -> 234 ;
235 [label="housing_convenient <= 0.5\nentropy = 0.947\nsamples = 115\nvalue = [0, 42, 73, 0]\nclass = spec_prior", fillcolor="#abd5f4"] ;
234 -> 235 ;
236 [label="children_1 <= 0.5\nentropy = 0.689\nsamples = 76\nvalue = [0, 14, 62, 0]\nclass = spec_prior", fillcolor="#66b3eb"] ;
235 -> 236 ;
237 [label="children_2 <= 0.5\nentropy = 0.429\nsamples = 57\nvalue = [0, 5, 52, 0]\nclass = spec_prior", fillcolor="#4ca6e8"] ;
236 -> 237 ;
238 [label="entropy = 0.0\nsamples = 41\nvalue = [0, 0, 41, 0]\nclass = spec_prior", fillcolor="#399de5"] ;
237 -> 238 ;
239 [label="housing_less_conv <= 0.5\nentropy = 0.896\nsamples = 16\nvalue = [0, 5, 11, 0]\nclass = spec_prior", fillcolor="#93caf1"] ;
237 -> 239 ;
240 [label="entropy = 0.0\nsamples = 10\nvalue = [0, 0, 10, 0]\nclass = spec_prior", fillcolor="#399de5"] ;
239 -> 240 ;
241 [label="form_incomplete <= 0.5\nentropy = 0.65\nsamples = 6\nvalue = [0, 5, 1, 0]\nclass = priority", fillcolor="#6cea61"] ;
239 -> 241 ;
242 [label="entropy = 0.0\nsamples = 5\nvalue = [0, 5, 0, 0]\nclass = priority", fillcolor="#47e539"] ;
241 -> 242 ;
243 [label="entropy = 0.0\nsamples = 1\nvalue = [0, 0, 1, 0]\nclass = spec_prior", fillcolor="#399de5"] ;
241 -> 243 ;
244 [label="form_foster <= 0.5\nentropy = 0.998\nsamples = 19\nvalue = [0, 9, 10, 0]\nclass = spec_prior", fillcolor="#ebf5fc"] ;
236 -> 244 ;
245 [label="housing_critical <= 0.5\nentropy = 0.811\nsamples = 12\nvalue = [0, 9, 3, 0]\nclass = priority", fillcolor="#84ee7b"] ;
244 -> 245 ;
246 [label="entropy = 0.0\nsamples = 6\nvalue = [0, 6, 0, 0]\nclass = priority", fillcolor="#47e539"] ;
245 -> 246 ;
247 [label="form_complete <= 0.5\nentropy = 1.0\nsamples = 6\nvalue = [0, 3, 3, 0]\nclass = priority", fillcolor="#ffffff"] ;
245 -> 247 ;
248 [label="entropy = 0.0\nsamples = 3\nvalue = [0, 0, 3, 0]\nclass = spec_prior", fillcolor="#399de5"] ;
247 -> 248 ;
249 [label="entropy = 0.0\nsamples = 3\nvalue = [0, 3, 0, 0]\nclass = priority", fillcolor="#47e539"] ;
247 -> 249 ;
250 [label="entropy = 0.0\nsamples = 7\nvalue = [0, 0, 7, 0]\nclass = spec_prior", fillcolor="#399de5"] ;
244 -> 250 ;
251 [label="finance_inconv <= 0.5\nentropy = 0.858\nsamples = 39\nvalue = [0, 28, 11, 0]\nclass = priority", fillcolor="#8fef87"] ;
235 -> 251 ;
252 [label="entropy = 0.0\nsamples = 19\nvalue = [0, 19, 0, 0]\nclass = priority", fillcolor="#47e539"] ;
251 -> 252 ;
253 [label="form_complete <= 0.5\nentropy = 0.993\nsamples = 20\nvalue = [0, 9, 11, 0]\nclass = spec_prior", fillcolor="#dbedfa"] ;
251 -> 253 ;
254 [label="form_completed <= 0.5\nentropy = 0.896\nsamples = 16\nvalue = [0, 5, 11, 0]\nclass = spec_prior", fillcolor="#93caf1"] ;
253 -> 254 ;
255 [label="children_1 <= 0.5\nentropy = 0.469\nsamples = 10\nvalue = [0, 1, 9, 0]\nclass = spec_prior", fillcolor="#4fa8e8"] ;
254 -> 255 ;
256 [label="entropy = 0.0\nsamples = 7\nvalue = [0, 0, 7, 0]\nclass = spec_prior", fillcolor="#399de5"] ;
255 -> 256 ;
257 [label="social_nonprob <= 0.5\nentropy = 0.918\nsamples = 3\nvalue = [0, 1, 2, 0]\nclass = spec_prior", fillcolor="#9ccef2"] ;
255 -> 257 ;
258 [label="entropy = 0.0\nsamples = 2\nvalue = [0, 0, 2, 0]\nclass = spec_prior", fillcolor="#399de5"] ;
257 -> 258 ;
259 [label="entropy = 0.0\nsamples = 1\nvalue = [0, 1, 0, 0]\nclass = priority", fillcolor="#47e539"] ;
257 -> 259 ;
260 [label="children_more <= 0.5\nentropy = 0.918\nsamples = 6\nvalue = [0, 4, 2, 0]\nclass = priority", fillcolor="#a3f29c"] ;
254 -> 260 ;
261 [label="entropy = 0.0\nsamples = 4\nvalue = [0, 4, 0, 0]\nclass = priority", fillcolor="#47e539"] ;
260 -> 261 ;
262 [label="entropy = 0.0\nsamples = 2\nvalue = [0, 0, 2, 0]\nclass = spec_prior", fillcolor="#399de5"] ;
260 -> 262 ;
263 [label="entropy = 0.0\nsamples = 4\nvalue = [0, 4, 0, 0]\nclass = priority", fillcolor="#47e539"] ;
253 -> 263 ;
264 [label="social_problematic <= 0.5\nentropy = 0.753\nsamples = 125\nvalue = [0, 98, 27, 0]\nclass = priority", fillcolor="#7aec70"] ;
234 -> 264 ;
265 [label="entropy = 0.0\nsamples = 80\nvalue = [0, 80, 0, 0]\nclass = priority", fillcolor="#47e539"] ;
264 -> 265 ;
266 [label="children_1 <= 0.5\nentropy = 0.971\nsamples = 45\nvalue = [0, 18, 27, 0]\nclass = spec_prior", fillcolor="#bddef6"] ;
264 -> 266 ;
267 [label="housing_critical <= 0.5\nentropy = 0.811\nsamples = 32\nvalue = [0, 8, 24, 0]\nclass = spec_prior", fillcolor="#7bbeee"] ;
266 -> 267 ;
268 [label="children_2 <= 0.5\nentropy = 0.971\nsamples = 20\nvalue = [0, 8, 12, 0]\nclass = spec_prior", fillcolor="#bddef6"] ;
267 -> 268 ;
269 [label="housing_convenient <= 0.5\nentropy = 0.845\nsamples = 11\nvalue = [0, 3, 8, 0]\nclass = spec_prior", fillcolor="#83c2ef"] ;
268 -> 269 ;
270 [label="entropy = 0.0\nsamples = 5\nvalue = [0, 0, 5, 0]\nclass = spec_prior", fillcolor="#399de5"] ;
269 -> 270 ;
271 [label="finance_convenient <= 0.5\nentropy = 1.0\nsamples = 6\nvalue = [0, 3, 3, 0]\nclass = priority", fillcolor="#ffffff"] ;
269 -> 271 ;
272 [label="entropy = 0.0\nsamples = 3\nvalue = [0, 0, 3, 0]\nclass = spec_prior", fillcolor="#399de5"] ;
271 -> 272 ;
273 [label="entropy = 0.0\nsamples = 3\nvalue = [0, 3, 0, 0]\nclass = priority", fillcolor="#47e539"] ;
271 -> 273 ;
274 [label="form_incomplete <= 0.5\nentropy = 0.991\nsamples = 9\nvalue = [0, 5, 4, 0]\nclass = priority", fillcolor="#dafad7"] ;
268 -> 274 ;
275 [label="form_foster <= 0.5\nentropy = 0.722\nsamples = 5\nvalue = [0, 4, 1, 0]\nclass = priority", fillcolor="#75ec6a"] ;
274 -> 275 ;
276 [label="entropy = 0.0\nsamples = 4\nvalue = [0, 4, 0, 0]\nclass = priority", fillcolor="#47e539"] ;
275 -> 276 ;
277 [label="entropy = 0.0\nsamples = 1\nvalue = [0, 0, 1, 0]\nclass = spec_prior", fillcolor="#399de5"] ;
275 -> 277 ;
278 [label="finance_convenient <= 0.5\nentropy = 0.811\nsamples = 4\nvalue = [0, 1, 3, 0]\nclass = spec_prior", fillcolor="#7bbeee"] ;
274 -> 278 ;
279 [label="entropy = 0.0\nsamples = 2\nvalue = [0, 0, 2, 0]\nclass = spec_prior", fillcolor="#399de5"] ;
278 -> 279 ;
280 [label="housing_less_conv <= 0.5\nentropy = 1.0\nsamples = 2\nvalue = [0, 1, 1, 0]\nclass = priority", fillcolor="#ffffff"] ;
278 -> 280 ;
281 [label="entropy = 0.0\nsamples = 1\nvalue = [0, 1, 0, 0]\nclass = priority", fillcolor="#47e539"] ;
280 -> 281 ;
282 [label="entropy = 0.0\nsamples = 1\nvalue = [0, 0, 1, 0]\nclass = spec_prior", fillcolor="#399de5"] ;
280 -> 282 ;
283 [label="entropy = 0.0\nsamples = 12\nvalue = [0, 0, 12, 0]\nclass = spec_prior", fillcolor="#399de5"] ;
267 -> 283 ;
284 [label="housing_critical <= 0.5\nentropy = 0.779\nsamples = 13\nvalue = [0, 10, 3, 0]\nclass = priority", fillcolor="#7eed74"] ;
266 -> 284 ;
285 [label="entropy = 0.0\nsamples = 8\nvalue = [0, 8, 0, 0]\nclass = priority", fillcolor="#47e539"] ;
284 -> 285 ;
286 [label="form_complete <= 0.5\nentropy = 0.971\nsamples = 5\nvalue = [0, 2, 3, 0]\nclass = spec_prior", fillcolor="#bddef6"] ;
284 -> 286 ;
287 [label="entropy = 0.0\nsamples = 3\nvalue = [0, 0, 3, 0]\nclass = spec_prior", fillcolor="#399de5"] ;
286 -> 287 ;
288 [label="entropy = 0.0\nsamples = 2\nvalue = [0, 2, 0, 0]\nclass = priority", fillcolor="#47e539"] ;
286 -> 288 ;
289 [label="health_priority <= 0.5\nentropy = 0.522\nsamples = 716\nvalue = [0, 84, 632, 0]\nclass = spec_prior", fillcolor="#53aae8"] ;
1 -> 289 ;
290 [label="social_problematic <= 0.5\nentropy = 0.77\nsamples = 355\nvalue = [0, 80, 275, 0]\nclass = spec_prior", fillcolor="#73baed"] ;
289 -> 290 ;
291 [label="housing_critical <= 0.5\nentropy = 0.91\nsamples = 243\nvalue = [0, 79, 164, 0]\nclass = spec_prior", fillcolor="#98ccf2"] ;
290 -> 291 ;
292 [label="children_1 <= 0.5\nentropy = 1.0\nsamples = 153\nvalue = [0, 76, 77, 0]\nclass = spec_prior", fillcolor="#fcfeff"] ;
291 -> 292 ;
293 [label="children_2 <= 0.5\nentropy = 0.956\nsamples = 106\nvalue = [0, 40, 66, 0]\nclass = spec_prior", fillcolor="#b1d8f5"] ;
292 -> 293 ;
294 [label="finance_inconv <= 0.5\nentropy = 0.753\nsamples = 74\nvalue = [0, 16, 58, 0]\nclass = spec_prior", fillcolor="#70b8ec"] ;
293 -> 294 ;
295 [label="housing_less_conv <= 0.5\nentropy = 0.995\nsamples = 35\nvalue = [0, 16, 19, 0]\nclass = spec_prior", fillcolor="#e0f0fb"] ;
294 -> 295 ;
296 [label="entropy = 0.0\nsamples = 16\nvalue = [0, 16, 0, 0]\nclass = priority", fillcolor="#47e539"] ;
295 -> 296 ;
297 [label="entropy = 0.0\nsamples = 19\nvalue = [0, 0, 19, 0]\nclass = spec_prior", fillcolor="#399de5"] ;
295 -> 297 ;
298 [label="entropy = 0.0\nsamples = 39\nvalue = [0, 0, 39, 0]\nclass = spec_prior", fillcolor="#399de5"] ;
294 -> 298 ;
299 [label="form_foster <= 0.5\nentropy = 0.811\nsamples = 32\nvalue = [0, 24, 8, 0]\nclass = priority", fillcolor="#84ee7b"] ;
293 -> 299 ;
300 [label="form_incomplete <= 0.5\nentropy = 0.516\nsamples = 26\nvalue = [0, 23, 3, 0]\nclass = priority", fillcolor="#5fe853"] ;
299 -> 300 ;
301 [label="entropy = 0.0\nsamples = 21\nvalue = [0, 21, 0, 0]\nclass = priority", fillcolor="#47e539"] ;
300 -> 301 ;
302 [label="housing_less_conv <= 0.5\nentropy = 0.971\nsamples = 5\nvalue = [0, 2, 3, 0]\nclass = spec_prior", fillcolor="#bddef6"] ;
300 -> 302 ;
303 [label="entropy = 0.0\nsamples = 2\nvalue = [0, 2, 0, 0]\nclass = priority", fillcolor="#47e539"] ;
302 -> 303 ;
304 [label="entropy = 0.0\nsamples = 3\nvalue = [0, 0, 3, 0]\nclass = spec_prior", fillcolor="#399de5"] ;
302 -> 304 ;
305 [label="finance_convenient <= 0.5\nentropy = 0.65\nsamples = 6\nvalue = [0, 1, 5, 0]\nclass = spec_prior", fillcolor="#61b1ea"] ;
299 -> 305 ;
306 [label="entropy = 0.0\nsamples = 5\nvalue = [0, 0, 5, 0]\nclass = spec_prior", fillcolor="#399de5"] ;
305 -> 306 ;
307 [label="entropy = 0.0\nsamples = 1\nvalue = [0, 1, 0, 0]\nclass = priority", fillcolor="#47e539"] ;
305 -> 307 ;
308 [label="form_foster <= 0.5\nentropy = 0.785\nsamples = 47\nvalue = [0, 36, 11, 0]\nclass = priority", fillcolor="#7fed76"] ;
292 -> 308 ;
309 [label="entropy = 0.0\nsamples = 34\nvalue = [0, 34, 0, 0]\nclass = priority", fillcolor="#47e539"] ;
308 -> 309 ;
310 [label="finance_convenient <= 0.5\nentropy = 0.619\nsamples = 13\nvalue = [0, 2, 11, 0]\nclass = spec_prior", fillcolor="#5dafea"] ;
308 -> 310 ;
311 [label="entropy = 0.0\nsamples = 8\nvalue = [0, 0, 8, 0]\nclass = spec_prior", fillcolor="#399de5"] ;
310 -> 311 ;
312 [label="housing_convenient <= 0.5\nentropy = 0.971\nsamples = 5\nvalue = [0, 2, 3, 0]\nclass = spec_prior", fillcolor="#bddef6"] ;
310 -> 312 ;
313 [label="entropy = 0.0\nsamples = 3\nvalue = [0, 0, 3, 0]\nclass = spec_prior", fillcolor="#399de5"] ;
312 -> 313 ;
314 [label="entropy = 0.0\nsamples = 2\nvalue = [0, 2, 0, 0]\nclass = priority", fillcolor="#47e539"] ;
312 -> 314 ;
315 [label="children_1 <= 0.5\nentropy = 0.211\nsamples = 90\nvalue = [0, 3, 87, 0]\nclass = spec_prior", fillcolor="#40a0e6"] ;
291 -> 315 ;
316 [label="entropy = 0.0\nsamples = 74\nvalue = [0, 0, 74, 0]\nclass = spec_prior", fillcolor="#399de5"] ;
315 -> 316 ;
317 [label="form_complete <= 0.5\nentropy = 0.696\nsamples = 16\nvalue = [0, 3, 13, 0]\nclass = spec_prior", fillcolor="#67b4eb"] ;
315 -> 317 ;
318 [label="entropy = 0.0\nsamples = 13\nvalue = [0, 0, 13, 0]\nclass = spec_prior", fillcolor="#399de5"] ;
317 -> 318 ;
319 [label="entropy = 0.0\nsamples = 3\nvalue = [0, 3, 0, 0]\nclass = priority", fillcolor="#47e539"] ;
317 -> 319 ;
320 [label="form_complete <= 0.5\nentropy = 0.074\nsamples = 112\nvalue = [0, 1, 111, 0]\nclass = spec_prior", fillcolor="#3b9ee5"] ;
290 -> 320 ;
321 [label="entropy = 0.0\nsamples = 87\nvalue = [0, 0, 87, 0]\nclass = spec_prior", fillcolor="#399de5"] ;
320 -> 321 ;
322 [label="children_1 <= 0.5\nentropy = 0.242\nsamples = 25\nvalue = [0, 1, 24, 0]\nclass = spec_prior", fillcolor="#41a1e6"] ;
320 -> 322 ;
323 [label="entropy = 0.0\nsamples = 19\nvalue = [0, 0, 19, 0]\nclass = spec_prior", fillcolor="#399de5"] ;
322 -> 323 ;
324 [label="housing_convenient <= 0.5\nentropy = 0.65\nsamples = 6\nvalue = [0, 1, 5, 0]\nclass = spec_prior", fillcolor="#61b1ea"] ;
322 -> 324 ;
325 [label="entropy = 0.0\nsamples = 5\nvalue = [0, 0, 5, 0]\nclass = spec_prior", fillcolor="#399de5"] ;
324 -> 325 ;
326 [label="entropy = 0.0\nsamples = 1\nvalue = [0, 1, 0, 0]\nclass = priority", fillcolor="#47e539"] ;
324 -> 326 ;
327 [label="children_1 <= 0.5\nentropy = 0.088\nsamples = 361\nvalue = [0, 4, 357, 0]\nclass = spec_prior", fillcolor="#3b9ee5"] ;
289 -> 327 ;
328 [label="entropy = 0.0\nsamples = 272\nvalue = [0, 0, 272, 0]\nclass = spec_prior", fillcolor="#399de5"] ;
327 -> 328 ;
329 [label="form_complete <= 0.5\nentropy = 0.265\nsamples = 89\nvalue = [0, 4, 85, 0]\nclass = spec_prior", fillcolor="#42a2e6"] ;
327 -> 329 ;
330 [label="entropy = 0.0\nsamples = 60\nvalue = [0, 0, 60, 0]\nclass = spec_prior", fillcolor="#399de5"] ;
329 -> 330 ;
331 [label="housing_convenient <= 0.5\nentropy = 0.579\nsamples = 29\nvalue = [0, 4, 25, 0]\nclass = spec_prior", fillcolor="#59ade9"] ;
329 -> 331 ;
332 [label="entropy = 0.0\nsamples = 20\nvalue = [0, 0, 20, 0]\nclass = spec_prior", fillcolor="#399de5"] ;
331 -> 332 ;
333 [label="finance_convenient <= 0.5\nentropy = 0.991\nsamples = 9\nvalue = [0, 4, 5, 0]\nclass = spec_prior", fillcolor="#d7ebfa"] ;
331 -> 333 ;
334 [label="entropy = 0.0\nsamples = 5\nvalue = [0, 0, 5, 0]\nclass = spec_prior", fillcolor="#399de5"] ;
333 -> 334 ;
335 [label="entropy = 0.0\nsamples = 4\nvalue = [0, 4, 0, 0]\nclass = priority", fillcolor="#47e539"] ;
333 -> 335 ;
336 [label="entropy = 0.0\nsamples = 1697\nvalue = [1697, 0, 0, 0]\nclass = not_recom", fillcolor="#e58139"] ;
0 -> 336 [labeldistance=2.5, labelangle=-45, headlabel="False"] ;
}
