digraph Tree {
node [shape=box, style="filled, rounded", color="black", fontname="helvetica"] ;
edge [fontname="helvetica"] ;
0 [label="health_not_recom <= 0.5\nentropy = 1.714\nsamples = 10368\nvalue = [3458.0, 3418.0, 1.0, 3234.0, 257.0]\nclass = not_recom", fillcolor="#fffefe"] ;
1 [label="has_nurs_very_crit <= 0.5\nentropy = 1.193\nsamples = 6910\nvalue = [0, 3418, 1, 3234, 257]\nclass = priority", fillcolor="#f8fef5"] ;
0 -> 1 [labeldistance=2.5, labelangle=45, headlabel="True"] ;
2 [label="parents_great_pret <= 0.5\nentropy = 1.189\nsamples = 5529\nvalue = [0, 3253, 1, 2018, 257]\nclass = priority", fillcolor="#d1f6b9"] ;
1 -> 2 ;
3 [label="has_nurs_critical <= 0.5\nentropy = 1.095\nsamples = 3673\nvalue = [0, 2625, 1, 790, 257]\nclass = priority", fillcolor="#abee81"] ;
2 -> 3 ;
4 [label="has_nurs_improper <= 0.5\nentropy = 0.813\nsamples = 2766\nvalue = [0, 2309, 1, 199, 257]\nclass = priority", fillcolor="#93ea5d"] ;
3 -> 4 ;
5 [label="health_recommended <= 0.5\nentropy = 0.514\nsamples = 1841\nvalue = [0.0, 1633.0, 1.0, 0.0, 207.0]\nclass = priority", fillcolor="#8ce852"] ;
4 -> 5 ;
6 [label="entropy = 0.0\nsamples = 940\nvalue = [0, 940, 0, 0, 0]\nclass = priority", fillcolor="#7be539"] ;
5 -> 6 ;
7 [label="social_problematic <= 0.5\nentropy = 0.79\nsamples = 901\nvalue = [0, 693, 1, 0, 207]\nclass = priority", fillcolor="#a3ed74"] ;
5 -> 7 ;
8 [label="entropy = 0.945\nsamples = 602\nvalue = [0, 394, 1, 0, 207]\nclass = priority", fillcolor="#c1f3a1"] ;
7 -> 8 ;
9 [label="entropy = 0.0\nsamples = 299\nvalue = [0, 299, 0, 0, 0]\nclass = priority", fillcolor="#7be539"] ;
7 -> 9 ;
10 [label="parents_pretentious <= 0.5\nentropy = 1.035\nsamples = 925\nvalue = [0, 676, 0, 199, 50]\nclass = priority", fillcolor="#a8ee7d"] ;
4 -> 10 ;
11 [label="health_priority <= 0.5\nentropy = 0.494\nsamples = 463\nvalue = [0, 413, 0, 0, 50]\nclass = priority", fillcolor="#8be851"] ;
10 -> 11 ;
12 [label="entropy = 0.754\nsamples = 231\nvalue = [0, 181, 0, 0, 50]\nclass = priority", fillcolor="#9fec70"] ;
11 -> 12 ;
13 [label="entropy = 0.0\nsamples = 232\nvalue = [0, 232, 0, 0, 0]\nclass = priority", fillcolor="#7be539"] ;
11 -> 13 ;
14 [label="health_recommended <= 0.5\nentropy = 0.986\nsamples = 462\nvalue = [0, 263, 0, 199, 0]\nclass = priority", fillcolor="#dff9cf"] ;
10 -> 14 ;
15 [label="entropy = 0.949\nsamples = 234\nvalue = [0, 86, 0, 148, 0]\nclass = spec_prior", fillcolor="#adacf4"] ;
14 -> 15 ;
16 [label="entropy = 0.767\nsamples = 228\nvalue = [0, 177, 0, 51, 0]\nclass = priority", fillcolor="#a1ec72"] ;
14 -> 16 ;
17 [label="parents_pretentious <= 0.5\nentropy = 0.933\nsamples = 907\nvalue = [0, 316, 0, 591, 0]\nclass = spec_prior", fillcolor="#a4a3f3"] ;
3 -> 17 ;
18 [label="health_recommended <= 0.5\nentropy = 0.986\nsamples = 458\nvalue = [0, 261, 0, 197, 0]\nclass = priority", fillcolor="#dff9ce"] ;
17 -> 18 ;
19 [label="housing_convenient <= 0.5\nentropy = 0.936\nsamples = 230\nvalue = [0, 81, 0, 149, 0]\nclass = spec_prior", fillcolor="#a6a5f3"] ;
18 -> 19 ;
20 [label="entropy = 0.673\nsamples = 147\nvalue = [0, 26, 0, 121, 0]\nclass = spec_prior", fillcolor="#6664eb"] ;
19 -> 20 ;
21 [label="entropy = 0.922\nsamples = 83\nvalue = [0.0, 55.0, 0.0, 28.0, 0.0]\nclass = priority", fillcolor="#bef29e"] ;
19 -> 21 ;
22 [label="social_problematic <= 0.5\nentropy = 0.742\nsamples = 228\nvalue = [0, 180, 0, 48, 0]\nclass = priority", fillcolor="#9eec6e"] ;
18 -> 22 ;
23 [label="entropy = 0.0\nsamples = 151\nvalue = [0, 151, 0, 0, 0]\nclass = priority", fillcolor="#7be539"] ;
22 -> 23 ;
24 [label="entropy = 0.956\nsamples = 77\nvalue = [0, 29, 0, 48, 0]\nclass = spec_prior", fillcolor="#b2b1f5"] ;
22 -> 24 ;
25 [label="health_recommended <= 0.5\nentropy = 0.536\nsamples = 449\nvalue = [0, 55, 0, 394, 0]\nclass = spec_prior", fillcolor="#5755e9"] ;
17 -> 25 ;
26 [label="form_complete <= 0.5\nentropy = 0.103\nsamples = 224\nvalue = [0, 3, 0, 221, 0]\nclass = spec_prior", fillcolor="#3f3ce5"] ;
25 -> 26 ;
27 [label="entropy = 0.0\nsamples = 168\nvalue = [0, 0, 0, 168, 0]\nclass = spec_prior", fillcolor="#3c39e5"] ;
26 -> 27 ;
28 [label="entropy = 0.301\nsamples = 56\nvalue = [0, 3, 0, 53, 0]\nclass = spec_prior", fillcolor="#4744e6"] ;
26 -> 28 ;
29 [label="social_problematic <= 0.5\nentropy = 0.78\nsamples = 225\nvalue = [0, 52, 0, 173, 0]\nclass = spec_prior", fillcolor="#7775ed"] ;
25 -> 29 ;
30 [label="entropy = 0.918\nsamples = 153\nvalue = [0, 51, 0, 102, 0]\nclass = spec_prior", fillcolor="#9e9cf2"] ;
29 -> 30 ;
31 [label="entropy = 0.106\nsamples = 72\nvalue = [0, 1, 0, 71, 0]\nclass = spec_prior", fillcolor="#3f3ce5"] ;
29 -> 31 ;
32 [label="health_recommended <= 0.5\nentropy = 0.923\nsamples = 1856\nvalue = [0, 628, 0, 1228, 0]\nclass = spec_prior", fillcolor="#a09ef2"] ;
2 -> 32 ;
33 [label="housing_critical <= 0.5\nentropy = 0.671\nsamples = 943\nvalue = [0, 166, 0, 777, 0]\nclass = spec_prior", fillcolor="#6663eb"] ;
32 -> 33 ;
34 [label="has_nurs_improper <= 0.5\nentropy = 0.811\nsamples = 625\nvalue = [0, 156, 0, 469, 0]\nclass = spec_prior", fillcolor="#7d7bee"] ;
33 -> 34 ;
35 [label="has_nurs_critical <= 0.5\nentropy = 0.911\nsamples = 469\nvalue = [0, 153, 0, 316, 0]\nclass = spec_prior", fillcolor="#9a99f2"] ;
34 -> 35 ;
36 [label="entropy = 0.999\nsamples = 314\nvalue = [0, 150, 0, 164, 0]\nclass = spec_prior", fillcolor="#eeeefd"] ;
35 -> 36 ;
37 [label="entropy = 0.138\nsamples = 155\nvalue = [0, 3, 0, 152, 0]\nclass = spec_prior", fillcolor="#403de6"] ;
35 -> 37 ;
38 [label="children_1 <= 0.5\nentropy = 0.137\nsamples = 156\nvalue = [0, 3, 0, 153, 0]\nclass = spec_prior", fillcolor="#403de6"] ;
34 -> 38 ;
39 [label="entropy = 0.0\nsamples = 119\nvalue = [0, 0, 0, 119, 0]\nclass = spec_prior", fillcolor="#3c39e5"] ;
38 -> 39 ;
40 [label="entropy = 0.406\nsamples = 37\nvalue = [0, 3, 0, 34, 0]\nclass = spec_prior", fillcolor="#4d4ae7"] ;
38 -> 40 ;
41 [label="children_1 <= 0.5\nentropy = 0.202\nsamples = 318\nvalue = [0, 10, 0, 308, 0]\nclass = spec_prior", fillcolor="#423fe6"] ;
33 -> 41 ;
42 [label="entropy = 0.0\nsamples = 241\nvalue = [0, 0, 0, 241, 0]\nclass = spec_prior", fillcolor="#3c39e5"] ;
41 -> 42 ;
43 [label="form_complete <= 0.5\nentropy = 0.557\nsamples = 77\nvalue = [0.0, 10.0, 0.0, 67.0, 0.0]\nclass = spec_prior", fillcolor="#5957e9"] ;
41 -> 43 ;
44 [label="entropy = 0.0\nsamples = 57\nvalue = [0, 0, 0, 57, 0]\nclass = spec_prior", fillcolor="#3c39e5"] ;
43 -> 44 ;
45 [label="entropy = 1.0\nsamples = 20\nvalue = [0, 10, 0, 10, 0]\nclass = priority", fillcolor="#ffffff"] ;
43 -> 45 ;
46 [label="social_problematic <= 0.5\nentropy = 1.0\nsamples = 913\nvalue = [0.0, 462.0, 0.0, 451.0, 0.0]\nclass = priority", fillcolor="#fcfefa"] ;
32 -> 46 ;
47 [label="has_nurs_less_proper <= 0.5\nentropy = 0.909\nsamples = 604\nvalue = [0, 408, 0, 196, 0]\nclass = priority", fillcolor="#baf198"] ;
46 -> 47 ;
48 [label="has_nurs_proper <= 0.5\nentropy = 0.987\nsamples = 452\nvalue = [0, 256, 0, 196, 0]\nclass = priority", fillcolor="#e0f9d1"] ;
47 -> 48 ;
49 [label="entropy = 0.94\nsamples = 305\nvalue = [0, 109, 0, 196, 0]\nclass = spec_prior", fillcolor="#a8a7f3"] ;
48 -> 49 ;
50 [label="entropy = 0.0\nsamples = 147\nvalue = [0, 147, 0, 0, 0]\nclass = priority", fillcolor="#7be539"] ;
48 -> 50 ;
51 [label="entropy = 0.0\nsamples = 152\nvalue = [0, 152, 0, 0, 0]\nclass = priority", fillcolor="#7be539"] ;
47 -> 51 ;
52 [label="has_nurs_improper <= 0.5\nentropy = 0.668\nsamples = 309\nvalue = [0, 54, 0, 255, 0]\nclass = spec_prior", fillcolor="#6563eb"] ;
46 -> 52 ;
53 [label="has_nurs_critical <= 0.5\nentropy = 0.783\nsamples = 232\nvalue = [0, 54, 0, 178, 0]\nclass = spec_prior", fillcolor="#7775ed"] ;
52 -> 53 ;
54 [label="entropy = 0.927\nsamples = 155\nvalue = [0, 53, 0, 102, 0]\nclass = spec_prior", fillcolor="#a1a0f3"] ;
53 -> 54 ;
55 [label="entropy = 0.1\nsamples = 77\nvalue = [0, 1, 0, 76, 0]\nclass = spec_prior", fillcolor="#3f3ce5"] ;
53 -> 55 ;
56 [label="entropy = 0.0\nsamples = 77\nvalue = [0, 0, 0, 77, 0]\nclass = spec_prior", fillcolor="#3c39e5"] ;
52 -> 56 ;
57 [label="health_priority <= 0.5\nentropy = 0.528\nsamples = 1381\nvalue = [0, 165, 0, 1216, 0]\nclass = spec_prior", fillcolor="#5654e9"] ;
1 -> 57 ;
58 [label="social_problematic <= 0.5\nentropy = 0.781\nsamples = 686\nvalue = [0, 159, 0, 527, 0]\nclass = spec_prior", fillcolor="#7775ed"] ;
57 -> 58 ;
59 [label="housing_convenient <= 0.5\nentropy = 0.925\nsamples = 458\nvalue = [0, 156, 0, 302, 0]\nclass = spec_prior", fillcolor="#a19ff2"] ;
58 -> 59 ;
60 [label="children_1 <= 0.5\nentropy = 0.694\nsamples = 311\nvalue = [0, 58, 0, 253, 0]\nclass = spec_prior", fillcolor="#6966eb"] ;
59 -> 60 ;
61 [label="children_2 <= 0.5\nentropy = 0.391\nsamples = 234\nvalue = [0, 18, 0, 216, 0]\nclass = spec_prior", fillcolor="#4c49e7"] ;
60 -> 61 ;
62 [label="entropy = 0.0\nsamples = 156\nvalue = [0, 0, 0, 156, 0]\nclass = spec_prior", fillcolor="#3c39e5"] ;
61 -> 62 ;
63 [label="entropy = 0.779\nsamples = 78\nvalue = [0, 18, 0, 60, 0]\nclass = spec_prior", fillcolor="#7674ed"] ;
61 -> 63 ;
64 [label="form_foster <= 0.5\nentropy = 0.999\nsamples = 77\nvalue = [0.0, 40.0, 0.0, 37.0, 0.0]\nclass = priority", fillcolor="#f5fdf0"] ;
60 -> 64 ;
65 [label="entropy = 0.907\nsamples = 59\nvalue = [0, 40, 0, 19, 0]\nclass = priority", fillcolor="#baf197"] ;
64 -> 65 ;
66 [label="entropy = 0.0\nsamples = 18\nvalue = [0, 0, 0, 18, 0]\nclass = spec_prior", fillcolor="#3c39e5"] ;
64 -> 66 ;
67 [label="finance_convenient <= 0.5\nentropy = 0.918\nsamples = 147\nvalue = [0, 98, 0, 49, 0]\nclass = priority", fillcolor="#bdf29c"] ;
59 -> 67 ;
68 [label="children_1 <= 0.5\nentropy = 0.923\nsamples = 74\nvalue = [0, 25, 0, 49, 0]\nclass = spec_prior", fillcolor="#9f9ef2"] ;
67 -> 68 ;
69 [label="entropy = 0.691\nsamples = 54\nvalue = [0, 10, 0, 44, 0]\nclass = spec_prior", fillcolor="#6866eb"] ;
68 -> 69 ;
70 [label="entropy = 0.811\nsamples = 20\nvalue = [0, 15, 0, 5, 0]\nclass = priority", fillcolor="#a7ee7b"] ;
68 -> 70 ;
71 [label="entropy = 0.0\nsamples = 73\nvalue = [0, 73, 0, 0, 0]\nclass = priority", fillcolor="#7be539"] ;
67 -> 71 ;
72 [label="form_complete <= 0.5\nentropy = 0.101\nsamples = 228\nvalue = [0, 3, 0, 225, 0]\nclass = spec_prior", fillcolor="#3f3ce5"] ;
58 -> 72 ;
73 [label="entropy = 0.0\nsamples = 172\nvalue = [0, 0, 0, 172, 0]\nclass = spec_prior", fillcolor="#3c39e5"] ;
72 -> 73 ;
74 [label="children_1 <= 0.5\nentropy = 0.301\nsamples = 56\nvalue = [0, 3, 0, 53, 0]\nclass = spec_prior", fillcolor="#4744e6"] ;
72 -> 74 ;
75 [label="entropy = 0.0\nsamples = 42\nvalue = [0, 0, 0, 42, 0]\nclass = spec_prior", fillcolor="#3c39e5"] ;
74 -> 75 ;
76 [label="housing_convenient <= 0.5\nentropy = 0.75\nsamples = 14\nvalue = [0, 3, 0, 11, 0]\nclass = spec_prior", fillcolor="#716fec"] ;
74 -> 76 ;
77 [label="entropy = 0.0\nsamples = 11\nvalue = [0, 0, 0, 11, 0]\nclass = spec_prior", fillcolor="#3c39e5"] ;
76 -> 77 ;
78 [label="entropy = 0.0\nsamples = 3\nvalue = [0, 3, 0, 0, 0]\nclass = priority", fillcolor="#7be539"] ;
76 -> 78 ;
79 [label="children_1 <= 0.5\nentropy = 0.072\nsamples = 695\nvalue = [0, 6, 0, 689, 0]\nclass = spec_prior", fillcolor="#3e3be5"] ;
57 -> 79 ;
80 [label="entropy = 0.0\nsamples = 528\nvalue = [0, 0, 0, 528, 0]\nclass = spec_prior", fillcolor="#3c39e5"] ;
79 -> 80 ;
81 [label="form_complete <= 0.5\nentropy = 0.223\nsamples = 167\nvalue = [0, 6, 0, 161, 0]\nclass = spec_prior", fillcolor="#4340e6"] ;
79 -> 81 ;
82 [label="entropy = 0.0\nsamples = 127\nvalue = [0, 0, 0, 127, 0]\nclass = spec_prior", fillcolor="#3c39e5"] ;
81 -> 82 ;
83 [label="housing_convenient <= 0.5\nentropy = 0.61\nsamples = 40\nvalue = [0, 6, 0, 34, 0]\nclass = spec_prior", fillcolor="#5e5cea"] ;
81 -> 83 ;
84 [label="entropy = 0.0\nsamples = 26\nvalue = [0, 0, 0, 26, 0]\nclass = spec_prior", fillcolor="#3c39e5"] ;
83 -> 84 ;
85 [label="finance_inconv <= 0.5\nentropy = 0.985\nsamples = 14\nvalue = [0, 6, 0, 8, 0]\nclass = spec_prior", fillcolor="#cecef8"] ;
83 -> 85 ;
86 [label="entropy = 0.0\nsamples = 6\nvalue = [0, 6, 0, 0, 0]\nclass = priority", fillcolor="#7be539"] ;
85 -> 86 ;
87 [label="entropy = 0.0\nsamples = 8\nvalue = [0, 0, 0, 8, 0]\nclass = spec_prior", fillcolor="#3c39e5"] ;
85 -> 87 ;
88 [label="entropy = 0.0\nsamples = 3458\nvalue = [3458, 0, 0, 0, 0]\nclass = not_recom", fillcolor="#e58139"] ;
0 -> 88 [labeldistance=2.5, labelangle=-45, headlabel="False"] ;
}
