digraph Tree {
node [shape=box, style="filled, rounded", color="black", fontname="helvetica"] ;
edge [fontname="helvetica"] ;
0 [label="health_not_recom <= 0.5\nentropy = 1.714\nsamples = 10368\nvalue = [3458.0, 3418.0, 1.0, 3234.0, 257.0]\nclass = not_recom", fillcolor="#fffefe"] ;
1 [label="has_nurs_very_crit <= 0.5\nentropy = 1.193\nsamples = 6910\nvalue = [0, 3418, 1, 3234, 257]\nclass = priority", fillcolor="#f8fef5"] ;
0 -> 1 [labeldistance=2.5, labelangle=45, headlabel="True"] ;
2 [label="entropy = 1.189\nsamples = 5529\nvalue = [0, 3253, 1, 2018, 257]\nclass = priority", fillcolor="#d1f6b9"] ;
1 -> 2 ;
3 [label="entropy = 0.528\nsamples = 1381\nvalue = [0, 165, 0, 1216, 0]\nclass = spec_prior", fillcolor="#5654e9"] ;
1 -> 3 ;
4 [label="entropy = 0.0\nsamples = 3458\nvalue = [3458, 0, 0, 0, 0]\nclass = not_recom", fillcolor="#e58139"] ;
0 -> 4 [labeldistance=2.5, labelangle=-45, headlabel="False"] ;
}
