digraph Tree {
node [shape=box, style="filled, rounded", color="black", fontname="helvetica"] ;
edge [fontname="helvetica"] ;
0 [label="health_not_recom <= 0.5\nentropy = 1.722\nsamples = 7776\nvalue = [2601, 2561, 1, 2403, 210]\nclass = not_recom", fillcolor="#fffefd"] ;
1 [label="has_nurs_very_crit <= 0.5\nentropy = 1.206\nsamples = 5175\nvalue = [0.0, 2561.0, 1.0, 2403.0, 210.0]\nclass = priority", fillcolor="#f7fef4"] ;
0 -> 1 [labeldistance=2.5, labelangle=45, headlabel="True"] ;
2 [label="parents_great_pret <= 0.5\nentropy = 1.204\nsamples = 4154\nvalue = [0, 2427, 1, 1516, 210]\nclass = priority", fillcolor="#d1f6bb"] ;
1 -> 2 ;
3 [label="has_nurs_critical <= 0.5\nentropy = 1.115\nsamples = 2773\nvalue = [0, 1966, 1, 596, 210]\nclass = priority", fillcolor="#acef82"] ;
2 -> 3 ;
4 [label="has_nurs_improper <= 0.5\nentropy = 0.829\nsamples = 2082\nvalue = [0.0, 1727.0, 1.0, 144.0, 210.0]\nclass = priority", fillcolor="#94ea5f"] ;
3 -> 4 ;
5 [label="health_priority <= 0.5\nentropy = 0.551\nsamples = 1397\nvalue = [0, 1222, 1, 0, 174]\nclass = priority", fillcolor="#8ee955"] ;
4 -> 5 ;
6 [label="social_problematic <= 0.5\nentropy = 0.812\nsamples = 720\nvalue = [0, 545, 1, 0, 174]\nclass = priority", fillcolor="#a5ed78"] ;
5 -> 6 ;
7 [label="housing_convenient <= 0.5\nentropy = 0.96\nsamples = 487\nvalue = [0, 312, 1, 0, 174]\nclass = priority", fillcolor="#c5f4a8"] ;
6 -> 7 ;
8 [label="entropy = 0.71\nsamples = 314\nvalue = [0.0, 253.0, 0.0, 0.0, 61.0]\nclass = priority", fillcolor="#9beb69"] ;
7 -> 8 ;
9 [label="entropy = 0.974\nsamples = 173\nvalue = [0.0, 59.0, 1.0, 0.0, 113.0]\nclass = very_recom", fillcolor="#f3a1e1"] ;
7 -> 9 ;
10 [label="entropy = 0.0\nsamples = 233\nvalue = [0, 233, 0, 0, 0]\nclass = priority", fillcolor="#7be539"] ;
6 -> 10 ;
11 [label="entropy = 0.0\nsamples = 677\nvalue = [0, 677, 0, 0, 0]\nclass = priority", fillcolor="#7be539"] ;
5 -> 11 ;
12 [label="parents_pretentious <= 0.5\nentropy = 1.021\nsamples = 685\nvalue = [0, 505, 0, 144, 36]\nclass = priority", fillcolor="#a7ee7b"] ;
4 -> 12 ;
13 [label="health_recommended <= 0.5\nentropy = 0.478\nsamples = 350\nvalue = [0, 314, 0, 0, 36]\nclass = priority", fillcolor="#8ae850"] ;
12 -> 13 ;
14 [label="entropy = 0.0\nsamples = 171\nvalue = [0, 171, 0, 0, 0]\nclass = priority", fillcolor="#7be539"] ;
13 -> 14 ;
15 [label="social_problematic <= 0.5\nentropy = 0.724\nsamples = 179\nvalue = [0, 143, 0, 0, 36]\nclass = priority", fillcolor="#9cec6b"] ;
13 -> 15 ;
16 [label="entropy = 0.9\nsamples = 114\nvalue = [0, 78, 0, 0, 36]\nclass = priority", fillcolor="#b8f194"] ;
15 -> 16 ;
17 [label="entropy = 0.0\nsamples = 65\nvalue = [0, 65, 0, 0, 0]\nclass = priority", fillcolor="#7be539"] ;
15 -> 17 ;
18 [label="health_priority <= 0.5\nentropy = 0.986\nsamples = 335\nvalue = [0, 191, 0, 144, 0]\nclass = priority", fillcolor="#dff9ce"] ;
12 -> 18 ;
19 [label="social_problematic <= 0.5\nentropy = 0.749\nsamples = 173\nvalue = [0, 136, 0, 37, 0]\nclass = priority", fillcolor="#9fec6f"] ;
18 -> 19 ;
20 [label="entropy = 0.0\nsamples = 116\nvalue = [0, 116, 0, 0, 0]\nclass = priority", fillcolor="#7be539"] ;
19 -> 20 ;
21 [label="entropy = 0.935\nsamples = 57\nvalue = [0, 20, 0, 37, 0]\nclass = spec_prior", fillcolor="#a5a4f3"] ;
19 -> 21 ;
22 [label="housing_critical <= 0.5\nentropy = 0.924\nsamples = 162\nvalue = [0.0, 55.0, 0.0, 107.0, 0.0]\nclass = spec_prior", fillcolor="#a09ff2"] ;
18 -> 22 ;
23 [label="entropy = 0.999\nsamples = 105\nvalue = [0.0, 54.0, 0.0, 51.0, 0.0]\nclass = priority", fillcolor="#f8fef4"] ;
22 -> 23 ;
24 [label="entropy = 0.127\nsamples = 57\nvalue = [0, 1, 0, 56, 0]\nclass = spec_prior", fillcolor="#3f3de5"] ;
22 -> 24 ;
25 [label="parents_usual <= 0.5\nentropy = 0.93\nsamples = 691\nvalue = [0.0, 239.0, 0.0, 452.0, 0.0]\nclass = spec_prior", fillcolor="#a3a2f3"] ;
3 -> 25 ;
26 [label="health_priority <= 0.5\nentropy = 0.518\nsamples = 336\nvalue = [0, 39, 0, 297, 0]\nclass = spec_prior", fillcolor="#5653e8"] ;
25 -> 26 ;
27 [label="social_problematic <= 0.5\nentropy = 0.753\nsamples = 171\nvalue = [0, 37, 0, 134, 0]\nclass = spec_prior", fillcolor="#7270ec"] ;
26 -> 27 ;
28 [label="housing_convenient <= 0.5\nentropy = 0.918\nsamples = 111\nvalue = [0, 37, 0, 74, 0]\nclass = spec_prior", fillcolor="#9e9cf2"] ;
27 -> 28 ;
29 [label="entropy = 0.567\nsamples = 75\nvalue = [0, 10, 0, 65, 0]\nclass = spec_prior", fillcolor="#5a57e9"] ;
28 -> 29 ;
30 [label="entropy = 0.811\nsamples = 36\nvalue = [0, 27, 0, 9, 0]\nclass = priority", fillcolor="#a7ee7b"] ;
28 -> 30 ;
31 [label="entropy = 0.0\nsamples = 60\nvalue = [0, 0, 0, 60, 0]\nclass = spec_prior", fillcolor="#3c39e5"] ;
27 -> 31 ;
32 [label="form_complete <= 0.5\nentropy = 0.095\nsamples = 165\nvalue = [0, 2, 0, 163, 0]\nclass = spec_prior", fillcolor="#3e3be5"] ;
26 -> 32 ;
33 [label="entropy = 0.0\nsamples = 124\nvalue = [0, 0, 0, 124, 0]\nclass = spec_prior", fillcolor="#3c39e5"] ;
32 -> 33 ;
34 [label="children_1 <= 0.5\nentropy = 0.281\nsamples = 41\nvalue = [0, 2, 0, 39, 0]\nclass = spec_prior", fillcolor="#4643e6"] ;
32 -> 34 ;
35 [label="entropy = 0.0\nsamples = 27\nvalue = [0, 0, 0, 27, 0]\nclass = spec_prior", fillcolor="#3c39e5"] ;
34 -> 35 ;
36 [label="entropy = 0.592\nsamples = 14\nvalue = [0, 2, 0, 12, 0]\nclass = spec_prior", fillcolor="#5d5ae9"] ;
34 -> 36 ;
37 [label="health_priority <= 0.5\nentropy = 0.988\nsamples = 355\nvalue = [0, 200, 0, 155, 0]\nclass = priority", fillcolor="#e1f9d2"] ;
25 -> 37 ;
38 [label="social_problematic <= 0.5\nentropy = 0.738\nsamples = 173\nvalue = [0, 137, 0, 36, 0]\nclass = priority", fillcolor="#9eec6d"] ;
37 -> 38 ;
39 [label="entropy = 0.0\nsamples = 115\nvalue = [0, 115, 0, 0, 0]\nclass = priority", fillcolor="#7be539"] ;
38 -> 39 ;
40 [label="housing_convenient <= 0.5\nentropy = 0.958\nsamples = 58\nvalue = [0, 22, 0, 36, 0]\nclass = spec_prior", fillcolor="#b3b2f5"] ;
38 -> 40 ;
41 [label="entropy = 0.65\nsamples = 36\nvalue = [0, 6, 0, 30, 0]\nclass = spec_prior", fillcolor="#6361ea"] ;
40 -> 41 ;
42 [label="entropy = 0.845\nsamples = 22\nvalue = [0, 16, 0, 6, 0]\nclass = priority", fillcolor="#acef83"] ;
40 -> 42 ;
43 [label="housing_critical <= 0.5\nentropy = 0.931\nsamples = 182\nvalue = [0, 63, 0, 119, 0]\nclass = spec_prior", fillcolor="#a3a2f3"] ;
37 -> 43 ;
44 [label="children_1 <= 0.5\nentropy = 1.0\nsamples = 115\nvalue = [0, 57, 0, 58, 0]\nclass = spec_prior", fillcolor="#fcfcff"] ;
43 -> 44 ;
45 [label="entropy = 0.957\nsamples = 82\nvalue = [0, 31, 0, 51, 0]\nclass = spec_prior", fillcolor="#b3b1f5"] ;
44 -> 45 ;
46 [label="entropy = 0.746\nsamples = 33\nvalue = [0, 26, 0, 7, 0]\nclass = priority", fillcolor="#9fec6e"] ;
44 -> 46 ;
47 [label="children_1 <= 0.5\nentropy = 0.435\nsamples = 67\nvalue = [0, 6, 0, 61, 0]\nclass = spec_prior", fillcolor="#4f4ce8"] ;
43 -> 47 ;
48 [label="entropy = 0.0\nsamples = 50\nvalue = [0, 0, 0, 50, 0]\nclass = spec_prior", fillcolor="#3c39e5"] ;
47 -> 48 ;
49 [label="entropy = 0.937\nsamples = 17\nvalue = [0, 6, 0, 11, 0]\nclass = spec_prior", fillcolor="#a6a5f3"] ;
47 -> 49 ;
50 [label="health_recommended <= 0.5\nentropy = 0.919\nsamples = 1381\nvalue = [0.0, 461.0, 0.0, 920.0, 0.0]\nclass = spec_prior", fillcolor="#9e9cf2"] ;
2 -> 50 ;
51 [label="has_nurs_improper <= 0.5\nentropy = 0.678\nsamples = 699\nvalue = [0, 125, 0, 574, 0]\nclass = spec_prior", fillcolor="#6664eb"] ;
50 -> 51 ;
52 [label="has_nurs_critical <= 0.5\nentropy = 0.784\nsamples = 531\nvalue = [0, 124, 0, 407, 0]\nclass = spec_prior", fillcolor="#7775ed"] ;
51 -> 52 ;
53 [label="housing_convenient <= 0.5\nentropy = 0.927\nsamples = 354\nvalue = [0, 121, 0, 233, 0]\nclass = spec_prior", fillcolor="#a1a0f3"] ;
52 -> 53 ;
54 [label="children_1 <= 0.5\nentropy = 0.683\nsamples = 237\nvalue = [0, 43, 0, 194, 0]\nclass = spec_prior", fillcolor="#6765eb"] ;
53 -> 54 ;
55 [label="entropy = 0.356\nsamples = 178\nvalue = [0, 12, 0, 166, 0]\nclass = spec_prior", fillcolor="#4a47e7"] ;
54 -> 55 ;
56 [label="entropy = 0.998\nsamples = 59\nvalue = [0.0, 31.0, 0.0, 28.0, 0.0]\nclass = priority", fillcolor="#f2fcec"] ;
54 -> 56 ;
57 [label="finance_convenient <= 0.5\nentropy = 0.918\nsamples = 117\nvalue = [0, 78, 0, 39, 0]\nclass = priority", fillcolor="#bdf29c"] ;
53 -> 57 ;
58 [label="entropy = 0.87\nsamples = 55\nvalue = [0, 16, 0, 39, 0]\nclass = spec_prior", fillcolor="#8c8af0"] ;
57 -> 58 ;
59 [label="entropy = 0.0\nsamples = 62\nvalue = [0, 62, 0, 0, 0]\nclass = priority", fillcolor="#7be539"] ;
57 -> 59 ;
60 [label="form_complete <= 0.5\nentropy = 0.124\nsamples = 177\nvalue = [0, 3, 0, 174, 0]\nclass = spec_prior", fillcolor="#3f3ce5"] ;
52 -> 60 ;
61 [label="entropy = 0.0\nsamples = 137\nvalue = [0, 0, 0, 137, 0]\nclass = spec_prior", fillcolor="#3c39e5"] ;
60 -> 61 ;
62 [label="children_1 <= 0.5\nentropy = 0.384\nsamples = 40\nvalue = [0, 3, 0, 37, 0]\nclass = spec_prior", fillcolor="#4c49e7"] ;
60 -> 62 ;
63 [label="entropy = 0.0\nsamples = 28\nvalue = [0, 0, 0, 28, 0]\nclass = spec_prior", fillcolor="#3c39e5"] ;
62 -> 63 ;
64 [label="entropy = 0.811\nsamples = 12\nvalue = [0, 3, 0, 9, 0]\nclass = spec_prior", fillcolor="#7d7bee"] ;
62 -> 64 ;
65 [label="children_1 <= 0.5\nentropy = 0.053\nsamples = 168\nvalue = [0, 1, 0, 167, 0]\nclass = spec_prior", fillcolor="#3d3ae5"] ;
51 -> 65 ;
66 [label="entropy = 0.0\nsamples = 125\nvalue = [0, 0, 0, 125, 0]\nclass = spec_prior", fillcolor="#3c39e5"] ;
65 -> 66 ;
67 [label="form_complete <= 0.5\nentropy = 0.159\nsamples = 43\nvalue = [0, 1, 0, 42, 0]\nclass = spec_prior", fillcolor="#413ee6"] ;
65 -> 67 ;
68 [label="entropy = 0.0\nsamples = 32\nvalue = [0, 0, 0, 32, 0]\nclass = spec_prior", fillcolor="#3c39e5"] ;
67 -> 68 ;
69 [label="finance_inconv <= 0.5\nentropy = 0.439\nsamples = 11\nvalue = [0, 1, 0, 10, 0]\nclass = spec_prior", fillcolor="#504de8"] ;
67 -> 69 ;
70 [label="entropy = 0.811\nsamples = 4\nvalue = [0, 1, 0, 3, 0]\nclass = spec_prior", fillcolor="#7d7bee"] ;
69 -> 70 ;
71 [label="entropy = 0.0\nsamples = 7\nvalue = [0, 0, 0, 7, 0]\nclass = spec_prior", fillcolor="#3c39e5"] ;
69 -> 71 ;
72 [label="social_problematic <= 0.5\nentropy = 1.0\nsamples = 682\nvalue = [0, 336, 0, 346, 0]\nclass = spec_prior", fillcolor="#f9f9fe"] ;
50 -> 72 ;
73 [label="has_nurs_proper <= 0.5\nentropy = 0.926\nsamples = 446\nvalue = [0, 294, 0, 152, 0]\nclass = priority", fillcolor="#bff29f"] ;
72 -> 73 ;
74 [label="has_nurs_less_proper <= 0.5\nentropy = 0.995\nsamples = 331\nvalue = [0.0, 179.0, 0.0, 152.0, 0.0]\nclass = priority", fillcolor="#ebfbe1"] ;
73 -> 74 ;
75 [label="housing_convenient <= 0.5\nentropy = 0.937\nsamples = 235\nvalue = [0, 83, 0, 152, 0]\nclass = spec_prior", fillcolor="#a6a5f3"] ;
74 -> 75 ;
76 [label="entropy = 0.711\nsamples = 154\nvalue = [0, 30, 0, 124, 0]\nclass = spec_prior", fillcolor="#6b69eb"] ;
75 -> 76 ;
77 [label="entropy = 0.93\nsamples = 81\nvalue = [0, 53, 0, 28, 0]\nclass = priority", fillcolor="#c1f3a2"] ;
75 -> 77 ;
78 [label="entropy = 0.0\nsamples = 96\nvalue = [0, 96, 0, 0, 0]\nclass = priority", fillcolor="#7be539"] ;
74 -> 78 ;
79 [label="entropy = 0.0\nsamples = 115\nvalue = [0, 115, 0, 0, 0]\nclass = priority", fillcolor="#7be539"] ;
73 -> 79 ;
80 [label="housing_convenient <= 0.5\nentropy = 0.676\nsamples = 236\nvalue = [0, 42, 0, 194, 0]\nclass = spec_prior", fillcolor="#6664eb"] ;
72 -> 80 ;
81 [label="children_1 <= 0.5\nentropy = 0.455\nsamples = 157\nvalue = [0.0, 15.0, 0.0, 142.0, 0.0]\nclass = spec_prior", fillcolor="#514ee8"] ;
80 -> 81 ;
82 [label="children_2 <= 0.5\nentropy = 0.258\nsamples = 115\nvalue = [0, 5, 0, 110, 0]\nclass = spec_prior", fillcolor="#4542e6"] ;
81 -> 82 ;
83 [label="entropy = 0.0\nsamples = 80\nvalue = [0, 0, 0, 80, 0]\nclass = spec_prior", fillcolor="#3c39e5"] ;
82 -> 83 ;
84 [label="entropy = 0.592\nsamples = 35\nvalue = [0, 5, 0, 30, 0]\nclass = spec_prior", fillcolor="#5d5ae9"] ;
82 -> 84 ;
85 [label="form_complete <= 0.5\nentropy = 0.792\nsamples = 42\nvalue = [0, 10, 0, 32, 0]\nclass = spec_prior", fillcolor="#7977ed"] ;
81 -> 85 ;
86 [label="entropy = 0.449\nsamples = 32\nvalue = [0, 3, 0, 29, 0]\nclass = spec_prior", fillcolor="#504de8"] ;
85 -> 86 ;
87 [label="entropy = 0.881\nsamples = 10\nvalue = [0, 7, 0, 3, 0]\nclass = priority", fillcolor="#b4f08e"] ;
85 -> 87 ;
88 [label="has_nurs_less_proper <= 0.5\nentropy = 0.927\nsamples = 79\nvalue = [0, 27, 0, 52, 0]\nclass = spec_prior", fillcolor="#a1a0f2"] ;
80 -> 88 ;
89 [label="has_nurs_proper <= 0.5\nentropy = 0.761\nsamples = 59\nvalue = [0, 13, 0, 46, 0]\nclass = spec_prior", fillcolor="#7371ec"] ;
88 -> 89 ;
90 [label="entropy = 0.281\nsamples = 41\nvalue = [0, 2, 0, 39, 0]\nclass = spec_prior", fillcolor="#4643e6"] ;
89 -> 90 ;
91 [label="entropy = 0.964\nsamples = 18\nvalue = [0, 11, 0, 7, 0]\nclass = priority", fillcolor="#cff6b7"] ;
89 -> 91 ;
92 [label="finance_convenient <= 0.5\nentropy = 0.881\nsamples = 20\nvalue = [0, 14, 0, 6, 0]\nclass = priority", fillcolor="#b4f08e"] ;
88 -> 92 ;
93 [label="entropy = 0.971\nsamples = 10\nvalue = [0, 4, 0, 6, 0]\nclass = spec_prior", fillcolor="#bebdf6"] ;
92 -> 93 ;
94 [label="entropy = 0.0\nsamples = 10\nvalue = [0, 10, 0, 0, 0]\nclass = priority", fillcolor="#7be539"] ;
92 -> 94 ;
95 [label="health_recommended <= 0.5\nentropy = 0.561\nsamples = 1021\nvalue = [0, 134, 0, 887, 0]\nclass = spec_prior", fillcolor="#5957e9"] ;
1 -> 95 ;
96 [label="children_1 <= 0.5\nentropy = 0.103\nsamples = 517\nvalue = [0, 7, 0, 510, 0]\nclass = spec_prior", fillcolor="#3f3ce5"] ;
95 -> 96 ;
97 [label="entropy = 0.0\nsamples = 391\nvalue = [0, 0, 0, 391, 0]\nclass = spec_prior", fillcolor="#3c39e5"] ;
96 -> 97 ;
98 [label="form_complete <= 0.5\nentropy = 0.31\nsamples = 126\nvalue = [0, 7, 0, 119, 0]\nclass = spec_prior", fillcolor="#4745e7"] ;
96 -> 98 ;
99 [label="entropy = 0.0\nsamples = 96\nvalue = [0, 0, 0, 96, 0]\nclass = spec_prior", fillcolor="#3c39e5"] ;
98 -> 99 ;
100 [label="housing_convenient <= 0.5\nentropy = 0.784\nsamples = 30\nvalue = [0, 7, 0, 23, 0]\nclass = spec_prior", fillcolor="#7775ed"] ;
98 -> 100 ;
101 [label="entropy = 0.0\nsamples = 19\nvalue = [0, 0, 0, 19, 0]\nclass = spec_prior", fillcolor="#3c39e5"] ;
100 -> 101 ;
102 [label="finance_convenient <= 0.5\nentropy = 0.946\nsamples = 11\nvalue = [0, 7, 0, 4, 0]\nclass = priority", fillcolor="#c6f4aa"] ;
100 -> 102 ;
103 [label="entropy = 0.0\nsamples = 4\nvalue = [0, 0, 0, 4, 0]\nclass = spec_prior", fillcolor="#3c39e5"] ;
102 -> 103 ;
104 [label="entropy = 0.0\nsamples = 7\nvalue = [0, 7, 0, 0, 0]\nclass = priority", fillcolor="#7be539"] ;
102 -> 104 ;
105 [label="social_problematic <= 0.5\nentropy = 0.814\nsamples = 504\nvalue = [0, 127, 0, 377, 0]\nclass = spec_prior", fillcolor="#7e7cee"] ;
95 -> 105 ;
106 [label="housing_convenient <= 0.5\nentropy = 0.957\nsamples = 330\nvalue = [0, 125, 0, 205, 0]\nclass = spec_prior", fillcolor="#b3b2f5"] ;
105 -> 106 ;
107 [label="children_1 <= 0.5\nentropy = 0.731\nsamples = 215\nvalue = [0, 44, 0, 171, 0]\nclass = spec_prior", fillcolor="#6e6cec"] ;
106 -> 107 ;
108 [label="children_2 <= 0.5\nentropy = 0.463\nsamples = 163\nvalue = [0, 16, 0, 147, 0]\nclass = spec_prior", fillcolor="#514fe8"] ;
107 -> 108 ;
109 [label="entropy = 0.0\nsamples = 103\nvalue = [0, 0, 0, 103, 0]\nclass = spec_prior", fillcolor="#3c39e5"] ;
108 -> 109 ;
110 [label="housing_less_conv <= 0.5\nentropy = 0.837\nsamples = 60\nvalue = [0, 16, 0, 44, 0]\nclass = spec_prior", fillcolor="#8381ee"] ;
108 -> 110 ;
111 [label="entropy = 0.0\nsamples = 27\nvalue = [0, 0, 0, 27, 0]\nclass = spec_prior", fillcolor="#3c39e5"] ;
110 -> 111 ;
112 [label="entropy = 0.999\nsamples = 33\nvalue = [0, 16, 0, 17, 0]\nclass = spec_prior", fillcolor="#f4f3fd"] ;
110 -> 112 ;
113 [label="form_foster <= 0.5\nentropy = 0.996\nsamples = 52\nvalue = [0, 28, 0, 24, 0]\nclass = priority", fillcolor="#ecfbe3"] ;
107 -> 113 ;
114 [label="housing_critical <= 0.5\nentropy = 0.901\nsamples = 41\nvalue = [0.0, 28.0, 0.0, 13.0, 0.0]\nclass = priority", fillcolor="#b8f195"] ;
113 -> 114 ;
115 [label="entropy = 0.0\nsamples = 20\nvalue = [0, 20, 0, 0, 0]\nclass = priority", fillcolor="#7be539"] ;
114 -> 115 ;
116 [label="entropy = 0.959\nsamples = 21\nvalue = [0, 8, 0, 13, 0]\nclass = spec_prior", fillcolor="#b4b3f5"] ;
114 -> 116 ;
117 [label="entropy = 0.0\nsamples = 11\nvalue = [0, 0, 0, 11, 0]\nclass = spec_prior", fillcolor="#3c39e5"] ;
113 -> 117 ;
118 [label="finance_inconv <= 0.5\nentropy = 0.876\nsamples = 115\nvalue = [0, 81, 0, 34, 0]\nclass = priority", fillcolor="#b2f08c"] ;
106 -> 118 ;
119 [label="entropy = 0.0\nsamples = 64\nvalue = [0, 64, 0, 0, 0]\nclass = priority", fillcolor="#7be539"] ;
118 -> 119 ;
120 [label="children_1 <= 0.5\nentropy = 0.918\nsamples = 51\nvalue = [0, 17, 0, 34, 0]\nclass = spec_prior", fillcolor="#9e9cf2"] ;
118 -> 120 ;
121 [label="children_2 <= 0.5\nentropy = 0.639\nsamples = 37\nvalue = [0, 6, 0, 31, 0]\nclass = spec_prior", fillcolor="#625fea"] ;
120 -> 121 ;
122 [label="entropy = 0.0\nsamples = 24\nvalue = [0, 0, 0, 24, 0]\nclass = spec_prior", fillcolor="#3c39e5"] ;
121 -> 122 ;
123 [label="entropy = 0.996\nsamples = 13\nvalue = [0, 6, 0, 7, 0]\nclass = spec_prior", fillcolor="#e3e3fb"] ;
121 -> 123 ;
124 [label="form_foster <= 0.5\nentropy = 0.75\nsamples = 14\nvalue = [0, 11, 0, 3, 0]\nclass = priority", fillcolor="#9fec6f"] ;
120 -> 124 ;
125 [label="entropy = 0.0\nsamples = 11\nvalue = [0, 11, 0, 0, 0]\nclass = priority", fillcolor="#7be539"] ;
124 -> 125 ;
126 [label="entropy = 0.0\nsamples = 3\nvalue = [0, 0, 0, 3, 0]\nclass = spec_prior", fillcolor="#3c39e5"] ;
124 -> 126 ;
127 [label="form_complete <= 0.5\nentropy = 0.091\nsamples = 174\nvalue = [0, 2, 0, 172, 0]\nclass = spec_prior", fillcolor="#3e3be5"] ;
105 -> 127 ;
128 [label="entropy = 0.0\nsamples = 128\nvalue = [0, 0, 0, 128, 0]\nclass = spec_prior", fillcolor="#3c39e5"] ;
127 -> 128 ;
129 [label="children_1 <= 0.5\nentropy = 0.258\nsamples = 46\nvalue = [0, 2, 0, 44, 0]\nclass = spec_prior", fillcolor="#4542e6"] ;
127 -> 129 ;
130 [label="entropy = 0.0\nsamples = 35\nvalue = [0, 0, 0, 35, 0]\nclass = spec_prior", fillcolor="#3c39e5"] ;
129 -> 130 ;
131 [label="housing_convenient <= 0.5\nentropy = 0.684\nsamples = 11\nvalue = [0, 2, 0, 9, 0]\nclass = spec_prior", fillcolor="#6765eb"] ;
129 -> 131 ;
132 [label="entropy = 0.0\nsamples = 7\nvalue = [0, 0, 0, 7, 0]\nclass = spec_prior", fillcolor="#3c39e5"] ;
131 -> 132 ;
133 [label="finance_inconv <= 0.5\nentropy = 1.0\nsamples = 4\nvalue = [0, 2, 0, 2, 0]\nclass = priority", fillcolor="#ffffff"] ;
131 -> 133 ;
134 [label="entropy = 0.0\nsamples = 2\nvalue = [0, 2, 0, 0, 0]\nclass = priority", fillcolor="#7be539"] ;
133 -> 134 ;
135 [label="entropy = 0.0\nsamples = 2\nvalue = [0, 0, 0, 2, 0]\nclass = spec_prior", fillcolor="#3c39e5"] ;
133 -> 135 ;
136 [label="entropy = 0.0\nsamples = 2601\nvalue = [2601, 0, 0, 0, 0]\nclass = not_recom", fillcolor="#e58139"] ;
0 -> 136 [labeldistance=2.5, labelangle=-45, headlabel="False"] ;
}
