digraph Tree {
node [shape=box, style="filled, rounded", color="black", fontname="helvetica"] ;
edge [fontname="helvetica"] ;
0 [label="health_not_recom <= 0.5\nentropy = 1.722\nsamples = 7776\nvalue = [2601, 2561, 1, 2403, 210]\nclass = not_recom", fillcolor="#fffefd"] ;
1 [label="has_nurs_very_crit <= 0.5\nentropy = 1.206\nsamples = 5175\nvalue = [0.0, 2561.0, 1.0, 2403.0, 210.0]\nclass = priority", fillcolor="#f7fef4"] ;
0 -> 1 [labeldistance=2.5, labelangle=45, headlabel="True"] ;
2 [label="parents_great_pret <= 0.5\nentropy = 1.204\nsamples = 4154\nvalue = [0, 2427, 1, 1516, 210]\nclass = priority", fillcolor="#d1f6bb"] ;
1 -> 2 ;
3 [label="has_nurs_critical <= 0.5\nentropy = 1.115\nsamples = 2773\nvalue = [0, 1966, 1, 596, 210]\nclass = priority", fillcolor="#acef82"] ;
2 -> 3 ;
4 [label="has_nurs_improper <= 0.5\nentropy = 0.829\nsamples = 2082\nvalue = [0.0, 1727.0, 1.0, 144.0, 210.0]\nclass = priority", fillcolor="#94ea5f"] ;
3 -> 4 ;
5 [label="health_priority <= 0.5\nentropy = 0.551\nsamples = 1397\nvalue = [0, 1222, 1, 0, 174]\nclass = priority", fillcolor="#8ee955"] ;
4 -> 5 ;
6 [label="social_problematic <= 0.5\nentropy = 0.812\nsamples = 720\nvalue = [0, 545, 1, 0, 174]\nclass = priority", fillcolor="#a5ed78"] ;
5 -> 6 ;
7 [label="housing_convenient <= 0.5\nentropy = 0.96\nsamples = 487\nvalue = [0, 312, 1, 0, 174]\nclass = priority", fillcolor="#c5f4a8"] ;
6 -> 7 ;
8 [label="children_1 <= 0.5\nentropy = 0.71\nsamples = 314\nvalue = [0.0, 253.0, 0.0, 0.0, 61.0]\nclass = priority", fillcolor="#9beb69"] ;
7 -> 8 ;
9 [label="entropy = 0.39\nsamples = 235\nvalue = [0, 217, 0, 0, 18]\nclass = priority", fillcolor="#86e749"] ;
8 -> 9 ;
10 [label="entropy = 0.994\nsamples = 79\nvalue = [0, 36, 0, 0, 43]\nclass = very_recom", fillcolor="#fbdff5"] ;
8 -> 10 ;
11 [label="finance_inconv <= 0.5\nentropy = 0.974\nsamples = 173\nvalue = [0.0, 59.0, 1.0, 0.0, 113.0]\nclass = very_recom", fillcolor="#f3a1e1"] ;
7 -> 11 ;
12 [label="entropy = 0.092\nsamples = 85\nvalue = [0, 0, 1, 0, 84]\nclass = very_recom", fillcolor="#e53bc1"] ;
11 -> 12 ;
13 [label="entropy = 0.914\nsamples = 88\nvalue = [0, 59, 0, 0, 29]\nclass = priority", fillcolor="#bcf29a"] ;
11 -> 13 ;
14 [label="entropy = 0.0\nsamples = 233\nvalue = [0, 233, 0, 0, 0]\nclass = priority", fillcolor="#7be539"] ;
6 -> 14 ;
15 [label="entropy = 0.0\nsamples = 677\nvalue = [0, 677, 0, 0, 0]\nclass = priority", fillcolor="#7be539"] ;
5 -> 15 ;
16 [label="parents_usual <= 0.5\nentropy = 1.021\nsamples = 685\nvalue = [0, 505, 0, 144, 36]\nclass = priority", fillcolor="#a7ee7b"] ;
4 -> 16 ;
17 [label="health_recommended <= 0.5\nentropy = 0.986\nsamples = 335\nvalue = [0, 191, 0, 144, 0]\nclass = priority", fillcolor="#dff9ce"] ;
16 -> 17 ;
18 [label="housing_critical <= 0.5\nentropy = 0.924\nsamples = 162\nvalue = [0.0, 55.0, 0.0, 107.0, 0.0]\nclass = spec_prior", fillcolor="#a09ff2"] ;
17 -> 18 ;
19 [label="housing_convenient <= 0.5\nentropy = 0.999\nsamples = 105\nvalue = [0.0, 54.0, 0.0, 51.0, 0.0]\nclass = priority", fillcolor="#f8fef4"] ;
18 -> 19 ;
20 [label="entropy = 0.904\nsamples = 50\nvalue = [0, 16, 0, 34, 0]\nclass = spec_prior", fillcolor="#9896f1"] ;
19 -> 20 ;
21 [label="entropy = 0.892\nsamples = 55\nvalue = [0, 38, 0, 17, 0]\nclass = priority", fillcolor="#b6f192"] ;
19 -> 21 ;
22 [label="children_1 <= 0.5\nentropy = 0.127\nsamples = 57\nvalue = [0, 1, 0, 56, 0]\nclass = spec_prior", fillcolor="#3f3de5"] ;
18 -> 22 ;
23 [label="entropy = 0.0\nsamples = 44\nvalue = [0, 0, 0, 44, 0]\nclass = spec_prior", fillcolor="#3c39e5"] ;
22 -> 23 ;
24 [label="entropy = 0.391\nsamples = 13\nvalue = [0, 1, 0, 12, 0]\nclass = spec_prior", fillcolor="#4c49e7"] ;
22 -> 24 ;
25 [label="social_problematic <= 0.5\nentropy = 0.749\nsamples = 173\nvalue = [0, 136, 0, 37, 0]\nclass = priority", fillcolor="#9fec6f"] ;
17 -> 25 ;
26 [label="entropy = 0.0\nsamples = 116\nvalue = [0, 116, 0, 0, 0]\nclass = priority", fillcolor="#7be539"] ;
25 -> 26 ;
27 [label="children_1 <= 0.5\nentropy = 0.935\nsamples = 57\nvalue = [0, 20, 0, 37, 0]\nclass = spec_prior", fillcolor="#a5a4f3"] ;
25 -> 27 ;
28 [label="entropy = 0.712\nsamples = 41\nvalue = [0, 8, 0, 33, 0]\nclass = spec_prior", fillcolor="#6b69eb"] ;
27 -> 28 ;
29 [label="entropy = 0.811\nsamples = 16\nvalue = [0, 12, 0, 4, 0]\nclass = priority", fillcolor="#a7ee7b"] ;
27 -> 29 ;
30 [label="health_recommended <= 0.5\nentropy = 0.478\nsamples = 350\nvalue = [0, 314, 0, 0, 36]\nclass = priority", fillcolor="#8ae850"] ;
16 -> 30 ;
31 [label="entropy = 0.0\nsamples = 171\nvalue = [0, 171, 0, 0, 0]\nclass = priority", fillcolor="#7be539"] ;
30 -> 31 ;
32 [label="social_problematic <= 0.5\nentropy = 0.724\nsamples = 179\nvalue = [0, 143, 0, 0, 36]\nclass = priority", fillcolor="#9cec6b"] ;
30 -> 32 ;
33 [label="housing_critical <= 0.5\nentropy = 0.9\nsamples = 114\nvalue = [0, 78, 0, 0, 36]\nclass = priority", fillcolor="#b8f194"] ;
32 -> 33 ;
34 [label="entropy = 0.992\nsamples = 76\nvalue = [0.0, 42.0, 0.0, 0.0, 34.0]\nclass = priority", fillcolor="#e6fad9"] ;
33 -> 34 ;
35 [label="entropy = 0.297\nsamples = 38\nvalue = [0, 36, 0, 0, 2]\nclass = priority", fillcolor="#82e644"] ;
33 -> 35 ;
36 [label="entropy = 0.0\nsamples = 65\nvalue = [0, 65, 0, 0, 0]\nclass = priority", fillcolor="#7be539"] ;
32 -> 36 ;
37 [label="parents_usual <= 0.5\nentropy = 0.93\nsamples = 691\nvalue = [0.0, 239.0, 0.0, 452.0, 0.0]\nclass = spec_prior", fillcolor="#a3a2f3"] ;
3 -> 37 ;
38 [label="health_priority <= 0.5\nentropy = 0.518\nsamples = 336\nvalue = [0, 39, 0, 297, 0]\nclass = spec_prior", fillcolor="#5653e8"] ;
37 -> 38 ;
39 [label="social_problematic <= 0.5\nentropy = 0.753\nsamples = 171\nvalue = [0, 37, 0, 134, 0]\nclass = spec_prior", fillcolor="#7270ec"] ;
38 -> 39 ;
40 [label="housing_convenient <= 0.5\nentropy = 0.918\nsamples = 111\nvalue = [0, 37, 0, 74, 0]\nclass = spec_prior", fillcolor="#9e9cf2"] ;
39 -> 40 ;
41 [label="housing_less_conv <= 0.5\nentropy = 0.567\nsamples = 75\nvalue = [0, 10, 0, 65, 0]\nclass = spec_prior", fillcolor="#5a57e9"] ;
40 -> 41 ;
42 [label="entropy = 0.169\nsamples = 40\nvalue = [0, 1, 0, 39, 0]\nclass = spec_prior", fillcolor="#413ee6"] ;
41 -> 42 ;
43 [label="entropy = 0.822\nsamples = 35\nvalue = [0, 9, 0, 26, 0]\nclass = spec_prior", fillcolor="#807eee"] ;
41 -> 43 ;
44 [label="finance_inconv <= 0.5\nentropy = 0.811\nsamples = 36\nvalue = [0, 27, 0, 9, 0]\nclass = priority", fillcolor="#a7ee7b"] ;
40 -> 44 ;
45 [label="entropy = 0.0\nsamples = 19\nvalue = [0, 19, 0, 0, 0]\nclass = priority", fillcolor="#7be539"] ;
44 -> 45 ;
46 [label="entropy = 0.998\nsamples = 17\nvalue = [0, 8, 0, 9, 0]\nclass = spec_prior", fillcolor="#e9e9fc"] ;
44 -> 46 ;
47 [label="entropy = 0.0\nsamples = 60\nvalue = [0, 0, 0, 60, 0]\nclass = spec_prior", fillcolor="#3c39e5"] ;
39 -> 47 ;
48 [label="children_1 <= 0.5\nentropy = 0.095\nsamples = 165\nvalue = [0, 2, 0, 163, 0]\nclass = spec_prior", fillcolor="#3e3be5"] ;
38 -> 48 ;
49 [label="entropy = 0.0\nsamples = 124\nvalue = [0, 0, 0, 124, 0]\nclass = spec_prior", fillcolor="#3c39e5"] ;
48 -> 49 ;
50 [label="housing_convenient <= 0.5\nentropy = 0.281\nsamples = 41\nvalue = [0, 2, 0, 39, 0]\nclass = spec_prior", fillcolor="#4643e6"] ;
48 -> 50 ;
51 [label="entropy = 0.0\nsamples = 29\nvalue = [0, 0, 0, 29, 0]\nclass = spec_prior", fillcolor="#3c39e5"] ;
50 -> 51 ;
52 [label="finance_convenient <= 0.5\nentropy = 0.65\nsamples = 12\nvalue = [0, 2, 0, 10, 0]\nclass = spec_prior", fillcolor="#6361ea"] ;
50 -> 52 ;
53 [label="entropy = 0.0\nsamples = 7\nvalue = [0, 0, 0, 7, 0]\nclass = spec_prior", fillcolor="#3c39e5"] ;
52 -> 53 ;
54 [label="entropy = 0.971\nsamples = 5\nvalue = [0, 2, 0, 3, 0]\nclass = spec_prior", fillcolor="#bebdf6"] ;
52 -> 54 ;
55 [label="health_priority <= 0.5\nentropy = 0.988\nsamples = 355\nvalue = [0, 200, 0, 155, 0]\nclass = priority", fillcolor="#e1f9d2"] ;
37 -> 55 ;
56 [label="social_problematic <= 0.5\nentropy = 0.738\nsamples = 173\nvalue = [0, 137, 0, 36, 0]\nclass = priority", fillcolor="#9eec6d"] ;
55 -> 56 ;
57 [label="entropy = 0.0\nsamples = 115\nvalue = [0, 115, 0, 0, 0]\nclass = priority", fillcolor="#7be539"] ;
56 -> 57 ;
58 [label="housing_convenient <= 0.5\nentropy = 0.958\nsamples = 58\nvalue = [0, 22, 0, 36, 0]\nclass = spec_prior", fillcolor="#b3b2f5"] ;
56 -> 58 ;
59 [label="children_1 <= 0.5\nentropy = 0.65\nsamples = 36\nvalue = [0, 6, 0, 30, 0]\nclass = spec_prior", fillcolor="#6361ea"] ;
58 -> 59 ;
60 [label="entropy = 0.371\nsamples = 28\nvalue = [0, 2, 0, 26, 0]\nclass = spec_prior", fillcolor="#4b48e7"] ;
59 -> 60 ;
61 [label="entropy = 1.0\nsamples = 8\nvalue = [0, 4, 0, 4, 0]\nclass = priority", fillcolor="#ffffff"] ;
59 -> 61 ;
62 [label="finance_inconv <= 0.5\nentropy = 0.845\nsamples = 22\nvalue = [0, 16, 0, 6, 0]\nclass = priority", fillcolor="#acef83"] ;
58 -> 62 ;
63 [label="entropy = 0.0\nsamples = 12\nvalue = [0, 12, 0, 0, 0]\nclass = priority", fillcolor="#7be539"] ;
62 -> 63 ;
64 [label="entropy = 0.971\nsamples = 10\nvalue = [0, 4, 0, 6, 0]\nclass = spec_prior", fillcolor="#bebdf6"] ;
62 -> 64 ;
65 [label="housing_critical <= 0.5\nentropy = 0.931\nsamples = 182\nvalue = [0, 63, 0, 119, 0]\nclass = spec_prior", fillcolor="#a3a2f3"] ;
55 -> 65 ;
66 [label="children_1 <= 0.5\nentropy = 1.0\nsamples = 115\nvalue = [0, 57, 0, 58, 0]\nclass = spec_prior", fillcolor="#fcfcff"] ;
65 -> 66 ;
67 [label="housing_less_conv <= 0.5\nentropy = 0.957\nsamples = 82\nvalue = [0, 31, 0, 51, 0]\nclass = spec_prior", fillcolor="#b3b1f5"] ;
66 -> 67 ;
68 [label="entropy = 0.961\nsamples = 39\nvalue = [0, 24, 0, 15, 0]\nclass = priority", fillcolor="#cef5b5"] ;
67 -> 68 ;
69 [label="entropy = 0.641\nsamples = 43\nvalue = [0.0, 7.0, 0.0, 36.0, 0.0]\nclass = spec_prior", fillcolor="#625fea"] ;
67 -> 69 ;
70 [label="form_foster <= 0.5\nentropy = 0.746\nsamples = 33\nvalue = [0, 26, 0, 7, 0]\nclass = priority", fillcolor="#9fec6e"] ;
66 -> 70 ;
71 [label="entropy = 0.0\nsamples = 25\nvalue = [0, 25, 0, 0, 0]\nclass = priority", fillcolor="#7be539"] ;
70 -> 71 ;
72 [label="entropy = 0.544\nsamples = 8\nvalue = [0, 1, 0, 7, 0]\nclass = spec_prior", fillcolor="#5855e9"] ;
70 -> 72 ;
73 [label="children_1 <= 0.5\nentropy = 0.435\nsamples = 67\nvalue = [0, 6, 0, 61, 0]\nclass = spec_prior", fillcolor="#4f4ce8"] ;
65 -> 73 ;
74 [label="entropy = 0.0\nsamples = 50\nvalue = [0, 0, 0, 50, 0]\nclass = spec_prior", fillcolor="#3c39e5"] ;
73 -> 74 ;
75 [label="form_complete <= 0.5\nentropy = 0.937\nsamples = 17\nvalue = [0, 6, 0, 11, 0]\nclass = spec_prior", fillcolor="#a6a5f3"] ;
73 -> 75 ;
76 [label="entropy = 0.0\nsamples = 11\nvalue = [0, 0, 0, 11, 0]\nclass = spec_prior", fillcolor="#3c39e5"] ;
75 -> 76 ;
77 [label="entropy = 0.0\nsamples = 6\nvalue = [0, 6, 0, 0, 0]\nclass = priority", fillcolor="#7be539"] ;
75 -> 77 ;
78 [label="health_recommended <= 0.5\nentropy = 0.919\nsamples = 1381\nvalue = [0.0, 461.0, 0.0, 920.0, 0.0]\nclass = spec_prior", fillcolor="#9e9cf2"] ;
2 -> 78 ;
79 [label="has_nurs_improper <= 0.5\nentropy = 0.678\nsamples = 699\nvalue = [0, 125, 0, 574, 0]\nclass = spec_prior", fillcolor="#6664eb"] ;
78 -> 79 ;
80 [label="has_nurs_critical <= 0.5\nentropy = 0.784\nsamples = 531\nvalue = [0, 124, 0, 407, 0]\nclass = spec_prior", fillcolor="#7775ed"] ;
79 -> 80 ;
81 [label="housing_convenient <= 0.5\nentropy = 0.927\nsamples = 354\nvalue = [0, 121, 0, 233, 0]\nclass = spec_prior", fillcolor="#a1a0f3"] ;
80 -> 81 ;
82 [label="children_1 <= 0.5\nentropy = 0.683\nsamples = 237\nvalue = [0, 43, 0, 194, 0]\nclass = spec_prior", fillcolor="#6765eb"] ;
81 -> 82 ;
83 [label="children_2 <= 0.5\nentropy = 0.356\nsamples = 178\nvalue = [0, 12, 0, 166, 0]\nclass = spec_prior", fillcolor="#4a47e7"] ;
82 -> 83 ;
84 [label="entropy = 0.0\nsamples = 122\nvalue = [0, 0, 0, 122, 0]\nclass = spec_prior", fillcolor="#3c39e5"] ;
83 -> 84 ;
85 [label="entropy = 0.75\nsamples = 56\nvalue = [0, 12, 0, 44, 0]\nclass = spec_prior", fillcolor="#716fec"] ;
83 -> 85 ;
86 [label="form_foster <= 0.5\nentropy = 0.998\nsamples = 59\nvalue = [0.0, 31.0, 0.0, 28.0, 0.0]\nclass = priority", fillcolor="#f2fcec"] ;
82 -> 86 ;
87 [label="entropy = 0.83\nsamples = 42\nvalue = [0, 31, 0, 11, 0]\nclass = priority", fillcolor="#aaee7f"] ;
86 -> 87 ;
88 [label="entropy = 0.0\nsamples = 17\nvalue = [0, 0, 0, 17, 0]\nclass = spec_prior", fillcolor="#3c39e5"] ;
86 -> 88 ;
89 [label="finance_convenient <= 0.5\nentropy = 0.918\nsamples = 117\nvalue = [0, 78, 0, 39, 0]\nclass = priority", fillcolor="#bdf29c"] ;
81 -> 89 ;
90 [label="children_1 <= 0.5\nentropy = 0.87\nsamples = 55\nvalue = [0, 16, 0, 39, 0]\nclass = spec_prior", fillcolor="#8c8af0"] ;
89 -> 90 ;
91 [label="entropy = 0.61\nsamples = 40\nvalue = [0, 6, 0, 34, 0]\nclass = spec_prior", fillcolor="#5e5cea"] ;
90 -> 91 ;
92 [label="entropy = 0.918\nsamples = 15\nvalue = [0, 10, 0, 5, 0]\nclass = priority", fillcolor="#bdf29c"] ;
90 -> 92 ;
93 [label="entropy = 0.0\nsamples = 62\nvalue = [0, 62, 0, 0, 0]\nclass = priority", fillcolor="#7be539"] ;
89 -> 93 ;
94 [label="form_complete <= 0.5\nentropy = 0.124\nsamples = 177\nvalue = [0, 3, 0, 174, 0]\nclass = spec_prior", fillcolor="#3f3ce5"] ;
80 -> 94 ;
95 [label="entropy = 0.0\nsamples = 137\nvalue = [0, 0, 0, 137, 0]\nclass = spec_prior", fillcolor="#3c39e5"] ;
94 -> 95 ;
96 [label="children_1 <= 0.5\nentropy = 0.384\nsamples = 40\nvalue = [0, 3, 0, 37, 0]\nclass = spec_prior", fillcolor="#4c49e7"] ;
94 -> 96 ;
97 [label="entropy = 0.0\nsamples = 28\nvalue = [0, 0, 0, 28, 0]\nclass = spec_prior", fillcolor="#3c39e5"] ;
96 -> 97 ;
98 [label="housing_convenient <= 0.5\nentropy = 0.811\nsamples = 12\nvalue = [0, 3, 0, 9, 0]\nclass = spec_prior", fillcolor="#7d7bee"] ;
96 -> 98 ;
99 [label="entropy = 0.0\nsamples = 8\nvalue = [0, 0, 0, 8, 0]\nclass = spec_prior", fillcolor="#3c39e5"] ;
98 -> 99 ;
100 [label="entropy = 0.811\nsamples = 4\nvalue = [0, 3, 0, 1, 0]\nclass = priority", fillcolor="#a7ee7b"] ;
98 -> 100 ;
101 [label="children_1 <= 0.5\nentropy = 0.053\nsamples = 168\nvalue = [0, 1, 0, 167, 0]\nclass = spec_prior", fillcolor="#3d3ae5"] ;
79 -> 101 ;
102 [label="entropy = 0.0\nsamples = 125\nvalue = [0, 0, 0, 125, 0]\nclass = spec_prior", fillcolor="#3c39e5"] ;
101 -> 102 ;
103 [label="form_complete <= 0.5\nentropy = 0.159\nsamples = 43\nvalue = [0, 1, 0, 42, 0]\nclass = spec_prior", fillcolor="#413ee6"] ;
101 -> 103 ;
104 [label="entropy = 0.0\nsamples = 32\nvalue = [0, 0, 0, 32, 0]\nclass = spec_prior", fillcolor="#3c39e5"] ;
103 -> 104 ;
105 [label="housing_convenient <= 0.5\nentropy = 0.439\nsamples = 11\nvalue = [0, 1, 0, 10, 0]\nclass = spec_prior", fillcolor="#504de8"] ;
103 -> 105 ;
106 [label="entropy = 0.0\nsamples = 7\nvalue = [0, 0, 0, 7, 0]\nclass = spec_prior", fillcolor="#3c39e5"] ;
105 -> 106 ;
107 [label="finance_inconv <= 0.5\nentropy = 0.811\nsamples = 4\nvalue = [0, 1, 0, 3, 0]\nclass = spec_prior", fillcolor="#7d7bee"] ;
105 -> 107 ;
108 [label="entropy = 0.0\nsamples = 1\nvalue = [0, 1, 0, 0, 0]\nclass = priority", fillcolor="#7be539"] ;
107 -> 108 ;
109 [label="entropy = 0.0\nsamples = 3\nvalue = [0, 0, 0, 3, 0]\nclass = spec_prior", fillcolor="#3c39e5"] ;
107 -> 109 ;
110 [label="social_problematic <= 0.5\nentropy = 1.0\nsamples = 682\nvalue = [0, 336, 0, 346, 0]\nclass = spec_prior", fillcolor="#f9f9fe"] ;
78 -> 110 ;
111 [label="has_nurs_proper <= 0.5\nentropy = 0.926\nsamples = 446\nvalue = [0, 294, 0, 152, 0]\nclass = priority", fillcolor="#bff29f"] ;
110 -> 111 ;
112 [label="has_nurs_less_proper <= 0.5\nentropy = 0.995\nsamples = 331\nvalue = [0.0, 179.0, 0.0, 152.0, 0.0]\nclass = priority", fillcolor="#ebfbe1"] ;
111 -> 112 ;
113 [label="housing_convenient <= 0.5\nentropy = 0.937\nsamples = 235\nvalue = [0, 83, 0, 152, 0]\nclass = spec_prior", fillcolor="#a6a5f3"] ;
112 -> 113 ;
114 [label="children_1 <= 0.5\nentropy = 0.711\nsamples = 154\nvalue = [0, 30, 0, 124, 0]\nclass = spec_prior", fillcolor="#6b69eb"] ;
113 -> 114 ;
115 [label="entropy = 0.429\nsamples = 114\nvalue = [0, 10, 0, 104, 0]\nclass = spec_prior", fillcolor="#4f4ce8"] ;
114 -> 115 ;
116 [label="entropy = 1.0\nsamples = 40\nvalue = [0, 20, 0, 20, 0]\nclass = priority", fillcolor="#ffffff"] ;
114 -> 116 ;
117 [label="finance_inconv <= 0.5\nentropy = 0.93\nsamples = 81\nvalue = [0, 53, 0, 28, 0]\nclass = priority", fillcolor="#c1f3a2"] ;
113 -> 117 ;
118 [label="entropy = 0.0\nsamples = 42\nvalue = [0, 42, 0, 0, 0]\nclass = priority", fillcolor="#7be539"] ;
117 -> 118 ;
119 [label="entropy = 0.858\nsamples = 39\nvalue = [0, 11, 0, 28, 0]\nclass = spec_prior", fillcolor="#8987ef"] ;
117 -> 119 ;
120 [label="entropy = 0.0\nsamples = 96\nvalue = [0, 96, 0, 0, 0]\nclass = priority", fillcolor="#7be539"] ;
112 -> 120 ;
121 [label="entropy = 0.0\nsamples = 115\nvalue = [0, 115, 0, 0, 0]\nclass = priority", fillcolor="#7be539"] ;
111 -> 121 ;
122 [label="housing_convenient <= 0.5\nentropy = 0.676\nsamples = 236\nvalue = [0, 42, 0, 194, 0]\nclass = spec_prior", fillcolor="#6664eb"] ;
110 -> 122 ;
123 [label="children_1 <= 0.5\nentropy = 0.455\nsamples = 157\nvalue = [0.0, 15.0, 0.0, 142.0, 0.0]\nclass = spec_prior", fillcolor="#514ee8"] ;
122 -> 123 ;
124 [label="children_2 <= 0.5\nentropy = 0.258\nsamples = 115\nvalue = [0, 5, 0, 110, 0]\nclass = spec_prior", fillcolor="#4542e6"] ;
123 -> 124 ;
125 [label="entropy = 0.0\nsamples = 80\nvalue = [0, 0, 0, 80, 0]\nclass = spec_prior", fillcolor="#3c39e5"] ;
124 -> 125 ;
126 [label="housing_critical <= 0.5\nentropy = 0.592\nsamples = 35\nvalue = [0, 5, 0, 30, 0]\nclass = spec_prior", fillcolor="#5d5ae9"] ;
124 -> 126 ;
127 [label="entropy = 0.961\nsamples = 13\nvalue = [0, 5, 0, 8, 0]\nclass = spec_prior", fillcolor="#b6b5f5"] ;
126 -> 127 ;
128 [label="entropy = 0.0\nsamples = 22\nvalue = [0, 0, 0, 22, 0]\nclass = spec_prior", fillcolor="#3c39e5"] ;
126 -> 128 ;
129 [label="form_complete <= 0.5\nentropy = 0.792\nsamples = 42\nvalue = [0, 10, 0, 32, 0]\nclass = spec_prior", fillcolor="#7977ed"] ;
123 -> 129 ;
130 [label="housing_less_conv <= 0.5\nentropy = 0.449\nsamples = 32\nvalue = [0, 3, 0, 29, 0]\nclass = spec_prior", fillcolor="#504de8"] ;
129 -> 130 ;
131 [label="entropy = 0.0\nsamples = 18\nvalue = [0, 0, 0, 18, 0]\nclass = spec_prior", fillcolor="#3c39e5"] ;
130 -> 131 ;
132 [label="entropy = 0.75\nsamples = 14\nvalue = [0, 3, 0, 11, 0]\nclass = spec_prior", fillcolor="#716fec"] ;
130 -> 132 ;
133 [label="has_nurs_critical <= 0.5\nentropy = 0.881\nsamples = 10\nvalue = [0, 7, 0, 3, 0]\nclass = priority", fillcolor="#b4f08e"] ;
129 -> 133 ;
134 [label="entropy = 0.544\nsamples = 8\nvalue = [0, 7, 0, 1, 0]\nclass = priority", fillcolor="#8ee955"] ;
133 -> 134 ;
135 [label="entropy = 0.0\nsamples = 2\nvalue = [0, 0, 0, 2, 0]\nclass = spec_prior", fillcolor="#3c39e5"] ;
133 -> 135 ;
136 [label="has_nurs_less_proper <= 0.5\nentropy = 0.927\nsamples = 79\nvalue = [0, 27, 0, 52, 0]\nclass = spec_prior", fillcolor="#a1a0f2"] ;
122 -> 136 ;
137 [label="has_nurs_proper <= 0.5\nentropy = 0.761\nsamples = 59\nvalue = [0, 13, 0, 46, 0]\nclass = spec_prior", fillcolor="#7371ec"] ;
136 -> 137 ;
138 [label="form_complete <= 0.5\nentropy = 0.281\nsamples = 41\nvalue = [0, 2, 0, 39, 0]\nclass = spec_prior", fillcolor="#4643e6"] ;
137 -> 138 ;
139 [label="entropy = 0.0\nsamples = 30\nvalue = [0, 0, 0, 30, 0]\nclass = spec_prior", fillcolor="#3c39e5"] ;
138 -> 139 ;
140 [label="entropy = 0.684\nsamples = 11\nvalue = [0, 2, 0, 9, 0]\nclass = spec_prior", fillcolor="#6765eb"] ;
138 -> 140 ;
141 [label="finance_convenient <= 0.5\nentropy = 0.964\nsamples = 18\nvalue = [0, 11, 0, 7, 0]\nclass = priority", fillcolor="#cff6b7"] ;
137 -> 141 ;
142 [label="entropy = 0.881\nsamples = 10\nvalue = [0, 3, 0, 7, 0]\nclass = spec_prior", fillcolor="#908ef0"] ;
141 -> 142 ;
143 [label="entropy = 0.0\nsamples = 8\nvalue = [0, 8, 0, 0, 0]\nclass = priority", fillcolor="#7be539"] ;
141 -> 143 ;
144 [label="finance_inconv <= 0.5\nentropy = 0.881\nsamples = 20\nvalue = [0, 14, 0, 6, 0]\nclass = priority", fillcolor="#b4f08e"] ;
136 -> 144 ;
145 [label="entropy = 0.0\nsamples = 10\nvalue = [0, 10, 0, 0, 0]\nclass = priority", fillcolor="#7be539"] ;
144 -> 145 ;
146 [label="children_1 <= 0.5\nentropy = 0.971\nsamples = 10\nvalue = [0, 4, 0, 6, 0]\nclass = spec_prior", fillcolor="#bebdf6"] ;
144 -> 146 ;
147 [label="entropy = 0.811\nsamples = 8\nvalue = [0, 2, 0, 6, 0]\nclass = spec_prior", fillcolor="#7d7bee"] ;
146 -> 147 ;
148 [label="entropy = 0.0\nsamples = 2\nvalue = [0, 2, 0, 0, 0]\nclass = priority", fillcolor="#7be539"] ;
146 -> 148 ;
149 [label="health_priority <= 0.5\nentropy = 0.561\nsamples = 1021\nvalue = [0, 134, 0, 887, 0]\nclass = spec_prior", fillcolor="#5957e9"] ;
1 -> 149 ;
150 [label="social_problematic <= 0.5\nentropy = 0.814\nsamples = 504\nvalue = [0, 127, 0, 377, 0]\nclass = spec_prior", fillcolor="#7e7cee"] ;
149 -> 150 ;
151 [label="housing_convenient <= 0.5\nentropy = 0.957\nsamples = 330\nvalue = [0, 125, 0, 205, 0]\nclass = spec_prior", fillcolor="#b3b2f5"] ;
150 -> 151 ;
152 [label="children_1 <= 0.5\nentropy = 0.731\nsamples = 215\nvalue = [0, 44, 0, 171, 0]\nclass = spec_prior", fillcolor="#6e6cec"] ;
151 -> 152 ;
153 [label="children_2 <= 0.5\nentropy = 0.463\nsamples = 163\nvalue = [0, 16, 0, 147, 0]\nclass = spec_prior", fillcolor="#514fe8"] ;
152 -> 153 ;
154 [label="entropy = 0.0\nsamples = 103\nvalue = [0, 0, 0, 103, 0]\nclass = spec_prior", fillcolor="#3c39e5"] ;
153 -> 154 ;
155 [label="housing_less_conv <= 0.5\nentropy = 0.837\nsamples = 60\nvalue = [0, 16, 0, 44, 0]\nclass = spec_prior", fillcolor="#8381ee"] ;
153 -> 155 ;
156 [label="entropy = 0.0\nsamples = 27\nvalue = [0, 0, 0, 27, 0]\nclass = spec_prior", fillcolor="#3c39e5"] ;
155 -> 156 ;
157 [label="form_completed <= 0.5\nentropy = 0.999\nsamples = 33\nvalue = [0, 16, 0, 17, 0]\nclass = spec_prior", fillcolor="#f4f3fd"] ;
155 -> 157 ;
158 [label="entropy = 0.828\nsamples = 23\nvalue = [0, 6, 0, 17, 0]\nclass = spec_prior", fillcolor="#817fee"] ;
157 -> 158 ;
159 [label="entropy = 0.0\nsamples = 10\nvalue = [0, 10, 0, 0, 0]\nclass = priority", fillcolor="#7be539"] ;
157 -> 159 ;
160 [label="form_foster <= 0.5\nentropy = 0.996\nsamples = 52\nvalue = [0, 28, 0, 24, 0]\nclass = priority", fillcolor="#ecfbe3"] ;
152 -> 160 ;
161 [label="housing_critical <= 0.5\nentropy = 0.901\nsamples = 41\nvalue = [0.0, 28.0, 0.0, 13.0, 0.0]\nclass = priority", fillcolor="#b8f195"] ;
160 -> 161 ;
162 [label="entropy = 0.0\nsamples = 20\nvalue = [0, 20, 0, 0, 0]\nclass = priority", fillcolor="#7be539"] ;
161 -> 162 ;
163 [label="form_complete <= 0.5\nentropy = 0.959\nsamples = 21\nvalue = [0, 8, 0, 13, 0]\nclass = spec_prior", fillcolor="#b4b3f5"] ;
161 -> 163 ;
164 [label="entropy = 0.0\nsamples = 13\nvalue = [0, 0, 0, 13, 0]\nclass = spec_prior", fillcolor="#3c39e5"] ;
163 -> 164 ;
165 [label="entropy = 0.0\nsamples = 8\nvalue = [0, 8, 0, 0, 0]\nclass = priority", fillcolor="#7be539"] ;
163 -> 165 ;
166 [label="entropy = 0.0\nsamples = 11\nvalue = [0, 0, 0, 11, 0]\nclass = spec_prior", fillcolor="#3c39e5"] ;
160 -> 166 ;
167 [label="finance_convenient <= 0.5\nentropy = 0.876\nsamples = 115\nvalue = [0, 81, 0, 34, 0]\nclass = priority", fillcolor="#b2f08c"] ;
151 -> 167 ;
168 [label="children_1 <= 0.5\nentropy = 0.918\nsamples = 51\nvalue = [0, 17, 0, 34, 0]\nclass = spec_prior", fillcolor="#9e9cf2"] ;
167 -> 168 ;
169 [label="children_2 <= 0.5\nentropy = 0.639\nsamples = 37\nvalue = [0, 6, 0, 31, 0]\nclass = spec_prior", fillcolor="#625fea"] ;
168 -> 169 ;
170 [label="entropy = 0.0\nsamples = 24\nvalue = [0, 0, 0, 24, 0]\nclass = spec_prior", fillcolor="#3c39e5"] ;
169 -> 170 ;
171 [label="form_completed <= 0.5\nentropy = 0.996\nsamples = 13\nvalue = [0, 6, 0, 7, 0]\nclass = spec_prior", fillcolor="#e3e3fb"] ;
169 -> 171 ;
172 [label="entropy = 0.764\nsamples = 9\nvalue = [0, 2, 0, 7, 0]\nclass = spec_prior", fillcolor="#7472ec"] ;
171 -> 172 ;
173 [label="entropy = 0.0\nsamples = 4\nvalue = [0, 4, 0, 0, 0]\nclass = priority", fillcolor="#7be539"] ;
171 -> 173 ;
174 [label="form_foster <= 0.5\nentropy = 0.75\nsamples = 14\nvalue = [0, 11, 0, 3, 0]\nclass = priority", fillcolor="#9fec6f"] ;
168 -> 174 ;
175 [label="entropy = 0.0\nsamples = 11\nvalue = [0, 11, 0, 0, 0]\nclass = priority", fillcolor="#7be539"] ;
174 -> 175 ;
176 [label="entropy = 0.0\nsamples = 3\nvalue = [0, 0, 0, 3, 0]\nclass = spec_prior", fillcolor="#3c39e5"] ;
174 -> 176 ;
177 [label="entropy = 0.0\nsamples = 64\nvalue = [0, 64, 0, 0, 0]\nclass = priority", fillcolor="#7be539"] ;
167 -> 177 ;
178 [label="form_complete <= 0.5\nentropy = 0.091\nsamples = 174\nvalue = [0, 2, 0, 172, 0]\nclass = spec_prior", fillcolor="#3e3be5"] ;
150 -> 178 ;
179 [label="entropy = 0.0\nsamples = 128\nvalue = [0, 0, 0, 128, 0]\nclass = spec_prior", fillcolor="#3c39e5"] ;
178 -> 179 ;
180 [label="children_1 <= 0.5\nentropy = 0.258\nsamples = 46\nvalue = [0, 2, 0, 44, 0]\nclass = spec_prior", fillcolor="#4542e6"] ;
178 -> 180 ;
181 [label="entropy = 0.0\nsamples = 35\nvalue = [0, 0, 0, 35, 0]\nclass = spec_prior", fillcolor="#3c39e5"] ;
180 -> 181 ;
182 [label="housing_convenient <= 0.5\nentropy = 0.684\nsamples = 11\nvalue = [0, 2, 0, 9, 0]\nclass = spec_prior", fillcolor="#6765eb"] ;
180 -> 182 ;
183 [label="entropy = 0.0\nsamples = 7\nvalue = [0, 0, 0, 7, 0]\nclass = spec_prior", fillcolor="#3c39e5"] ;
182 -> 183 ;
184 [label="finance_inconv <= 0.5\nentropy = 1.0\nsamples = 4\nvalue = [0, 2, 0, 2, 0]\nclass = priority", fillcolor="#ffffff"] ;
182 -> 184 ;
185 [label="entropy = 0.0\nsamples = 2\nvalue = [0, 2, 0, 0, 0]\nclass = priority", fillcolor="#7be539"] ;
184 -> 185 ;
186 [label="entropy = 0.0\nsamples = 2\nvalue = [0, 0, 0, 2, 0]\nclass = spec_prior", fillcolor="#3c39e5"] ;
184 -> 186 ;
187 [label="children_1 <= 0.5\nentropy = 0.103\nsamples = 517\nvalue = [0, 7, 0, 510, 0]\nclass = spec_prior", fillcolor="#3f3ce5"] ;
149 -> 187 ;
188 [label="entropy = 0.0\nsamples = 391\nvalue = [0, 0, 0, 391, 0]\nclass = spec_prior", fillcolor="#3c39e5"] ;
187 -> 188 ;
189 [label="form_complete <= 0.5\nentropy = 0.31\nsamples = 126\nvalue = [0, 7, 0, 119, 0]\nclass = spec_prior", fillcolor="#4745e7"] ;
187 -> 189 ;
190 [label="entropy = 0.0\nsamples = 96\nvalue = [0, 0, 0, 96, 0]\nclass = spec_prior", fillcolor="#3c39e5"] ;
189 -> 190 ;
191 [label="housing_convenient <= 0.5\nentropy = 0.784\nsamples = 30\nvalue = [0, 7, 0, 23, 0]\nclass = spec_prior", fillcolor="#7775ed"] ;
189 -> 191 ;
192 [label="entropy = 0.0\nsamples = 19\nvalue = [0, 0, 0, 19, 0]\nclass = spec_prior", fillcolor="#3c39e5"] ;
191 -> 192 ;
193 [label="finance_convenient <= 0.5\nentropy = 0.946\nsamples = 11\nvalue = [0, 7, 0, 4, 0]\nclass = priority", fillcolor="#c6f4aa"] ;
191 -> 193 ;
194 [label="entropy = 0.0\nsamples = 4\nvalue = [0, 0, 0, 4, 0]\nclass = spec_prior", fillcolor="#3c39e5"] ;
193 -> 194 ;
195 [label="entropy = 0.0\nsamples = 7\nvalue = [0, 7, 0, 0, 0]\nclass = priority", fillcolor="#7be539"] ;
193 -> 195 ;
196 [label="entropy = 0.0\nsamples = 2601\nvalue = [2601, 0, 0, 0, 0]\nclass = not_recom", fillcolor="#e58139"] ;
0 -> 196 [labeldistance=2.5, labelangle=-45, headlabel="False"] ;
}
