digraph Tree {
node [shape=box, style="filled, rounded", color="black", fontname="helvetica"] ;
edge [fontname="helvetica"] ;
0 [label="health_not_recom <= 0.5\nentropy = 1.717\nsamples = 11664\nvalue = [3860.0, 3840.0, 2.0, 3668.0, 294.0]\nclass = not_recom", fillcolor="#fffffe"] ;
1 [label="has_nurs_very_crit <= 0.5\nentropy = 1.197\nsamples = 7804\nvalue = [0, 3840, 2, 3668, 294]\nclass = priority", fillcolor="#fafef7"] ;
0 -> 1 [labeldistance=2.5, labelangle=45, headlabel="True"] ;
2 [label="parents_great_pret <= 0.5\nentropy = 1.195\nsamples = 6237\nvalue = [0, 3649, 2, 2292, 294]\nclass = priority", fillcolor="#d2f6bb"] ;
1 -> 2 ;
3 [label="has_nurs_critical <= 0.5\nentropy = 1.109\nsamples = 4149\nvalue = [0, 2939, 2, 914, 294]\nclass = priority", fillcolor="#acef83"] ;
2 -> 3 ;
4 [label="has_nurs_improper <= 0.5\nentropy = 0.832\nsamples = 3110\nvalue = [0, 2581, 2, 233, 294]\nclass = priority", fillcolor="#94ea5e"] ;
3 -> 4 ;
5 [label="health_priority <= 0.5\nentropy = 0.522\nsamples = 2067\nvalue = [0, 1830, 2, 0, 235]\nclass = priority", fillcolor="#8ce853"] ;
4 -> 5 ;
6 [label="social_problematic <= 0.5\nentropy = 0.796\nsamples = 1027\nvalue = [0, 790, 2, 0, 235]\nclass = priority", fillcolor="#a2ed74"] ;
5 -> 6 ;
7 [label="housing_convenient <= 0.5\nentropy = 0.957\nsamples = 681\nvalue = [0, 444, 2, 0, 235]\nclass = priority", fillcolor="#c1f3a2"] ;
6 -> 7 ;
8 [label="children_1 <= 0.5\nentropy = 0.701\nsamples = 453\nvalue = [0, 367, 0, 0, 86]\nclass = priority", fillcolor="#9aeb67"] ;
7 -> 8 ;
9 [label="entropy = 0.412\nsamples = 338\nvalue = [0.0, 310.0, 0.0, 0.0, 28.0]\nclass = priority", fillcolor="#87e74b"] ;
8 -> 9 ;
10 [label="entropy = 1.0\nsamples = 115\nvalue = [0, 57, 0, 0, 58]\nclass = very_recom", fillcolor="#fffcfe"] ;
8 -> 10 ;
11 [label="finance_inconv <= 0.5\nentropy = 0.99\nsamples = 228\nvalue = [0, 77, 2, 0, 149]\nclass = very_recom", fillcolor="#f3a1e1"] ;
7 -> 11 ;
12 [label="entropy = 0.127\nsamples = 114\nvalue = [0, 0, 2, 0, 112]\nclass = very_recom", fillcolor="#e53dc1"] ;
11 -> 12 ;
13 [label="entropy = 0.909\nsamples = 114\nvalue = [0, 77, 0, 0, 37]\nclass = priority", fillcolor="#baf198"] ;
11 -> 13 ;
14 [label="entropy = 0.0\nsamples = 346\nvalue = [0, 346, 0, 0, 0]\nclass = priority", fillcolor="#7be539"] ;
6 -> 14 ;
15 [label="entropy = 0.0\nsamples = 1040\nvalue = [0, 1040, 0, 0, 0]\nclass = priority", fillcolor="#7be539"] ;
5 -> 15 ;
16 [label="parents_pretentious <= 0.5\nentropy = 1.059\nsamples = 1043\nvalue = [0, 751, 0, 233, 59]\nclass = priority", fillcolor="#abee80"] ;
4 -> 16 ;
17 [label="health_priority <= 0.5\nentropy = 0.507\nsamples = 525\nvalue = [0, 466, 0, 0, 59]\nclass = priority", fillcolor="#8ce852"] ;
16 -> 17 ;
18 [label="social_problematic <= 0.5\nentropy = 0.763\nsamples = 266\nvalue = [0, 207, 0, 0, 59]\nclass = priority", fillcolor="#a1ec71"] ;
17 -> 18 ;
19 [label="housing_convenient <= 0.5\nentropy = 0.913\nsamples = 180\nvalue = [0.0, 121.0, 0.0, 0.0, 59.0]\nclass = priority", fillcolor="#bbf29a"] ;
18 -> 19 ;
20 [label="entropy = 0.695\nsamples = 123\nvalue = [0, 100, 0, 0, 23]\nclass = priority", fillcolor="#99eb67"] ;
19 -> 20 ;
21 [label="entropy = 0.949\nsamples = 57\nvalue = [0, 21, 0, 0, 36]\nclass = very_recom", fillcolor="#f4ace5"] ;
19 -> 21 ;
22 [label="entropy = 0.0\nsamples = 86\nvalue = [0, 86, 0, 0, 0]\nclass = priority", fillcolor="#7be539"] ;
18 -> 22 ;
23 [label="entropy = 0.0\nsamples = 259\nvalue = [0, 259, 0, 0, 0]\nclass = priority", fillcolor="#7be539"] ;
17 -> 23 ;
24 [label="health_priority <= 0.5\nentropy = 0.993\nsamples = 518\nvalue = [0, 285, 0, 233, 0]\nclass = priority", fillcolor="#e7fadb"] ;
16 -> 24 ;
25 [label="social_problematic <= 0.5\nentropy = 0.794\nsamples = 259\nvalue = [0, 197, 0, 62, 0]\nclass = priority", fillcolor="#a5ed77"] ;
24 -> 25 ;
26 [label="entropy = 0.0\nsamples = 167\nvalue = [0, 167, 0, 0, 0]\nclass = priority", fillcolor="#7be539"] ;
25 -> 26 ;
27 [label="housing_critical <= 0.5\nentropy = 0.911\nsamples = 92\nvalue = [0, 30, 0, 62, 0]\nclass = spec_prior", fillcolor="#9a99f2"] ;
25 -> 27 ;
28 [label="entropy = 0.997\nsamples = 60\nvalue = [0, 28, 0, 32, 0]\nclass = spec_prior", fillcolor="#e7e6fc"] ;
27 -> 28 ;
29 [label="entropy = 0.337\nsamples = 32\nvalue = [0, 2, 0, 30, 0]\nclass = spec_prior", fillcolor="#4946e7"] ;
27 -> 29 ;
30 [label="housing_convenient <= 0.5\nentropy = 0.925\nsamples = 259\nvalue = [0, 88, 0, 171, 0]\nclass = spec_prior", fillcolor="#a09ff2"] ;
24 -> 30 ;
31 [label="children_1 <= 0.5\nentropy = 0.676\nsamples = 174\nvalue = [0, 31, 0, 143, 0]\nclass = spec_prior", fillcolor="#6664eb"] ;
30 -> 31 ;
32 [label="entropy = 0.334\nsamples = 130\nvalue = [0, 8, 0, 122, 0]\nclass = spec_prior", fillcolor="#4946e7"] ;
31 -> 32 ;
33 [label="entropy = 0.999\nsamples = 44\nvalue = [0, 23, 0, 21, 0]\nclass = priority", fillcolor="#f4fdee"] ;
31 -> 33 ;
34 [label="finance_convenient <= 0.5\nentropy = 0.914\nsamples = 85\nvalue = [0.0, 57.0, 0.0, 28.0, 0.0]\nclass = priority", fillcolor="#bcf29a"] ;
30 -> 34 ;
35 [label="entropy = 0.901\nsamples = 41\nvalue = [0.0, 13.0, 0.0, 28.0, 0.0]\nclass = spec_prior", fillcolor="#9795f1"] ;
34 -> 35 ;
36 [label="entropy = 0.0\nsamples = 44\nvalue = [0, 44, 0, 0, 0]\nclass = priority", fillcolor="#7be539"] ;
34 -> 36 ;
37 [label="parents_usual <= 0.5\nentropy = 0.929\nsamples = 1039\nvalue = [0, 358, 0, 681, 0]\nclass = spec_prior", fillcolor="#a3a1f3"] ;
3 -> 37 ;
38 [label="health_recommended <= 0.5\nentropy = 0.555\nsamples = 519\nvalue = [0, 67, 0, 452, 0]\nclass = spec_prior", fillcolor="#5956e9"] ;
37 -> 38 ;
39 [label="children_1 <= 0.5\nentropy = 0.093\nsamples = 253\nvalue = [0, 3, 0, 250, 0]\nclass = spec_prior", fillcolor="#3e3be5"] ;
38 -> 39 ;
40 [label="entropy = 0.0\nsamples = 188\nvalue = [0, 0, 0, 188, 0]\nclass = spec_prior", fillcolor="#3c39e5"] ;
39 -> 40 ;
41 [label="form_complete <= 0.5\nentropy = 0.27\nsamples = 65\nvalue = [0, 3, 0, 62, 0]\nclass = spec_prior", fillcolor="#4543e6"] ;
39 -> 41 ;
42 [label="entropy = 0.0\nsamples = 48\nvalue = [0, 0, 0, 48, 0]\nclass = spec_prior", fillcolor="#3c39e5"] ;
41 -> 42 ;
43 [label="housing_convenient <= 0.5\nentropy = 0.672\nsamples = 17\nvalue = [0, 3, 0, 14, 0]\nclass = spec_prior", fillcolor="#6663eb"] ;
41 -> 43 ;
44 [label="entropy = 0.0\nsamples = 11\nvalue = [0, 0, 0, 11, 0]\nclass = spec_prior", fillcolor="#3c39e5"] ;
43 -> 44 ;
45 [label="entropy = 1.0\nsamples = 6\nvalue = [0, 3, 0, 3, 0]\nclass = priority", fillcolor="#ffffff"] ;
43 -> 45 ;
46 [label="social_problematic <= 0.5\nentropy = 0.796\nsamples = 266\nvalue = [0, 64, 0, 202, 0]\nclass = spec_prior", fillcolor="#7a78ed"] ;
38 -> 46 ;
47 [label="housing_critical <= 0.5\nentropy = 0.938\nsamples = 178\nvalue = [0.0, 63.0, 0.0, 115.0, 0.0]\nclass = spec_prior", fillcolor="#a7a5f3"] ;
46 -> 47 ;
48 [label="children_1 <= 0.5\nentropy = 1.0\nsamples = 116\nvalue = [0.0, 59.0, 0.0, 57.0, 0.0]\nclass = priority", fillcolor="#fbfef8"] ;
47 -> 48 ;
49 [label="entropy = 0.962\nsamples = 88\nvalue = [0, 34, 0, 54, 0]\nclass = spec_prior", fillcolor="#b7b6f5"] ;
48 -> 49 ;
50 [label="entropy = 0.491\nsamples = 28\nvalue = [0, 25, 0, 3, 0]\nclass = priority", fillcolor="#8be851"] ;
48 -> 50 ;
51 [label="form_complete <= 0.5\nentropy = 0.345\nsamples = 62\nvalue = [0, 4, 0, 58, 0]\nclass = spec_prior", fillcolor="#4947e7"] ;
47 -> 51 ;
52 [label="entropy = 0.0\nsamples = 46\nvalue = [0, 0, 0, 46, 0]\nclass = spec_prior", fillcolor="#3c39e5"] ;
51 -> 52 ;
53 [label="entropy = 0.811\nsamples = 16\nvalue = [0, 4, 0, 12, 0]\nclass = spec_prior", fillcolor="#7d7bee"] ;
51 -> 53 ;
54 [label="children_1 <= 0.5\nentropy = 0.09\nsamples = 88\nvalue = [0, 1, 0, 87, 0]\nclass = spec_prior", fillcolor="#3e3be5"] ;
46 -> 54 ;
55 [label="entropy = 0.0\nsamples = 67\nvalue = [0, 0, 0, 67, 0]\nclass = spec_prior", fillcolor="#3c39e5"] ;
54 -> 55 ;
56 [label="form_complete <= 0.5\nentropy = 0.276\nsamples = 21\nvalue = [0, 1, 0, 20, 0]\nclass = spec_prior", fillcolor="#4643e6"] ;
54 -> 56 ;
57 [label="entropy = 0.0\nsamples = 16\nvalue = [0, 0, 0, 16, 0]\nclass = spec_prior", fillcolor="#3c39e5"] ;
56 -> 57 ;
58 [label="entropy = 0.722\nsamples = 5\nvalue = [0, 1, 0, 4, 0]\nclass = spec_prior", fillcolor="#6d6aec"] ;
56 -> 58 ;
59 [label="health_priority <= 0.5\nentropy = 0.99\nsamples = 520\nvalue = [0, 291, 0, 229, 0]\nclass = priority", fillcolor="#e3f9d5"] ;
37 -> 59 ;
60 [label="social_problematic <= 0.5\nentropy = 0.749\nsamples = 262\nvalue = [0, 206, 0, 56, 0]\nclass = priority", fillcolor="#9fec6f"] ;
59 -> 60 ;
61 [label="entropy = 0.0\nsamples = 176\nvalue = [0, 176, 0, 0, 0]\nclass = priority", fillcolor="#7be539"] ;
60 -> 61 ;
62 [label="housing_critical <= 0.5\nentropy = 0.933\nsamples = 86\nvalue = [0.0, 30.0, 0.0, 56.0, 0.0]\nclass = spec_prior", fillcolor="#a4a3f3"] ;
60 -> 62 ;
63 [label="children_1 <= 0.5\nentropy = 1.0\nsamples = 59\nvalue = [0, 29, 0, 30, 0]\nclass = spec_prior", fillcolor="#f9f8fe"] ;
62 -> 63 ;
64 [label="entropy = 0.946\nsamples = 44\nvalue = [0, 16, 0, 28, 0]\nclass = spec_prior", fillcolor="#abaaf4"] ;
63 -> 64 ;
65 [label="entropy = 0.567\nsamples = 15\nvalue = [0, 13, 0, 2, 0]\nclass = priority", fillcolor="#8fe957"] ;
63 -> 65 ;
66 [label="children_1 <= 0.5\nentropy = 0.229\nsamples = 27\nvalue = [0, 1, 0, 26, 0]\nclass = spec_prior", fillcolor="#4441e6"] ;
62 -> 66 ;
67 [label="entropy = 0.0\nsamples = 21\nvalue = [0, 0, 0, 21, 0]\nclass = spec_prior", fillcolor="#3c39e5"] ;
66 -> 67 ;
68 [label="entropy = 0.65\nsamples = 6\nvalue = [0, 1, 0, 5, 0]\nclass = spec_prior", fillcolor="#6361ea"] ;
66 -> 68 ;
69 [label="housing_convenient <= 0.5\nentropy = 0.914\nsamples = 258\nvalue = [0, 85, 0, 173, 0]\nclass = spec_prior", fillcolor="#9c9af2"] ;
59 -> 69 ;
70 [label="children_1 <= 0.5\nentropy = 0.686\nsamples = 175\nvalue = [0, 32, 0, 143, 0]\nclass = spec_prior", fillcolor="#6865eb"] ;
69 -> 70 ;
71 [label="children_2 <= 0.5\nentropy = 0.412\nsamples = 133\nvalue = [0, 11, 0, 122, 0]\nclass = spec_prior", fillcolor="#4e4be7"] ;
70 -> 71 ;
72 [label="entropy = 0.0\nsamples = 87\nvalue = [0, 0, 0, 87, 0]\nclass = spec_prior", fillcolor="#3c39e5"] ;
71 -> 72 ;
73 [label="entropy = 0.794\nsamples = 46\nvalue = [0, 11, 0, 35, 0]\nclass = spec_prior", fillcolor="#7977ed"] ;
71 -> 73 ;
74 [label="form_foster <= 0.5\nentropy = 1.0\nsamples = 42\nvalue = [0, 21, 0, 21, 0]\nclass = priority", fillcolor="#ffffff"] ;
70 -> 74 ;
75 [label="entropy = 0.928\nsamples = 32\nvalue = [0, 21, 0, 11, 0]\nclass = priority", fillcolor="#c0f3a1"] ;
74 -> 75 ;
76 [label="entropy = 0.0\nsamples = 10\nvalue = [0, 0, 0, 10, 0]\nclass = spec_prior", fillcolor="#3c39e5"] ;
74 -> 76 ;
77 [label="finance_inconv <= 0.5\nentropy = 0.944\nsamples = 83\nvalue = [0.0, 53.0, 0.0, 30.0, 0.0]\nclass = priority", fillcolor="#c6f4a9"] ;
69 -> 77 ;
78 [label="entropy = 0.0\nsamples = 41\nvalue = [0, 41, 0, 0, 0]\nclass = priority", fillcolor="#7be539"] ;
77 -> 78 ;
79 [label="children_3 <= 0.5\nentropy = 0.863\nsamples = 42\nvalue = [0, 12, 0, 30, 0]\nclass = spec_prior", fillcolor="#8a88ef"] ;
77 -> 79 ;
80 [label="entropy = 0.971\nsamples = 30\nvalue = [0, 12, 0, 18, 0]\nclass = spec_prior", fillcolor="#bebdf6"] ;
79 -> 80 ;
81 [label="entropy = 0.0\nsamples = 12\nvalue = [0, 0, 0, 12, 0]\nclass = spec_prior", fillcolor="#3c39e5"] ;
79 -> 81 ;
82 [label="health_recommended <= 0.5\nentropy = 0.925\nsamples = 2088\nvalue = [0, 710, 0, 1378, 0]\nclass = spec_prior", fillcolor="#a09ff2"] ;
2 -> 82 ;
83 [label="housing_critical <= 0.5\nentropy = 0.673\nsamples = 1040\nvalue = [0, 184, 0, 856, 0]\nclass = spec_prior", fillcolor="#6664eb"] ;
82 -> 83 ;
84 [label="has_nurs_improper <= 0.5\nentropy = 0.814\nsamples = 683\nvalue = [0, 172, 0, 511, 0]\nclass = spec_prior", fillcolor="#7e7cee"] ;
83 -> 84 ;
85 [label="has_nurs_critical <= 0.5\nentropy = 0.916\nsamples = 510\nvalue = [0, 169, 0, 341, 0]\nclass = spec_prior", fillcolor="#9d9bf2"] ;
84 -> 85 ;
86 [label="children_1 <= 0.5\nentropy = 0.999\nsamples = 341\nvalue = [0, 166, 0, 175, 0]\nclass = spec_prior", fillcolor="#f5f5fe"] ;
85 -> 86 ;
87 [label="finance_convenient <= 0.5\nentropy = 0.95\nsamples = 252\nvalue = [0, 93, 0, 159, 0]\nclass = spec_prior", fillcolor="#aeadf4"] ;
86 -> 87 ;
88 [label="entropy = 0.656\nsamples = 130\nvalue = [0, 22, 0, 108, 0]\nclass = spec_prior", fillcolor="#6461ea"] ;
87 -> 88 ;
89 [label="entropy = 0.981\nsamples = 122\nvalue = [0, 71, 0, 51, 0]\nclass = priority", fillcolor="#daf8c7"] ;
87 -> 89 ;
90 [label="form_foster <= 0.5\nentropy = 0.68\nsamples = 89\nvalue = [0, 73, 0, 16, 0]\nclass = priority", fillcolor="#98eb64"] ;
86 -> 90 ;
91 [label="entropy = 0.0\nsamples = 68\nvalue = [0, 68, 0, 0, 0]\nclass = priority", fillcolor="#7be539"] ;
90 -> 91 ;
92 [label="entropy = 0.792\nsamples = 21\nvalue = [0, 5, 0, 16, 0]\nclass = spec_prior", fillcolor="#7977ed"] ;
90 -> 92 ;
93 [label="form_complete <= 0.5\nentropy = 0.129\nsamples = 169\nvalue = [0, 3, 0, 166, 0]\nclass = spec_prior", fillcolor="#403de5"] ;
85 -> 93 ;
94 [label="entropy = 0.0\nsamples = 128\nvalue = [0, 0, 0, 128, 0]\nclass = spec_prior", fillcolor="#3c39e5"] ;
93 -> 94 ;
95 [label="children_1 <= 0.5\nentropy = 0.378\nsamples = 41\nvalue = [0, 3, 0, 38, 0]\nclass = spec_prior", fillcolor="#4b49e7"] ;
93 -> 95 ;
96 [label="entropy = 0.0\nsamples = 29\nvalue = [0, 0, 0, 29, 0]\nclass = spec_prior", fillcolor="#3c39e5"] ;
95 -> 96 ;
97 [label="entropy = 0.811\nsamples = 12\nvalue = [0, 3, 0, 9, 0]\nclass = spec_prior", fillcolor="#7d7bee"] ;
95 -> 97 ;
98 [label="form_complete <= 0.5\nentropy = 0.126\nsamples = 173\nvalue = [0.0, 3.0, 0.0, 170.0, 0.0]\nclass = spec_prior", fillcolor="#3f3ce5"] ;
84 -> 98 ;
99 [label="entropy = 0.0\nsamples = 133\nvalue = [0, 0, 0, 133, 0]\nclass = spec_prior", fillcolor="#3c39e5"] ;
98 -> 99 ;
100 [label="children_1 <= 0.5\nentropy = 0.384\nsamples = 40\nvalue = [0, 3, 0, 37, 0]\nclass = spec_prior", fillcolor="#4c49e7"] ;
98 -> 100 ;
101 [label="entropy = 0.0\nsamples = 30\nvalue = [0, 0, 0, 30, 0]\nclass = spec_prior", fillcolor="#3c39e5"] ;
100 -> 101 ;
102 [label="housing_convenient <= 0.5\nentropy = 0.881\nsamples = 10\nvalue = [0, 3, 0, 7, 0]\nclass = spec_prior", fillcolor="#908ef0"] ;
100 -> 102 ;
103 [label="entropy = 0.0\nsamples = 6\nvalue = [0, 0, 0, 6, 0]\nclass = spec_prior", fillcolor="#3c39e5"] ;
102 -> 103 ;
104 [label="entropy = 0.811\nsamples = 4\nvalue = [0, 3, 0, 1, 0]\nclass = priority", fillcolor="#a7ee7b"] ;
102 -> 104 ;
105 [label="children_1 <= 0.5\nentropy = 0.212\nsamples = 357\nvalue = [0, 12, 0, 345, 0]\nclass = spec_prior", fillcolor="#4340e6"] ;
83 -> 105 ;
106 [label="entropy = 0.0\nsamples = 271\nvalue = [0, 0, 0, 271, 0]\nclass = spec_prior", fillcolor="#3c39e5"] ;
105 -> 106 ;
107 [label="form_complete <= 0.5\nentropy = 0.583\nsamples = 86\nvalue = [0, 12, 0, 74, 0]\nclass = spec_prior", fillcolor="#5c59e9"] ;
105 -> 107 ;
108 [label="entropy = 0.0\nsamples = 64\nvalue = [0, 0, 0, 64, 0]\nclass = spec_prior", fillcolor="#3c39e5"] ;
107 -> 108 ;
109 [label="has_nurs_improper <= 0.5\nentropy = 0.994\nsamples = 22\nvalue = [0, 12, 0, 10, 0]\nclass = priority", fillcolor="#e9fbde"] ;
107 -> 109 ;
110 [label="has_nurs_critical <= 0.5\nentropy = 0.811\nsamples = 16\nvalue = [0, 12, 0, 4, 0]\nclass = priority", fillcolor="#a7ee7b"] ;
109 -> 110 ;
111 [label="entropy = 0.0\nsamples = 12\nvalue = [0, 12, 0, 0, 0]\nclass = priority", fillcolor="#7be539"] ;
110 -> 111 ;
112 [label="entropy = 0.0\nsamples = 4\nvalue = [0, 0, 0, 4, 0]\nclass = spec_prior", fillcolor="#3c39e5"] ;
110 -> 112 ;
113 [label="entropy = 0.0\nsamples = 6\nvalue = [0, 0, 0, 6, 0]\nclass = spec_prior", fillcolor="#3c39e5"] ;
109 -> 113 ;
114 [label="social_problematic <= 0.5\nentropy = 1.0\nsamples = 1048\nvalue = [0, 526, 0, 522, 0]\nclass = priority", fillcolor="#fefffd"] ;
82 -> 114 ;
115 [label="has_nurs_proper <= 0.5\nentropy = 0.916\nsamples = 691\nvalue = [0.0, 462.0, 0.0, 229.0, 0.0]\nclass = priority", fillcolor="#bcf29b"] ;
114 -> 115 ;
116 [label="has_nurs_less_proper <= 0.5\nentropy = 0.991\nsamples = 514\nvalue = [0, 285, 0, 229, 0]\nclass = priority", fillcolor="#e5fad8"] ;
115 -> 116 ;
117 [label="housing_critical <= 0.5\nentropy = 0.911\nsamples = 340\nvalue = [0.0, 111.0, 0.0, 229.0, 0.0]\nclass = spec_prior", fillcolor="#9b99f2"] ;
116 -> 117 ;
118 [label="children_1 <= 0.5\nentropy = 0.997\nsamples = 226\nvalue = [0.0, 106.0, 0.0, 120.0, 0.0]\nclass = spec_prior", fillcolor="#e8e8fc"] ;
117 -> 118 ;
119 [label="entropy = 0.938\nsamples = 169\nvalue = [0, 60, 0, 109, 0]\nclass = spec_prior", fillcolor="#a7a6f3"] ;
118 -> 119 ;
120 [label="entropy = 0.708\nsamples = 57\nvalue = [0, 46, 0, 11, 0]\nclass = priority", fillcolor="#9beb68"] ;
118 -> 120 ;
121 [label="children_1 <= 0.5\nentropy = 0.26\nsamples = 114\nvalue = [0, 5, 0, 109, 0]\nclass = spec_prior", fillcolor="#4542e6"] ;
117 -> 121 ;
122 [label="entropy = 0.0\nsamples = 88\nvalue = [0, 0, 0, 88, 0]\nclass = spec_prior", fillcolor="#3c39e5"] ;
121 -> 122 ;
123 [label="entropy = 0.706\nsamples = 26\nvalue = [0, 5, 0, 21, 0]\nclass = spec_prior", fillcolor="#6a68eb"] ;
121 -> 123 ;
124 [label="entropy = 0.0\nsamples = 174\nvalue = [0, 174, 0, 0, 0]\nclass = priority", fillcolor="#7be539"] ;
116 -> 124 ;
125 [label="entropy = 0.0\nsamples = 177\nvalue = [0, 177, 0, 0, 0]\nclass = priority", fillcolor="#7be539"] ;
115 -> 125 ;
126 [label="housing_convenient <= 0.5\nentropy = 0.678\nsamples = 357\nvalue = [0, 64, 0, 293, 0]\nclass = spec_prior", fillcolor="#6764eb"] ;
114 -> 126 ;
127 [label="children_1 <= 0.5\nentropy = 0.426\nsamples = 242\nvalue = [0, 21, 0, 221, 0]\nclass = spec_prior", fillcolor="#4f4ce7"] ;
126 -> 127 ;
128 [label="children_2 <= 0.5\nentropy = 0.232\nsamples = 185\nvalue = [0, 7, 0, 178, 0]\nclass = spec_prior", fillcolor="#4441e6"] ;
127 -> 128 ;
129 [label="entropy = 0.0\nsamples = 123\nvalue = [0, 0, 0, 123, 0]\nclass = spec_prior", fillcolor="#3c39e5"] ;
128 -> 129 ;
130 [label="housing_less_conv <= 0.5\nentropy = 0.509\nsamples = 62\nvalue = [0, 7, 0, 55, 0]\nclass = spec_prior", fillcolor="#5552e8"] ;
128 -> 130 ;
131 [label="entropy = 0.0\nsamples = 31\nvalue = [0, 0, 0, 31, 0]\nclass = spec_prior", fillcolor="#3c39e5"] ;
130 -> 131 ;
132 [label="entropy = 0.771\nsamples = 31\nvalue = [0, 7, 0, 24, 0]\nclass = spec_prior", fillcolor="#7573ed"] ;
130 -> 132 ;
133 [label="has_nurs_improper <= 0.5\nentropy = 0.804\nsamples = 57\nvalue = [0, 14, 0, 43, 0]\nclass = spec_prior", fillcolor="#7b79ed"] ;
127 -> 133 ;
134 [label="has_nurs_critical <= 0.5\nentropy = 0.926\nsamples = 41\nvalue = [0.0, 14.0, 0.0, 27.0, 0.0]\nclass = spec_prior", fillcolor="#a1a0f2"] ;
133 -> 134 ;
135 [label="entropy = 0.996\nsamples = 26\nvalue = [0, 14, 0, 12, 0]\nclass = priority", fillcolor="#ecfbe3"] ;
134 -> 135 ;
136 [label="entropy = 0.0\nsamples = 15\nvalue = [0, 0, 0, 15, 0]\nclass = spec_prior", fillcolor="#3c39e5"] ;
134 -> 136 ;
137 [label="entropy = 0.0\nsamples = 16\nvalue = [0, 0, 0, 16, 0]\nclass = spec_prior", fillcolor="#3c39e5"] ;
133 -> 137 ;
138 [label="has_nurs_critical <= 0.5\nentropy = 0.954\nsamples = 115\nvalue = [0, 43, 0, 72, 0]\nclass = spec_prior", fillcolor="#b0aff5"] ;
126 -> 138 ;
139 [label="has_nurs_improper <= 0.5\nentropy = 0.999\nsamples = 87\nvalue = [0, 42, 0, 45, 0]\nclass = spec_prior", fillcolor="#f2f2fd"] ;
138 -> 139 ;
140 [label="finance_inconv <= 0.5\nentropy = 0.913\nsamples = 61\nvalue = [0, 41, 0, 20, 0]\nclass = priority", fillcolor="#bbf29a"] ;
139 -> 140 ;
141 [label="entropy = 0.0\nsamples = 31\nvalue = [0, 31, 0, 0, 0]\nclass = priority", fillcolor="#7be539"] ;
140 -> 141 ;
142 [label="entropy = 0.918\nsamples = 30\nvalue = [0, 10, 0, 20, 0]\nclass = spec_prior", fillcolor="#9e9cf2"] ;
140 -> 142 ;
143 [label="form_complete <= 0.5\nentropy = 0.235\nsamples = 26\nvalue = [0, 1, 0, 25, 0]\nclass = spec_prior", fillcolor="#4441e6"] ;
139 -> 143 ;
144 [label="entropy = 0.0\nsamples = 20\nvalue = [0, 0, 0, 20, 0]\nclass = spec_prior", fillcolor="#3c39e5"] ;
143 -> 144 ;
145 [label="entropy = 0.65\nsamples = 6\nvalue = [0, 1, 0, 5, 0]\nclass = spec_prior", fillcolor="#6361ea"] ;
143 -> 145 ;
146 [label="form_complete <= 0.5\nentropy = 0.222\nsamples = 28\nvalue = [0, 1, 0, 27, 0]\nclass = spec_prior", fillcolor="#4340e6"] ;
138 -> 146 ;
147 [label="entropy = 0.0\nsamples = 20\nvalue = [0, 0, 0, 20, 0]\nclass = spec_prior", fillcolor="#3c39e5"] ;
146 -> 147 ;
148 [label="children_1 <= 0.5\nentropy = 0.544\nsamples = 8\nvalue = [0, 1, 0, 7, 0]\nclass = spec_prior", fillcolor="#5855e9"] ;
146 -> 148 ;
149 [label="entropy = 0.0\nsamples = 6\nvalue = [0, 0, 0, 6, 0]\nclass = spec_prior", fillcolor="#3c39e5"] ;
148 -> 149 ;
150 [label="entropy = 1.0\nsamples = 2\nvalue = [0, 1, 0, 1, 0]\nclass = priority", fillcolor="#ffffff"] ;
148 -> 150 ;
151 [label="health_recommended <= 0.5\nentropy = 0.535\nsamples = 1567\nvalue = [0, 191, 0, 1376, 0]\nclass = spec_prior", fillcolor="#5754e9"] ;
1 -> 151 ;
152 [label="children_1 <= 0.5\nentropy = 0.09\nsamples = 785\nvalue = [0, 9, 0, 776, 0]\nclass = spec_prior", fillcolor="#3e3be5"] ;
151 -> 152 ;
153 [label="entropy = 0.0\nsamples = 587\nvalue = [0, 0, 0, 587, 0]\nclass = spec_prior", fillcolor="#3c39e5"] ;
152 -> 153 ;
154 [label="form_complete <= 0.5\nentropy = 0.267\nsamples = 198\nvalue = [0, 9, 0, 189, 0]\nclass = spec_prior", fillcolor="#4542e6"] ;
152 -> 154 ;
155 [label="entropy = 0.0\nsamples = 147\nvalue = [0, 0, 0, 147, 0]\nclass = spec_prior", fillcolor="#3c39e5"] ;
154 -> 155 ;
156 [label="housing_convenient <= 0.5\nentropy = 0.672\nsamples = 51\nvalue = [0, 9, 0, 42, 0]\nclass = spec_prior", fillcolor="#6663eb"] ;
154 -> 156 ;
157 [label="entropy = 0.0\nsamples = 34\nvalue = [0, 0, 0, 34, 0]\nclass = spec_prior", fillcolor="#3c39e5"] ;
156 -> 157 ;
158 [label="finance_inconv <= 0.5\nentropy = 0.998\nsamples = 17\nvalue = [0, 9, 0, 8, 0]\nclass = priority", fillcolor="#f0fce9"] ;
156 -> 158 ;
159 [label="entropy = 0.0\nsamples = 9\nvalue = [0, 9, 0, 0, 0]\nclass = priority", fillcolor="#7be539"] ;
158 -> 159 ;
160 [label="entropy = 0.0\nsamples = 8\nvalue = [0, 0, 0, 8, 0]\nclass = spec_prior", fillcolor="#3c39e5"] ;
158 -> 160 ;
161 [label="social_problematic <= 0.5\nentropy = 0.783\nsamples = 782\nvalue = [0, 182, 0, 600, 0]\nclass = spec_prior", fillcolor="#7775ed"] ;
151 -> 161 ;
162 [label="housing_critical <= 0.5\nentropy = 0.928\nsamples = 522\nvalue = [0, 179, 0, 343, 0]\nclass = spec_prior", fillcolor="#a2a0f3"] ;
161 -> 162 ;
163 [label="children_1 <= 0.5\nentropy = 0.999\nsamples = 348\nvalue = [0.0, 167.0, 0.0, 181.0, 0.0]\nclass = spec_prior", fillcolor="#f0f0fd"] ;
162 -> 163 ;
164 [label="finance_convenient <= 0.5\nentropy = 0.946\nsamples = 258\nvalue = [0, 94, 0, 164, 0]\nclass = spec_prior", fillcolor="#acaaf4"] ;
163 -> 164 ;
165 [label="children_2 <= 0.5\nentropy = 0.664\nsamples = 133\nvalue = [0, 23, 0, 110, 0]\nclass = spec_prior", fillcolor="#6562ea"] ;
164 -> 165 ;
166 [label="entropy = 0.0\nsamples = 87\nvalue = [0, 0, 0, 87, 0]\nclass = spec_prior", fillcolor="#3c39e5"] ;
165 -> 166 ;
167 [label="form_incomplete <= 0.5\nentropy = 1.0\nsamples = 46\nvalue = [0, 23, 0, 23, 0]\nclass = priority", fillcolor="#ffffff"] ;
165 -> 167 ;
168 [label="entropy = 0.908\nsamples = 34\nvalue = [0, 23, 0, 11, 0]\nclass = priority", fillcolor="#baf198"] ;
167 -> 168 ;
169 [label="entropy = 0.0\nsamples = 12\nvalue = [0, 0, 0, 12, 0]\nclass = spec_prior", fillcolor="#3c39e5"] ;
167 -> 169 ;
170 [label="housing_convenient <= 0.5\nentropy = 0.987\nsamples = 125\nvalue = [0, 71, 0, 54, 0]\nclass = priority", fillcolor="#dff9d0"] ;
164 -> 170 ;
171 [label="children_2 <= 0.5\nentropy = 0.684\nsamples = 66\nvalue = [0, 12, 0, 54, 0]\nclass = spec_prior", fillcolor="#6765eb"] ;
170 -> 171 ;
172 [label="entropy = 0.0\nsamples = 45\nvalue = [0, 0, 0, 45, 0]\nclass = spec_prior", fillcolor="#3c39e5"] ;
171 -> 172 ;
173 [label="entropy = 0.985\nsamples = 21\nvalue = [0, 12, 0, 9, 0]\nclass = priority", fillcolor="#def8ce"] ;
171 -> 173 ;
174 [label="entropy = 0.0\nsamples = 59\nvalue = [0, 59, 0, 0, 0]\nclass = priority", fillcolor="#7be539"] ;
170 -> 174 ;
175 [label="form_foster <= 0.5\nentropy = 0.699\nsamples = 90\nvalue = [0, 73, 0, 17, 0]\nclass = priority", fillcolor="#9aeb67"] ;
163 -> 175 ;
176 [label="entropy = 0.0\nsamples = 67\nvalue = [0, 67, 0, 0, 0]\nclass = priority", fillcolor="#7be539"] ;
175 -> 176 ;
177 [label="housing_convenient <= 0.5\nentropy = 0.828\nsamples = 23\nvalue = [0, 6, 0, 17, 0]\nclass = spec_prior", fillcolor="#817fee"] ;
175 -> 177 ;
178 [label="entropy = 0.0\nsamples = 11\nvalue = [0, 0, 0, 11, 0]\nclass = spec_prior", fillcolor="#3c39e5"] ;
177 -> 178 ;
179 [label="finance_inconv <= 0.5\nentropy = 1.0\nsamples = 12\nvalue = [0, 6, 0, 6, 0]\nclass = priority", fillcolor="#ffffff"] ;
177 -> 179 ;
180 [label="entropy = 0.0\nsamples = 6\nvalue = [0, 6, 0, 0, 0]\nclass = priority", fillcolor="#7be539"] ;
179 -> 180 ;
181 [label="entropy = 0.0\nsamples = 6\nvalue = [0, 0, 0, 6, 0]\nclass = spec_prior", fillcolor="#3c39e5"] ;
179 -> 181 ;
182 [label="children_1 <= 0.5\nentropy = 0.362\nsamples = 174\nvalue = [0, 12, 0, 162, 0]\nclass = spec_prior", fillcolor="#4a48e7"] ;
162 -> 182 ;
183 [label="entropy = 0.0\nsamples = 132\nvalue = [0, 0, 0, 132, 0]\nclass = spec_prior", fillcolor="#3c39e5"] ;
182 -> 183 ;
184 [label="form_complete <= 0.5\nentropy = 0.863\nsamples = 42\nvalue = [0, 12, 0, 30, 0]\nclass = spec_prior", fillcolor="#8a88ef"] ;
182 -> 184 ;
185 [label="entropy = 0.0\nsamples = 30\nvalue = [0, 0, 0, 30, 0]\nclass = spec_prior", fillcolor="#3c39e5"] ;
184 -> 185 ;
186 [label="entropy = 0.0\nsamples = 12\nvalue = [0, 12, 0, 0, 0]\nclass = priority", fillcolor="#7be539"] ;
184 -> 186 ;
187 [label="children_1 <= 0.5\nentropy = 0.091\nsamples = 260\nvalue = [0, 3, 0, 257, 0]\nclass = spec_prior", fillcolor="#3e3be5"] ;
161 -> 187 ;
188 [label="entropy = 0.0\nsamples = 196\nvalue = [0, 0, 0, 196, 0]\nclass = spec_prior", fillcolor="#3c39e5"] ;
187 -> 188 ;
189 [label="form_complete <= 0.5\nentropy = 0.273\nsamples = 64\nvalue = [0, 3, 0, 61, 0]\nclass = spec_prior", fillcolor="#4643e6"] ;
187 -> 189 ;
190 [label="entropy = 0.0\nsamples = 47\nvalue = [0, 0, 0, 47, 0]\nclass = spec_prior", fillcolor="#3c39e5"] ;
189 -> 190 ;
191 [label="housing_convenient <= 0.5\nentropy = 0.672\nsamples = 17\nvalue = [0, 3, 0, 14, 0]\nclass = spec_prior", fillcolor="#6663eb"] ;
189 -> 191 ;
192 [label="entropy = 0.0\nsamples = 11\nvalue = [0, 0, 0, 11, 0]\nclass = spec_prior", fillcolor="#3c39e5"] ;
191 -> 192 ;
193 [label="finance_inconv <= 0.5\nentropy = 1.0\nsamples = 6\nvalue = [0, 3, 0, 3, 0]\nclass = priority", fillcolor="#ffffff"] ;
191 -> 193 ;
194 [label="entropy = 0.0\nsamples = 3\nvalue = [0, 3, 0, 0, 0]\nclass = priority", fillcolor="#7be539"] ;
193 -> 194 ;
195 [label="entropy = 0.0\nsamples = 3\nvalue = [0, 0, 0, 3, 0]\nclass = spec_prior", fillcolor="#3c39e5"] ;
193 -> 195 ;
196 [label="entropy = 0.0\nsamples = 3860\nvalue = [3860, 0, 0, 0, 0]\nclass = not_recom", fillcolor="#e58139"] ;
0 -> 196 [labeldistance=2.5, labelangle=-45, headlabel="False"] ;
}
