digraph Tree {
node [shape=box, style="filled, rounded", color="black", fontname="helvetica"] ;
edge [fontname="helvetica"] ;
0 [label="health_not_recom <= 0.5\nentropy = 1.717\nsamples = 11664\nvalue = [3860.0, 3840.0, 2.0, 3668.0, 294.0]\nclass = not_recom", fillcolor="#fffffe"] ;
1 [label="entropy = 1.197\nsamples = 7804\nvalue = [0, 3840, 2, 3668, 294]\nclass = priority", fillcolor="#fafef7"] ;
0 -> 1 [labeldistance=2.5, labelangle=45, headlabel="True"] ;
2 [label="entropy = 0.0\nsamples = 3860\nvalue = [3860, 0, 0, 0, 0]\nclass = not_recom", fillcolor="#e58139"] ;
0 -> 2 [labeldistance=2.5, labelangle=-45, headlabel="False"] ;
}
