digraph Tree {
node [shape=box, style="filled, rounded", color="black", fontname="helvetica"] ;
edge [fontname="helvetica"] ;
0 [label="health_not_recom <= 0.5\nentropy = 1.717\nsamples = 11664\nvalue = [3860.0, 3840.0, 2.0, 3668.0, 294.0]\nclass = not_recom", fillcolor="#fffffe"] ;
1 [label="has_nurs_very_crit <= 0.5\nentropy = 1.197\nsamples = 7804\nvalue = [0, 3840, 2, 3668, 294]\nclass = priority", fillcolor="#fafef7"] ;
0 -> 1 [labeldistance=2.5, labelangle=45, headlabel="True"] ;
2 [label="parents_great_pret <= 0.5\nentropy = 1.195\nsamples = 6237\nvalue = [0, 3649, 2, 2292, 294]\nclass = priority", fillcolor="#d2f6bb"] ;
1 -> 2 ;
3 [label="has_nurs_critical <= 0.5\nentropy = 1.109\nsamples = 4149\nvalue = [0, 2939, 2, 914, 294]\nclass = priority", fillcolor="#acef83"] ;
2 -> 3 ;
4 [label="has_nurs_improper <= 0.5\nentropy = 0.832\nsamples = 3110\nvalue = [0, 2581, 2, 233, 294]\nclass = priority", fillcolor="#94ea5e"] ;
3 -> 4 ;
5 [label="health_priority <= 0.5\nentropy = 0.522\nsamples = 2067\nvalue = [0, 1830, 2, 0, 235]\nclass = priority", fillcolor="#8ce853"] ;
4 -> 5 ;
6 [label="entropy = 0.796\nsamples = 1027\nvalue = [0, 790, 2, 0, 235]\nclass = priority", fillcolor="#a2ed74"] ;
5 -> 6 ;
7 [label="entropy = 0.0\nsamples = 1040\nvalue = [0, 1040, 0, 0, 0]\nclass = priority", fillcolor="#7be539"] ;
5 -> 7 ;
8 [label="parents_pretentious <= 0.5\nentropy = 1.059\nsamples = 1043\nvalue = [0, 751, 0, 233, 59]\nclass = priority", fillcolor="#abee80"] ;
4 -> 8 ;
9 [label="entropy = 0.507\nsamples = 525\nvalue = [0, 466, 0, 0, 59]\nclass = priority", fillcolor="#8ce852"] ;
8 -> 9 ;
10 [label="entropy = 0.993\nsamples = 518\nvalue = [0, 285, 0, 233, 0]\nclass = priority", fillcolor="#e7fadb"] ;
8 -> 10 ;
11 [label="parents_usual <= 0.5\nentropy = 0.929\nsamples = 1039\nvalue = [0, 358, 0, 681, 0]\nclass = spec_prior", fillcolor="#a3a1f3"] ;
3 -> 11 ;
12 [label="health_priority <= 0.5\nentropy = 0.555\nsamples = 519\nvalue = [0, 67, 0, 452, 0]\nclass = spec_prior", fillcolor="#5956e9"] ;
11 -> 12 ;
13 [label="entropy = 0.796\nsamples = 266\nvalue = [0, 64, 0, 202, 0]\nclass = spec_prior", fillcolor="#7a78ed"] ;
12 -> 13 ;
14 [label="entropy = 0.093\nsamples = 253\nvalue = [0, 3, 0, 250, 0]\nclass = spec_prior", fillcolor="#3e3be5"] ;
12 -> 14 ;
15 [label="health_priority <= 0.5\nentropy = 0.99\nsamples = 520\nvalue = [0, 291, 0, 229, 0]\nclass = priority", fillcolor="#e3f9d5"] ;
11 -> 15 ;
16 [label="entropy = 0.749\nsamples = 262\nvalue = [0, 206, 0, 56, 0]\nclass = priority", fillcolor="#9fec6f"] ;
15 -> 16 ;
17 [label="entropy = 0.914\nsamples = 258\nvalue = [0, 85, 0, 173, 0]\nclass = spec_prior", fillcolor="#9c9af2"] ;
15 -> 17 ;
18 [label="health_priority <= 0.5\nentropy = 0.925\nsamples = 2088\nvalue = [0, 710, 0, 1378, 0]\nclass = spec_prior", fillcolor="#a09ff2"] ;
2 -> 18 ;
19 [label="social_problematic <= 0.5\nentropy = 1.0\nsamples = 1048\nvalue = [0, 526, 0, 522, 0]\nclass = priority", fillcolor="#fefffd"] ;
18 -> 19 ;
20 [label="has_nurs_proper <= 0.5\nentropy = 0.916\nsamples = 691\nvalue = [0.0, 462.0, 0.0, 229.0, 0.0]\nclass = priority", fillcolor="#bcf29b"] ;
19 -> 20 ;
21 [label="entropy = 0.991\nsamples = 514\nvalue = [0, 285, 0, 229, 0]\nclass = priority", fillcolor="#e5fad8"] ;
20 -> 21 ;
22 [label="entropy = 0.0\nsamples = 177\nvalue = [0, 177, 0, 0, 0]\nclass = priority", fillcolor="#7be539"] ;
20 -> 22 ;
23 [label="housing_convenient <= 0.5\nentropy = 0.678\nsamples = 357\nvalue = [0, 64, 0, 293, 0]\nclass = spec_prior", fillcolor="#6764eb"] ;
19 -> 23 ;
24 [label="entropy = 0.426\nsamples = 242\nvalue = [0, 21, 0, 221, 0]\nclass = spec_prior", fillcolor="#4f4ce7"] ;
23 -> 24 ;
25 [label="entropy = 0.954\nsamples = 115\nvalue = [0, 43, 0, 72, 0]\nclass = spec_prior", fillcolor="#b0aff5"] ;
23 -> 25 ;
26 [label="housing_critical <= 0.5\nentropy = 0.673\nsamples = 1040\nvalue = [0, 184, 0, 856, 0]\nclass = spec_prior", fillcolor="#6664eb"] ;
18 -> 26 ;
27 [label="has_nurs_improper <= 0.5\nentropy = 0.814\nsamples = 683\nvalue = [0, 172, 0, 511, 0]\nclass = spec_prior", fillcolor="#7e7cee"] ;
26 -> 27 ;
28 [label="entropy = 0.916\nsamples = 510\nvalue = [0, 169, 0, 341, 0]\nclass = spec_prior", fillcolor="#9d9bf2"] ;
27 -> 28 ;
29 [label="entropy = 0.126\nsamples = 173\nvalue = [0.0, 3.0, 0.0, 170.0, 0.0]\nclass = spec_prior", fillcolor="#3f3ce5"] ;
27 -> 29 ;
30 [label="children_1 <= 0.5\nentropy = 0.212\nsamples = 357\nvalue = [0, 12, 0, 345, 0]\nclass = spec_prior", fillcolor="#4340e6"] ;
26 -> 30 ;
31 [label="entropy = 0.0\nsamples = 271\nvalue = [0, 0, 0, 271, 0]\nclass = spec_prior", fillcolor="#3c39e5"] ;
30 -> 31 ;
32 [label="entropy = 0.583\nsamples = 86\nvalue = [0, 12, 0, 74, 0]\nclass = spec_prior", fillcolor="#5c59e9"] ;
30 -> 32 ;
33 [label="health_priority <= 0.5\nentropy = 0.535\nsamples = 1567\nvalue = [0, 191, 0, 1376, 0]\nclass = spec_prior", fillcolor="#5754e9"] ;
1 -> 33 ;
34 [label="social_problematic <= 0.5\nentropy = 0.783\nsamples = 782\nvalue = [0, 182, 0, 600, 0]\nclass = spec_prior", fillcolor="#7775ed"] ;
33 -> 34 ;
35 [label="housing_critical <= 0.5\nentropy = 0.928\nsamples = 522\nvalue = [0, 179, 0, 343, 0]\nclass = spec_prior", fillcolor="#a2a0f3"] ;
34 -> 35 ;
36 [label="children_1 <= 0.5\nentropy = 0.999\nsamples = 348\nvalue = [0.0, 167.0, 0.0, 181.0, 0.0]\nclass = spec_prior", fillcolor="#f0f0fd"] ;
35 -> 36 ;
37 [label="entropy = 0.946\nsamples = 258\nvalue = [0, 94, 0, 164, 0]\nclass = spec_prior", fillcolor="#acaaf4"] ;
36 -> 37 ;
38 [label="entropy = 0.699\nsamples = 90\nvalue = [0, 73, 0, 17, 0]\nclass = priority", fillcolor="#9aeb67"] ;
36 -> 38 ;
39 [label="children_1 <= 0.5\nentropy = 0.362\nsamples = 174\nvalue = [0, 12, 0, 162, 0]\nclass = spec_prior", fillcolor="#4a48e7"] ;
35 -> 39 ;
40 [label="entropy = 0.0\nsamples = 132\nvalue = [0, 0, 0, 132, 0]\nclass = spec_prior", fillcolor="#3c39e5"] ;
39 -> 40 ;
41 [label="entropy = 0.863\nsamples = 42\nvalue = [0, 12, 0, 30, 0]\nclass = spec_prior", fillcolor="#8a88ef"] ;
39 -> 41 ;
42 [label="children_1 <= 0.5\nentropy = 0.091\nsamples = 260\nvalue = [0, 3, 0, 257, 0]\nclass = spec_prior", fillcolor="#3e3be5"] ;
34 -> 42 ;
43 [label="entropy = 0.0\nsamples = 196\nvalue = [0, 0, 0, 196, 0]\nclass = spec_prior", fillcolor="#3c39e5"] ;
42 -> 43 ;
44 [label="form_complete <= 0.5\nentropy = 0.273\nsamples = 64\nvalue = [0, 3, 0, 61, 0]\nclass = spec_prior", fillcolor="#4643e6"] ;
42 -> 44 ;
45 [label="entropy = 0.0\nsamples = 47\nvalue = [0, 0, 0, 47, 0]\nclass = spec_prior", fillcolor="#3c39e5"] ;
44 -> 45 ;
46 [label="entropy = 0.672\nsamples = 17\nvalue = [0, 3, 0, 14, 0]\nclass = spec_prior", fillcolor="#6663eb"] ;
44 -> 46 ;
47 [label="children_1 <= 0.5\nentropy = 0.09\nsamples = 785\nvalue = [0, 9, 0, 776, 0]\nclass = spec_prior", fillcolor="#3e3be5"] ;
33 -> 47 ;
48 [label="entropy = 0.0\nsamples = 587\nvalue = [0, 0, 0, 587, 0]\nclass = spec_prior", fillcolor="#3c39e5"] ;
47 -> 48 ;
49 [label="form_complete <= 0.5\nentropy = 0.267\nsamples = 198\nvalue = [0, 9, 0, 189, 0]\nclass = spec_prior", fillcolor="#4542e6"] ;
47 -> 49 ;
50 [label="entropy = 0.0\nsamples = 147\nvalue = [0, 0, 0, 147, 0]\nclass = spec_prior", fillcolor="#3c39e5"] ;
49 -> 50 ;
51 [label="housing_convenient <= 0.5\nentropy = 0.672\nsamples = 51\nvalue = [0, 9, 0, 42, 0]\nclass = spec_prior", fillcolor="#6663eb"] ;
49 -> 51 ;
52 [label="entropy = 0.0\nsamples = 34\nvalue = [0, 0, 0, 34, 0]\nclass = spec_prior", fillcolor="#3c39e5"] ;
51 -> 52 ;
53 [label="entropy = 0.998\nsamples = 17\nvalue = [0, 9, 0, 8, 0]\nclass = priority", fillcolor="#f0fce9"] ;
51 -> 53 ;
54 [label="entropy = 0.0\nsamples = 3860\nvalue = [3860, 0, 0, 0, 0]\nclass = not_recom", fillcolor="#e58139"] ;
0 -> 54 [labeldistance=2.5, labelangle=-45, headlabel="False"] ;
}
